encog,BasicNetwork,java,3.4.1,1,63726013154213
[BASIC]
[BASIC:PARAMS]
[BASIC:NETWORK]
beginTraining=0
connectionLimit=0
contextTargetOffset=0,0,0,0
contextTargetSize=0,0,0,0
endTraining=3
hasContext=f
inputCount=4
layerCounts=4,151,151,5
layerFeedCounts=4,150,150,4
layerContextCount=0,0,0,0
layerIndex=0,4,155,306
output=0,0,0,0,0,0,0,0,0,0,0,0,0,0,0,0,0,0,0,0,0,0,0,0,0,0,0,0,0,0,0,0,0,0,0,0,0,0,0,0,0,0,0,0,0,0,0,0,0,0,0,0,0,0,0,0,0,0,0,0,0,0,0,0,0,0,0,0,0,0,0,0,0,0,0,0,0,0,0,0,0,0,0,0,0,0,0,0,0,0,0,0,0,0,0,0,0,0,0,0,0,0,0,0,0,0,0,0,0,0,0,0,0,0,0,0,0,0,0,0,0,0,0,0,0,0,0,0,0,0,0,0,0,0,0,0,0,0,0,0,0,0,0,0,0,0,0,0,0,0,0,0,0,0,1,0,0,0,0,0,0,0,0,0,0,0,0,0,0,0,0,0,0,0,0,0,0,0,0,0,0,0,0,0,0,0,0,0,0,0,0,0,0,0,0,0,0,0,0,0,0,0,0,0,0,0,0,0,0,0,0,0,0,0,0,0,0,0,0,0,0,0,0,0,0,0,0,0,0,0,0,0,0,0,0,0,0,0,0,0,0,0,0,0,0,0,0,0,0,0,0,0,0,0,0,0,0,0,0,0,0,0,0,0,0,0,0,0,0,0,0,0,0,0,0,0,0,0,0,0,0,0,0,0,0,0,0,0,0,0,0,0,0,0,0,0,0,0,0,0,0,0,0,0,0,1,0,0,0,0,1
outputCount=4
weightIndex=0,604,23254,24004
weights=##0
##double#24004
   0.4803283275,0.7573415317,-2.9828520694,0.3560315783,-0.3537003312,-1.6674443165,0.5228990008,-0.3132478398,-0.6918025795,0.5541377929,0.5801943481,-0.3689935997,-0.2066930587,-0.389390172,0.8772443444,-3.4492232521,-0.1452496052,0.466786604,0.7671498798,1.8620272879,-0.6482527209,-0.519225626,-0.2349214891,-0.2451490375,-0.0758376978,1.0445254226,0.9327755939,0.3849484433,0.5783405149,1.0080702883,0.0304647008,0.0995680573,-0.2801744721,0.331773276,-0.4386572861,0.6740755213,-0.3529353249,1.1555686891,-0.4901184204,0.9356524222,1.1297072227,0.7688503119,0.1468879473,-0.6682092843,0.5941944615,-0.1002568981,1.9042416689,-0.5829448159,0.148105549,0.6568177938,0.3256201036,0.4134176114,0.5543412765,1.8906924222,1.3994028606,-0.2147747896,-0.73965275,-9.0571929434,0.0458984058,-2.4046392118,1.2453292651,0.8858054322,0.6496232215,-0.1604349168,-0.1211534185,0.2946953608,0.7666889537,-1.5718343901,-0.3212599145,-0.1856951803,0.4055961788,-3.7242488434,-0.3734059211,-2.2762877634,0.4748742968,-1.4207139349,0.3990828419,-0.5932859215,0.0303150823,0.9212274285,2.0908863287,-0.4029200485,-0.279368418,-0.6602889122,-0.2532999238,0.0977812786,-0.6293742357,-4.5848088002,-0.2087720164,0.3133109976,-2.0792318459,-0.3059867466,-0.1977803854,0.0741982026,0.4670970548,0.0605898336,0.966316532,-2.3926168427,0.9592136032,-0.513592848,-0.3659872102,0.6926538628,0.5728515932,-0.3293627312,-0.0334324484,0.7289336182,1.1814539975,-0.0215521878,-0.7479167246,-0.9341880158,-0.733403638,-0.6381904015,-0.375189211,-0.707165686,1.0039899936,-0.6477943459,0.7631111088,-1.4416187319,0.3177193694,0.3707344349,-0.5812898279,0.4440213768,0.7209776444,-0.4290999703,0.4949647002,-0.3949290582,-0.2512132271,0.8260750202,-0.2862191375,1.0459616967,0.8931568677,0.684076251,-0.4910601283,0.33520586,0.7667730095,0.1298726544,1.2029138548,-0.2857094155,-1.0834762443,-0.4580298533,-0.153292843,1.065585838,0.438774333,-0.7410430386,-0.7088965982,0.4975105744,0.7396714281,0.1127642876,0.2056094898,0.5219515247,0.3290397269,-2.4540577967,0.306228543,0.6711211545,-0.7504859858,-0.1412285401,-4.736017978,-0.3515717024,-0.0180904287,-0.6263897106,1.2377135394,-0.3212858799,0.6182184957,0.89979839,-0.7830471559,-0.7970195528,0.8628982572,-0.2050133851,-0.0853040397,-0.0641627265,0.7494579637,-0.4337459042,0.3769026594,2.8026222674,-0.3995015457,0.2093318845,1.0168219234,-0.7165512128,-0.4414032017,0.4695701207,0.4705340764,-0.6295434729,-0.2282073202,0.3942301665,0.1268840711,1.0377689822,-0.5361878242,0.7853424215,0.6813799699,0.3320692741,-0.10486026,-0.0964963135,-0.0881590795,-0.4757625182,-0.1803113034,1.0205000232,0.0408709598,0.6265840711,0.4286286282,0.8741775995,0.2145283462,1.6094174469,-0.5760105631,-0.3222061845,1.0985658366,-2.1761083934,0.0815578217,-0.0372294925,0.3050778545,2.6011858523,0.6328832729,-0.239673245,-0.7754223482,0.4683931064,-0.4703616281,-0.2741070267,-0.0265397864,0.3907388154,-0.1631874252,0.8874393749,-0.6098076725,0.9149479539,0.7223591184,0.8085019973,0.4001767395,-0.6243487396,0.1824164476,-0.6502626421,0.1417358465,-0.8938019343,-0.386821138,0.7251579962,-0.8094014281,0.1659808317,0.6442060192,0.2595447762,-0.1488218203,0.8275515607,0.2867199577,-0.6174741289,-0.3162408443,0.7259832486,0.2409155002,0.0133355157,1.0319628933,-0.1420961645,1.0416855127,1.0012958089,0.0632746145,-0.3033145389,0.7247982757,0.8893088767,0.0037063483,-7.5305914636,-0.0946095587,0.009175895,0.6989740807,0.8908571473,0.7921670706,0.338324476,0.8234996775,0.1612678878,-0.2409790832,-0.3349795102,-0.7610031948,0.9908481178,0.7018292828,0.3549648994,0.4836535691,-0.2096827202,-0.4850210139,0.9431423017,7.7065331547,11.5008272924,-0.825103181,-0.2468082505,-1.3361682241,0.312178299,-1.0419982972,1.0575038776,0.7899477888,-0.6483671574,0.606292807,-0.7881351118,-0.3529483195,-0.226951865,-8.6427488981,-0.0552692878,-0.9054499639,-0.2256923451,0.3387114364,1.1987955326,-0.1424409526,0.1894741744,-0.3401238285,0.142898553,-0.5320178209,0.6761739961,0.0165032255,-0.3183825914,-0.1688154953,-0.6989340088,0.1226443505,2.8148583595,0.1521789574,-0.0799317568,-0.4573049323,-0.4395900921,0.9947413908,-0.2096563547,0.2081937628,0.2332190183,-0.7866166746,-0.1071681361,-0.192214285,0.7391882685,0.2557303625,0.9565198897,-0.765256148,-0.8743972698,-0.0847232285,-0.2265272782,0.7941220323,1.0511401545,1.0579022629,-0.5358044209,-0.313891896,-1.1284309323,1.374750292,-3.3514528469,-0.2516480941,0.5208971453,-0.65111026,-0.7687128915,-0.1370652278,-0.4338689895,0.0593614989,-0.0573788803,-0.8752352728,-0.8613015843,-0.0311408756,-0.0390155532,-2.8462887894,-0.0121795904,-0.4872869022,1.4233942944,0.051936231,0.1788118595,-0.5080069162,-0.484823038,-0.5692915913,-0.1617973535,-0.4441172046,0.213943651,0.515206913,-0.4219132867,-0.3967195388,-1.0185297416,-0.1940482268,0.3499606768,1.0867248967,0.7639124687,-0.4365647007,0.7631670118,-0.1836887738,0.1076236117,0.5601223267,0.5115454518,-0.4024052155,-1.2300115501,-0.5953434541,0.9555397042,0.20130103,0.8214670619,0.2470601049,0.1653664414,-0.6718030304,0.278206454,-0.2126895047,0.6050751554,0.1839535378,0.8434139635,-0.862165314,-0.8233248647,-0.2721699505,1.1235736068,0.7787535256,-0.3005688992,0.4942648165,0.5868840589,0.3617708507,0.4950752118,-1.092999323,0.4113574404,0.6914478391,0.0540244878,-0.7290372357,0.014724626,-0.2406370274,0.5166924334,0.3081121484,-0.4484243018,0.5416099745,0.8794480186,-0.3329221599,-0.6691346413,0.5558679154,-0.1751310125,-0.1064255385,-0.409041211,-0.6617556248,1.0495928668,-0.6388997093,0.5773344389,-0.4113060845,0.6044395993,-1.0145237094,0.9578645483,-0.7210729255,-0.9397644514,-0.4982338258,0.4648786868,0.9341402022,0.7690636121,4.2540530896,-0.4008109999,1.146028128,-0.2161883693,-0.7720040778,0.5934361401,0.7382008819,-0.4919735307,-0.6412097446,-2.8955716014,0.3020056026,0.0231905394,0.7503095381,-0.9152676694,-0.7444096678,-0.3556019146,0.2759592172,5.3423781694,0.5486172177,0.7570641246,-1.2842788939,0.5605973724,0.29445605,-0.3901662828,-0.0822624304,0.6904104456,0.3749949048,-0.280456471,0.4015303769,-1.18220518,-0.6083402578,-7.2283844656,0.2708291316,-0.4418074966,0.0968091158,-2.5221983927,-0.8055713547,0.6510954148,1.5409554189,0.1996143903,0.4241160706,0.3901378086,0.231631023,-0.0933557792,0.1864142723,-0.1917164263,-0.3339923287,0.6323675759,2.046113472,-0.2537065857,0.8277872142,0.5004178272,0.9051623488,0.6791538748,0.7725094195,0.3971224685,1.3083328227,-0.2308019748,1.0323081488,0.3617384752,0.014250149,-0.3818987582,-0.8195514654,-0.7258162079,-0.7137237306,0.127010215,0.65199851,0.1092167749,0.2495410788,0.5461069145,-0.7537995297,0.8081156215,-0.606700727,-0.1417923288,-0.1145634154,0.8853691374,0.5216569828,-0.2939166063,0.5479181176,0.5144856323,0.643707633,0.784773983,0.5191203922,-0.5357266827,0.5795671691,-0.5388520046,-6.8171468631,-0.6645230652,-3.8603347913,0.746947192,0.113271329,0.424351631,-0.9198374832,-0.7878395155,-0.7648091949,-0.3509856397,-4.0150163236,0.8825739468,0.425798489,-0.1068135433,-5.8699294905,-0.9018781502,-5.0426348282,-0.5702959674,0.6710423486,-0.1501577094,0.4336252807,-0.8836309755,0.8316753669,-0.5675466415,0.164960437,-0.7187759805,-0.9612601563,0.7240270424,0.2911378715,-0.7346839352,-0.3275122533,-0.7559666153,0.2025580876,-0.8388778145,0.2706099692,-0.6170771246,-0.1696542651,-0.3486034769,0.4354659656,0.8996156822,-0.9160581578,0.2359652772,-0.0612629346,0.2827822737,-0.3770839151,-0.7392747448,-0.3851939488,-0.3946265749,0.5463726012,-0.7459651483,0.718370396,-0.0461383472,-1.0301620805,-0.3934821824,-0.0727128513,0.3392708247,-0.2025439536,3.7718234709,0.7447364408,0.4471654932,0.2510886343,-0.662051389,0.1192306158,-0.8219407487,0.8418294574,-0.3984265207,-0.5739250707,-0.1612552833,0.1351310597,0.2084575997,-0.0607189534,-0.6841589474,-0.3931296142,0.2425128804,0.1561311703,-0.1407127688,-0.9479436991,0.8827660399,-0.5067091805,-0.6213446961,0.5883185767,0.9377393569,-0.9597008864,0.9151898498,0.9460564842,0.1080789447,0.3362016624,-0.4733325795,-0.8831046004,-0.4402712606,-0.7598820027,0.6365410335,0.5514643074,-0.1008644999,0.7102287941,0.8023796325,0.8747513952,-0.2117302002,-0.4888185803,-0.2107966029,-0.5638640717,-0.8549332469,0.1113719203,-0.4581448126,-0.6709148966,-0.5547878091,0.1375529065,-0.1797083254,-0.2384046603,0.3732539475,0.429791803,-0.2059244379,-0.8245789569,0.3822186183,0.8154430157,-1.4564288852,-0.7602072643,0.2381937751,-1.1797795966,0.4917206151,0.3017816724,-0.3434831799,0.4989862993,-0.438231085,-0.5393898569,-0.2180238849,-0.1716314832,0.4393858292,-0.3183290816,-0.5229067859,-0.3262463939,0.3382092001,-0.3124808277,0.2325878202,-1.0419611491,0.3989165275,0.3187869365,-0.9357530485,0.9177937421,-0.9344139676,0.4740153071,0.3148293182,-0.3966795343,0.6245224695,-3.320694444,-0.7546459721,0.7388527781,-0.8531431721,-0.9524445794,-0.718087533,-0.2347086951,0.5765165333,-0.1510629954,-39.4397329079,-0.7127066032,0.5593626785,-0.1578535005,0.2203402472,-0.205562946,-1.0734880673,-0.6720014638,0.2257662343,-0.8749457985,0.7346349149,-0.4174840559,0.1283039573,-0.5006263415,0.9954672457,1.007483601,-0.3765168516,0.5658005595,0.7335392468,0.4294075665,-0.4257948899,-0.0099525559,-0.4247947165,-0.657212871,-0.2893185927,44.036730458,0.8664639256,0.7505417741,0.9154994553,0.8809767235,0.6145939562,0.4372968227,0.9637948063,-1.0409532546,0.8480687475,-0.8699621845,-0.134537176,1.0529873686,-0.1524489887,-0.1194604345,0.068223666,0.4985375129,0.425199179,-0.6501362653,0.4155128882,-0.1087524768,-0.1580237882,0.5812838329,0.2733770096,-0.2095118167,-0.7847379168,0.5885491953,0.1445037817,1.1854753388,-0.5645708885,-1.2121713731,-2.6791931496,-0.3927169004,0.2858224218,-0.5599232637,-0.5598830672,-0.2825432805,-0.056824097,-0.32410558,0.744027449,-0.5265428937,-18.7733939903,-0.0968061337,0.3869372195,0.7777835661,-0.403685321,0.4294254712,-0.8610349385,-0.2912409383,0.5989206376,-0.0769803775,0.0969428661,-0.1570985334,1.6327310003,0.4923900321,-0.9074312118,0.8999546562,-0.2866995933,0.280394454,-0.0565454741,0.0623970661,0.8110034092,0.9377773861,0.2130792063,-0.4630094727,-0.5478314429,-0.9125946939,0.2466449101,1.4986157481,0.7654408262,-0.1983150284,-2.0062778411,-0.3748405896,-0.6793382408,-0.090107324,0.7427703666,0.9877150375,-0.4761557567,-0.499869173,-0.4912516238,-0.4594355926,-0.9049983188,0.1445474354,0.1215921377,-0.6936574344,0.0527903865,-0.621548424,-0.6067976056,-0.2011682946,0.7108346375,-0.1953571394,2.1894203488,-0.2713744452,-0.3162212884,0.1682693379,0.7194641049,-0.2189069122,0.5116708853,-0.8725813027,0.3971611169,-0.7588250804,4.485118998,-0.0213277674,0.465347941,0.5302856063,-0.0266414137,-0.0167120038,-0.3089539909,0.2662538408,-0.2219851432,0.1818345984,0.0341560486,-0.385738827,0.8862580008,-0.5776415956,-0.4869146652,-0.2271355799,0.4152470262,0.1267101906,-0.659594893,-0.8641753491,0.5757908009,-0.3337848679,-0.7830244671,-1.0746022742,1.0759090892,26.2772547719,0.6158129705,1.0512432805,-0.2696704321,-1.0998110138,-0.8517985334,0.171410151,3.3612437159,-0.929764055,-0.288571083,0.4983390024,-1.197030433,-0.2386933289,-0.1217295138,-0.2000762323,0.0566882414,-0.0929394408,-0.3612366446,-0.8151232042,-0.4508623963,-0.3831978819,0.4279253042,0.716898688,0.7599378655,0.0548162246,0.9075565053,-0.2594067823,0.6298520886,0.1930963938,-0.4627065842,-0.5887450105,-0.0958233161,0.1353268593,-0.2311315689,-0.3661505206,0.8273863259,-0.623473704,0.5935442396,0.1141008911,0.2420121478,0.7863597459,-0.2903997962,-0.3325180638,-0.8126692727,0.3458421696,-0.8091736665,-0.6969359492,0.2556482049,-0.371919063,0.6265392707,-0.5008026887,0.615724032,-0.6863578238,-0.0583688517,0.3203173073,-1.0490388938,2.113222224,-0.4319976516,0.0569393518,0.1023409093,-0.1923703277,-0.063471133,0.4048555835,-0.4942602923,-0.0871552908,-1.1861440341,-5.471547216,-0.7877246131,-0.4627304532,0.4252274611,-1.700834065,-0.2325726167,-0.615651211,0.0926948196,-0.663331962,0.7487760435,-0.5142156391,-0.4597806385,1.3504637027,-0.8334732918,-0.1368463543,0.1563381118,0.4408008952,0.5127068737,0.3166545886,0.9306943867,-0.0521499892,0.6139920598,0.0807515275,-0.4185601638,0.3437276684,0.1301376949,-0.2700481346,-0.8928675117,-0.0338485618,0.4573618961,0.9662524457,0.5634407117,-0.1224911898,0.483206901,-0.177100193,-0.142803243,0.4838284335,0.532392019,0.0271424155,-0.0093829944,-0.8580246436,0.6780032009,-0.0802082185,0.7373969144,-0.2743769883,-0.795278012,0.3675785981,-0.6462422284,-0.6688427563,0.2579767947,3.503724184,-0.9746491777,-0.4666236745,0.9784305374,0.1312683862,0.8423384257,-0.0148952751,0.9169852843,-0.0442239389,-0.8926700782,-0.1038872804,0.7280242575,-0.1463115172,0.9835113247,-0.8399037715,0.235184964,0.7496354893,1.3078924463,0.2844981539,-0.2205898093,-0.0734262027,0.6824001752,0.2744527081,-0.7406189219,-0.6162029689,-0.8891893202,0.8902103334,0.0028110946,-0.1440431083,0.0977531466,-0.7027417392,-0.2395295531,-0.6735600479,-0.5501693234,3.9958279025,37.8215130295,1.0767033685,-0.3726433105,-0.1642517928,0.9837025363,-0.5382371794,-0.0795826793,-1.2002190314,-0.0500421488,0.3199794882,0.4917110746,-0.9201322197,-0.713595784,0.9642893679,0.3884418239,0.9108753569,3.3427532348,-0.1453014441,-0.7700865159,-0.1133147306,0.655063357,0.0025822991,-0.9223705781,-0.3682454076,-0.2922664526,-1.2566862613,0.4745865117,0.8949419673,-1.1207007429,-0.5372862851,0.82441611,0.1060309108,0.7774512773,1.5594087446,0.6385338298,-0.5935566877,-0.3490959437,-0.4450228484,-7.3985497815,-0.3902376852,0.1653204072,13.3610636897,-0.2667678306,0.7829188106,-0.1631257765,0.6533035949,0.6515472572,-0.4055290527,-0.1391732365,-110.2975699389,0.0189182835,0.6987141969,-0.4331545509,0.9301542851,1.157662147,-0.6952826845,9.6346288218,0.9513523539,0.0400025193,0.4304999929,-0.622128425,-0.0006938876,0.4437145784,-0.0822281032,-0.4592277959,0.7676869788,59.7518270704,-0.6208123442,0.6408956493,-0.691056446,-3.7126700978,0.647096359,0.6534387596,0.5850881801,-0.5446189174,-0.1593312269,-0.3662316247,0.0685436169,2.689126068,-0.4671324072,-0.307621909,-0.7881154863,-1.3311777635,1.1870723928,-0.7501997629,-5.5492226534,0.3088084847,0.8707598413,-0.6032383542,-0.0510174323,-0.0147547699,-0.1914566074,0.1119445707,1.4434949289,0.6151626571,-0.5095044218,-0.5207490123,-0.5174088442,0.4023132042,-1.0645271095,0.0606657938,0.3466316114,-0.8703503832,-0.4497766448,-0.0272652113,0.0655809129,0.1500184625,-0.7574571392,-0.7638140468,-0.288797151,-0.4507371906,0.7680177171,-0.2393777989,0.7214999113,0.1065102929,0.0377803994,-1.8037970004,0.2057627907,0.3842976422,-0.6103746285,-0.0269621563,0.418078375,0.9500866172,-0.3376222403,-0.3085227954,-0.6030952817,-0.6068353951,0.8556749193,-0.100561844,-0.1881046081,-0.8990961587,0.3490396542,-0.6149057085,0.1449985971,0.540538607,0.5401716457,0.4959541628,0.7923230332,0.3355783599,0.7472383263,0.1843698431,0.6227505395,-0.1049619602,0.8941737062,0.2366653673,0.0513155331,0.8640360617,0.2504418188,-0.7114677665,-0.29784069,-1.3793491232,-37.6861642243,-0.2306027627,-0.6936674998,0.6933926333,-0.2509807627,-0.3102700912,-0.4288027753,0.8231637791,0.2446422803,0.6466310082,-0.6543952685,0.3049354288,0.6589716368,-1.0710503258,1.1723077188,0.535049537,-0.7920264456,-0.4311682831,-0.625417564,-0.2955149642,-0.3670826086,0.6380319249,-0.4817882206,-0.4487497031,-0.6936483053,1.2699305981,0.1425082419,-0.612840159,1.2619861965,-0.9640643047,-0.010584508,-0.990353033,-0.6769169229,-1.1391738508,0.7439389668,-0.7538980877,-0.5657754206,0.0508331676,22.8636506997,-0.4098402058,-0.0085853008,-0.7754234852,-0.0098622126,0.4981292903,0.3903095734,0.7204516599,-0.1865186222,-0.5939527058,0.4546430325,20.3469698663,-0.2167561213,-0.2873990284,-0.695545454,0.5465030472,-0.3106282929,-0.2169368727,-7.0825811479,-0.2664440722,-1.4784585501,0.6310270856,0.8195286085,0.1308422277,0.5128481684,0.3196467251,0.7776162489,-0.1607327429,-61.4158265812,0.8897813484,-0.7681015462,-0.4196282677,8.0373175985,-0.3051166336,0.565555546,0.3142786671,0.3101811629,-0.2486324738,-0.2469404509,0.6739907781,-1.3444533749,-0.6448007495,-0.5726402082,0.6367338396,0.7794514233,0.5820085971,0.208695653,6.9481556916,-0.9003056362,0.2331904106,0.1815373809,-0.2537024853,0.2941510991,0.140550241,0.588185746,-0.6061021865,0.8177758079,1.0299126805,4.4633363597,0.7588220431,-0.874367306,-0.0928210284,0.6861623028,0.9674907699,0.7698619942,-0.1398770124,0.9489027997,1.297953703,1.1459190326,0.124605086,-0.1291264005,0.5333130805,0.7038529269,0.930431768,-0.381072018,0.2794427146,0.1046561667,0.0539063552,0.8262263687,-0.5382364318,-0.0293306996,0.6585113467,-0.2197981169,0.6611801467,-0.0972924323,0.8202129208,-0.1025029121,0.2008281412,-8.677846387,-0.0074645698,0.4252873892,1.4827390881,0.0173030498,1.0615761196,0.4141578536,8.7969233756,0.5076091958,0.4311930583,0.7782904698,-0.0645092172,1.0839323697,0.4244541344,-0.1412817962,-0.1332818538,-51.9880438368,0.3927595411,-0.2606175988,0.8479130006,0.9308341602,0.4156868705,1.2817580131,0.6376281881,-0.0240973567,-7.6678018943,0.1032056755,-6.5969749644,-0.7087721162,2.8162914855,-0.7888727336,0.1999601464,-3.5726506254,1.1728472317,0.4303477919,-0.7734569968,0.6698620046,0.1995170698,0.7424285203,0.5309300597,6.3105411053,-26.7381576605,-0.0178578082,0.6815052104,0.2989455225,0.3933570485,0.9846609728,-0.0323823099,0.603182162,0.2910877031,-4.3808565321,0.9043276617,-0.4381424509,0.8162256852,-0.23226931,0.6232276499,-0.0364215139,-0.5305276609,4.4582334142,-0.3687840743,-0.4645453766,-0.5643646353,3.4881977782,-0.4950963493,1.3023774651,-0.873954622,1.1940031257,0.4178587155,0.643950865,0.6533543724,-0.0034664886,1.1068613189,0.7038658029,0.1808611164,-1.638428086,-0.0848382663,-0.8504909375,-0.3609193655,1.492470078,0.3139884897,1.3361444101,-3.9374071529,0.1188856422,0.6395563734,0.4438924397,0.7779716383,0.1365007649,-0.0542045818,-0.2938512439,1.0876233477,-0.2306709242,2.8368212938,-0.7024542334,0.6316483887,0.0271582795,1.6450440492,-0.0171338986,0.5657640446,0.0318691226,-0.7013985029,0.3061012332,-0.0710386448,1.2985568772,-0.4725521439,0.3087901905,0.106392025,-0.1301689623,0.9746258672,0.4860220819,-0.4308884159,-0.4925439126,-0.9785990557,2.2447006263,0.4759372876,-0.6790244916,0.5460475672,1.2901881858,0.7587253329,0.6357694605,-0.6346337806,0.5608362874,54.5396281545,0.5398988918,-0.1582481541,-0.2962456652,0.3683741947,0.6868910108,-0.4887539407,-0.1043580821,-0.2947517944,-0.9119220969,-0.3913533896,0.0657713447,0.2521343133,0.4776609808,-0.4603041547,0.7198743596,0.7317152995,0.2733395324,-0.6383497908,-0.7765138498,-0.9254070394,-0.5490690032,-0.3000282013,-0.5152485734,0.6338383394,-0.5445211953,0.6571494161,-0.0542799043,-0.5798890141,-0.8459826904,0.7323887465,-0.7727679514,0.305087455,0.8538974598,-0.3025879251,0.7965121847,0.7965810016,-0.0156556439,0.7012921021,0.4392474458,0.9226288293,-0.3455724592,0.306463042,0.1451522733,-0.7560208383,0.6617562485,-2.0443150753,0.261941133,0.4725056037,-0.8524593878,0.9360799771,0.2687961286,0.6122032659,-0.0183045808,0.5011278961,-12.1240132423,-0.7204648664,2.6714946285,0.0404293179,2.1567868164,-0.232883182,0.7140468322,-4.7540098365,-0.483509963,-0.2702713649,0.6338526506,-0.4905306707,-0.8965305582,0.4411278263,-0.9578918172,13.1250875167,-0.3552641448,-0.790213975,0.5659197119,0.8518636114,0.257981124,0.8550404729,0.3587779605,-0.7359901973,-0.2204034838,51.8380641537,-0.5058996116,-0.5136838066,-0.7672653842,-0.1448132271,-0.9984026401,-0.0535781003,0.0199806951,0.4462701448,-0.0363890593,-0.5470965164,-0.0338235957,1.1197000058,-0.2881563894,-0.311433029,0.3916940658,0.5784354967,-0.1537091545,1.4143501273,-0.6312806809,-0.2243799982,0.822544939,-0.2468996495,-0.0677092779,0.26140648,-0.5090483741,0.1303620741,0.3048799091,2.9475703686,0.6423000224,0.4015131622,-3.5567711182,-0.4866920325,0.6611151695,0.159008872,0.841229476,0.0163781891,0.0950827045,0.1895244546,-0.8770979465,0.6933309238,15.3195467026,0.5631229522,-0.0015116789,-0.2099156685,1.0769561707,0.0703205034,-0.5708268924,-0.3581346479,0.1120736148,-0.6125132549,-0.8082459771,0.4089769281,14.1808238064,-0.5969878926,-0.5020657149,-0.2201629967,-0.8943707491,-0.8383397767,-0.0579258822,1.6527012262,0.8373902998,-0.0646867805,-1.7048351496,0.5162155076,0.656492234,-0.1116930661,-0.3655143228,-0.0592591328,0.0565452338,-0.2573275363,0.3025008861,-0.9307157704,-0.7721699522,0.4176000588,0.7161282184,-0.748815989,0.3437106141,0.4970471346,0.0716368283,-0.1931300283,0.186354754,-1.0369290207,-0.9987333175,0.3702516907,-0.3655652075,-0.1368485797,0.1529723768,-0.9364903323,0.3959383548,-0.6374009723,1.0830461082,-0.5905961343,-0.8945907534,-0.0304887901,-0.9811078187,0.203428625,0.7557080209,-0.3650113294,0.7988992268,-0.1463018419,11.1636576929,0.3071094559,-0.609468209,0.4087047733,0.451217353,0.8445072202,0.2137101168,1.4077675244,-0.3917084473,-0.311781391,0.5163346611,-0.352567041,0.2416622552,-0.5174176141,0.9042355474,-0.3775716467,-0.6453966153,-0.7999128115,-0.152405242,0.1745649617,0.2135756841,0.8752777909,-0.7966165129,-0.6458513753,0.3773337376,0.2038200554,-0.0088054943,1.105955376,0.6983226825,-0.5994910978,-0.5492026282,0.1725720141,-0.6384082939,-1.0064124533,-0.9657567025,-0.8102757738,0.3175158606,0.7914215948,-0.814616843,0.5627464417,0.6026611291,0.1970295738,-0.4535687293,-0.0351410951,0.9298172556,-0.8033401174,-0.4674279175,0.7732975081,0.3129415928,0.6330209004,21.7047283588,0.0486565116,-0.8631899564,-0.3845764305,0.7060880622,0.3224897978,-0.0984324857,0.6259598268,-0.0781911061,1.1056691454,-0.5830621556,0.1039391534,-0.0860403376,-0.063647675,-0.4881659818,0.3704364837,1.9429782398,-0.0345850719,-0.6963239052,0.530586669,-1.0317309936,0.8371832317,-0.5165600139,-1.1710080626,0.7765205864,0.3250298786,1.0035555785,-0.8420417924,0.492094629,-0.0954449869,-0.6527602119,-0.0200766549,0.5219725825,0.383166256,0.3641602788,0.3480996785,-0.8227338088,0.7758676772,0.6820568543,0.8710684814,0.0042635999,0.3665342507,0.6645391675,0.3774666394,-0.4035559415,-0.8443496966,0.0664929883,-0.0386921023,0.2104978959,-0.8363950429,-0.398780082,0.4777425358,-0.2564013252,0.7777877752,-0.1804337898,0.5297182262,0.6671902556,-0.4522243262,0.5742177077,0.0055107056,3.4881816019,-0.0748710703,0.8902319066,0.8064272518,0.0786776008,0.0952348081,-0.6769637007,0.5013704745,-0.5009267162,-0.2418551898,-0.6549944808,-0.6198259416,-0.7594218923,-0.7310711638,0.4241857882,0.7819589284,0.5756255582,-0.4193172759,-0.9547031579,-0.1538147381,1.1686789873,-0.0630983462,-0.7728299115,-0.324213567,0.9499208843,-0.0067972452,0.8128238748,0.44436088,0.4654807428,0.0643608455,0.6651875405,-0.5104789879,-0.1638723605,-0.8317117212,-0.329638523,0.7251942707,-0.6535717268,-0.691208604,-0.5183926315,0.5933290057,0.9953173194,-0.4347839702,0.4025455248,0.0291192196,0.5730355744,0.2459228194,0.0862452902,-0.4469871323,40.7870220704,0.5046781169,-0.8019843107,-0.2325690627,0.1264107456,-0.7423971862,-0.2414445445,-0.5265906116,-0.0122401465,2.8302933636,0.1960228402,-0.1526551391,-0.3749870483,-0.8173194862,-0.6856620335,-0.7926142214,-0.5928400182,-0.5863391533,2.5267114178,-0.126729311,-10.03253756,-0.4210740688,-0.4346126859,-0.4456559529,0.4000275759,-0.3563500711,-0.2067631001,0.1564802483,0.0776245425,0.3075699842,-0.1166655544,-0.511137638,-0.2592635347,0.3528797516,1.9331533574,-0.7078886441,0.7937991726,-0.5723711856,-0.4033562864,-0.3233807987,0.9657317521,-0.5245093217,0.5890213771,-0.2059347186,-0.6264300801,0.3639872745,0.311870773,-0.6621833908,-0.2663039617,0.6018677057,0.5877103419,0.2152555302,-0.1897182791,-0.5385536328,0.3484942895,-15.8028300601,0.2840572533,1.0014507501,0.9686452662,1.9309011369,-0.5897171163,-0.002271804,0.3777193937,-0.7452284385,0.4070955675,-0.7302111228,-0.6911540016,-33.2300855283,0.5823896843,-0.7754852162,0.0039070918,0.9428626934,-0.1201007614,-0.2869654657,5.9777490477,-0.0638584536,-0.2046241138,0.7997243878,-0.4015539751,-0.8380253946,0.995133169,-0.811344277,-0.3079558224,-0.5469079807,5.4441736137,-0.1212186763,3.6210000716,0.7897899802,0.7249094465,0.4659303713,1.076838404,0.2422960332,0.388204076,0.3582967688,0.5235019956,-0.8150089708,0.4893087634,-0.1012381208,0.0327058384,-0.2709539708,-0.6078586811,0.2281891515,-0.3506213543,-0.5104724746,-0.7494072941,1.7696669249,0.8080962018,0.6352122114,0.1983474601,0.6377381476,0.5930579293,-0.2551033399,-0.1650822879,1.1465417865,19.8803659189,0.9946323815,-0.3624730917,0.0389825158,0.5164072441,0.9579536635,-0.4696919878,-1.0347159685,-0.2595678822,0.6497416583,-0.046252799,0.5043411853,0.8554537944,-0.6247929426,-0.5608588525,-0.1562484271,-0.1424993795,0.117172154,0.5802239117,-0.7466459511,-0.7632930126,-0.5114176579,-0.6002015781,0.8546945788,-0.5701037359,0.0398493976,-0.3062425952,0.5123588287,0.8638290208,0.4834842808,0.194530398,0.8496527961,0.8996928019,-0.9510270939,0.821172086,-0.6758998591,-0.3952884085,-1.028129029,-0.289735397,-0.1801011032,0.7973485444,0.9648923222,-0.031507276,-0.559137041,0.1877690587,0.282355577,-0.3155147813,0.4499170867,0.711767224,-0.541700533,0.3745025347,0.2804569727,0.088144999,-0.0203111194,0.2947618316,-3.2905702353,-0.2086077427,114.5140942137,0.5869455652,-0.3619416758,0.6552640785,-0.0291649814,0.3352896671,0.3907257979,0.9592724278,0.0138964736,-0.6190719884,0.1664098522,-0.8558683055,0.7373412343,5.671598381,-0.8353332088,-0.5602832099,-0.6943211261,-0.4000676663,-0.2309847582,-0.622663345,0.4414400325,-0.4961781108,-0.0240297687,135.5297828191,0.0113416757,0.5232761839,-0.6445046169,0.4898327242,-0.0273460951,0.4546801805,0.038583856,-0.4250542064,-0.4653220582,0.4868016089,-0.0252176089,23.4338503358,0.3508819722,-0.0825709971,-0.6882610152,0.5688597431,-0.6347827987,0.0040162597,-0.567850387,-0.8172143608,0.9463677232,0.0301533706,-0.2067182896,0.8099608094,0.4701024361,0.7411035462,-0.3661348261,1.4112589404,0.4543804375,-0.4343140358,-3.4762418899,0.7166719282,0.2203615007,1.2713427949,-0.0248141526,-0.0408697181,0.8758856942,0.6779315498,0.2422788048,0.1065177685,5.5110482045,0.8207723628,0.8447500869,-0.6601605471,-0.0006922597,0.9636720363,-0.3047967867,0.6244722773,0.6068477862,0.713767707,0.7542943676,-0.3532344635,28.0426966396,-0.1971942161,-0.4389538123,0.7474017287,0.8900205983,0.8688330463,0.7688311882,0.8888039264,0.4129524396,0.5742459218,0.2124405606,-0.1201568912,0.0150810047,-0.141591441,-0.6041246539,-0.3066740945,0.2446639202,-2.9772583263,-7.5076313984,-0.2850440216,-0.497668037,-0.6953319601,-1.3339009093,0.2834523997,-0.2458146742,0.7065421349,0.318632594,-0.2734525275,-0.7590386197,-0.5503677556,0.2017360862,0.2386856532,-0.9979746454,-0.4160194795,-0.2159280478,0.9300040494,-0.9007086558,0.5094782316,0.9203717917,-0.2550738602,-0.2518966499,-1.096332193,0.2037747313,-1.3190084798,-0.2843323681,0.6046928789,-0.6506447604,-0.4864548394,-3.9043088644,-1.2989737037,-0.6137941308,-0.5388508214,-1.3062335004,0.5210042465,0.6137350431,-95.5522154854,0.1724754149,-0.2716224155,0.553702859,0.8927316479,0.5208723207,-0.5375814706,-0.2094073702,0.4118332651,102.7526163581,-0.6074202546,-0.5798374981,0.0583285443,0.2022252955,0.0360792863,-0.8081709331,-0.9974987801,0.8373834818,11.6205036751,0.5996556355,-6.4219980174,0.5983480697,-7.8510775583,0.7357437814,0.1880278632,-0.2664985886,-1.0475711681,0.7749592993,0.0256123991,0.3773874397,0.5995682084,-1.0308989985,-0.262850477,-5.1443769983,51.1137776168,0.2973652665,0.7502493633,0.7404321152,0.6416163145,0.0012346213,-0.3259125693,0.1045552535,0.1534366271,-15.3768282273
   -0.3225016153,-0.7540764001,0.6933011122,0.3189410229,0.3111642642,-0.1698163602,-1.011460057,-0.2936618457,0.2999762543,-0.8394766432,-0.1137849041,-21.8174383464,0.3169891438,0.174585614,0.5868949013,-0.5971301698,0.7450309016,-1.1783211339,0.0244910759,-0.9414724596,-0.9884241739,0.7523730536,-1.2687682433,-0.0660206239,-0.6529288058,0.7976309408,0.5203339631,-0.6122272929,-0.627062355,-0.7203236938,6.8664576696,-0.0698763957,-0.0967802337,0.3505113687,0.1043140148,-0.9531668968,0.0891773994,-0.8877333179,-0.5967063812,-0.4051282232,-2.0372149188,-0.5233828414,-29.5823819737,-0.7056872983,0.0918622804,-0.1039821911,0.5244057437,-1.657657562,0.9826859934,-0.6612659693,-0.9181073165,-0.3854607062,-0.6031804548,-0.819053591,-0.6098389626,0.1841286616,0.0250562947,-0.9541192641,-0.543963538,-1.6905546058,-0.5606259543,-2.6189210608,-1.3188364419,0.2880449686,0.4990845255,-0.0558466069,-0.4236145026,0.0235141027,-0.00979585,0.187215869,-0.3061490453,0.5170282048,0.4892530318,0.0601245753,0.4401161481,0.6915691233,-0.3943907215,-0.2711829663,0.3147535133,0.3717039837,-0.1227282911,0.7472591846,0.8340614054,-0.2801430101,-0.7866911338,-0.7314065592,0.4394295066,-0.9934637243,-0.7992643658,0.7288232253,-1.7600853787,-0.4903810226,0.6555382982,-0.3052664524,0.734082856,-0.4196983776,-0.6699370313,0.0864694766,-0.5657650054,0.1272361965,-0.144893101,-0.2252983157,0.5609687887,0.3450917244,0.3218068021,-0.3648670816,0.9745577516,-0.8277610437,-0.9106307663,-0.0555297058,-0.4050635516,0.1800799059,-0.9911532011,-0.0799673047,0.028501621,0.2697828394,-1.0286186456,0.3772933567,0.3165133517,0.8006073637,0.5888231926,-0.582278673,0.7868829262,0.994031999,-1.1112333482,-33.2043242883,-0.8439383711,-0.7733486296,0.3976454276,-0.4494110964,0.4817727746,-0.0837660631,0.7039813931,-0.5439044466,0.3673268296,0.856779615,0.1908606966,-0.8989502108,-0.5701066152,-0.6023621258,-0.7072938156,-0.9231270341,-0.853725342,0.0616256192,-0.9165240153,-0.6453532174,0.3802391325,0.5754709121,0.9535681745,0.5797040438,-0.1560905962,-0.5020638246,0.3553617087,2.7685129944,-0.3693248068,0.4081759329,0.5097772928,-0.3684143027,-0.9731366518,-0.4446807676,-0.9964025357,0.3843876942,-0.5505912276,22.1849787758,0.4292460295,0.4476210118,-5.1328903466,-0.6724541993,0.5204902049,0.7089102555,0.4895359685,0.9427399689,1.0714233607,-1.0874929496,26.0425462535,-0.7089463602,-0.776381193,0.7179212838,-0.6361065743,0.4554873198,0.6125975571,-6.135183915,0.7162993781,-0.8844685438,0.2309707625,-0.5440723503,-0.173486768,0.8767096036,-0.7351084881,0.1997927221,0.8987939386,-62.4256055461,0.1096759462,0.1921890754,-0.3647768595,16.6856549146,0.1740022363,-0.9755760863,-0.5456127449,0.1645117026,0.7924520821,-0.6359060425,-0.9373287158,-1.1216093149,-0.4373153167,1.5705051904,0.6007117047,0.2128242045,-0.2673135314,0.1291332215,-10.800791951,0.8972236542,0.693752531,0.4281108108,0.4048381662,0.7405476653,0.4355830519,0.828679244,-0.3390142528,0.3388802866,-1.7198478635,0.3786123453,0.4509815911,0.3857885494,0.4511771399,-0.0884533562,0.331498725,-0.2914180417,-1.0118584631,0.8412530457,0.2123673745,0.5747423188,0.5882960607,0.6095470282,0.7360137728,-0.7200477117,-0.395134235,0.07631251,0.9578453733,-0.2322968769,-0.7362416298,1.2854757218,0.8545290989,-0.7011434375,0.714491923,0.7081321837,-0.3847115313,0.6108853061,0.1284425259,0.6612194994,-0.0437995992,-1.4450451645,-0.2379149005,-0.1384895927,0.982659887,0.8603733492,-0.6219089724,0.3179300878,0.6517891274,0.0603614007,-0.4459144586,-0.582896719,-0.9458661675,0.871715099,0.7660574265,-0.849952531,0.693474334,2.7274540123,-0.8083729923,0.5018774478,0.0621815998,0.5008847059,-0.3048392192,0.6639487257,-0.7354272851,-1.4299793086,33.7603796816,0.0133850938,-0.3953163289,0.3231497953,-0.4476762423,-0.2904977534,0.911952169,-0.286387853,-0.7700989307,0.0734940834,0.3356592348,0.0841609041,0.832095623,0.1901720407,-0.6018972825,0.1085893037,-0.4276165149,0.4780894795,0.0887374568,0.7667083832,0.8901553861,0.5692572983,0.4642979724,0.9041228173,-0.5314312373,-558.9276320963,0.5107606032,0.7734180794,-0.8996071769,-0.8257293309,0.1785850451,-0.5450046781,0.6233082668,0.4181044447,-0.480588626,-0.1687480531,0.4586505917,-0.8394453255,0.5707755295,0.9790237224,-0.9932900509,0.164030155,0.8168531429,-1.4896960152,0.9373874799,-0.4686519264,0.3735689641,-0.4175877477,-1.1009089633,0.2921453072,-0.0660828771,1.0635049635,-0.1513664522,-1.2414920225,0.7012746434,-0.3533852044,2.9007054432,0.4981080696,1.2764516233,-0.2357580882,-0.0479437462,-0.724427085,-0.4781642936,-0.2795458889,0.4976728714,-0.2346889282,18.3883047939,0.6228753056,-3.8198590991,0.9830148965,0.3853244224,-0.0325962179,-0.1338715008,0.656269507,-0.42456343,0.5372017523,-0.4402399089,0.253187785,-5.1003082037,1.1500079977,0.2148415318,0.1569270606,-0.8823629244,-0.292082895,0.2514996397,-0.7920679819,-0.9052212666,-0.8315497885,-0.1189139181,-0.052509245,-0.9741506092,0.7606842559,0.0143486043,-0.2263797424,-0.2384099618,-1.3386666595,-2.0266286945,0.3044972715,0.6789901981,0.260335894,0.4101077785,0.3214084251,0.3072283069,-0.3959408444,-0.908031311,-0.3464626287,1.0712016929,1.0096615963,0.5770931064,-0.3801512017,0.6867674309,-0.5146220454,0.0759726201,0.8096543643,-0.2370612459,-0.397831764,0.8921850448,-0.0571914225,-0.4708797889,0.527554061,0.9287321419,0.305277532,-0.1032419526,0.1143594529,-0.2263570433,-0.7859862278,-26.9646911479,0.2411355748,-0.308480054,-0.5100171964,-0.4578106238,0.5046022527,0.5185280907,-1.3782324535,0.8117086682,0.4017698608,0.5730650433,0.5104333784,0.2368327627,-0.3516104591,-0.5655779231,-0.6451156282,2.7372117358,1.075469863,0.1083913237,0.7363328557,0.0573946503,0.6769593803,-0.6225493676,0.1877163378,-6.2324726111,15.3173005019,0.3676573911,1.1110287443,-0.7194059127,-2.2976805937,0.5642275743,0.5710621962,1.2334436199,-0.6614078502,0.4006138801,-0.1028799072,0.6184732567,1.1107179899,-0.0070880051,0.6117861379,-17.9507416527,-0.0937885652,-0.2620792153,0.4066144041,0.9281257493,0.7262067542,0.6023153391,0.2117067954,0.6442705559,-0.3256507469,-1033.8537562561,0.5986762203,0.8623218921,-0.4940707207,-0.0290092365,0.5132113796,0.5856081959,-1.288985266,-0.080464604,-0.052439019,-0.0461350014,-0.2294089938,-2.0211412917,0.9819112663,0.3109686707,-0.8689586017,-0.4697246609,-0.1892286324,-1.5280936991,-0.7038835975,-0.6153057458,-0.3519763966,0.5135043678,0.6931618569,-0.2972572611,0.463108612,0.392560944,-0.1143854355,-13.2105658173,-0.6377423108,-0.0236614902,6.3565362023,0.4159677473,0.9460502832,-0.720347885,-0.5794777105,0.8225338829,-0.8784445756,0.8241496402,0.4931662155,-1.1158926891,7.5826163644,-0.9840895636,-8.5339869637,0.2255334851,0.2010047786,0.6968632078,0.4329306387,-0.1560337152,0.6972493193,0.9802044672,0.936357156,0.96010633,-27.8075857629,0.5821889572,0.3488620416,0.7346625351,-0.5961304377,1.2109520838,-0.9972067172,-1.0412257479,-0.1027293061,-0.8755008549,0.6846028004,0.9074611552,-0.8667255863,0.7357421489,-0.7787020904,-0.2516817047,0.8644384729,0.2939785393,18.2789984061,-0.6118822235,-0.1661267742,-0.7066276748,-0.0358831366,-0.239864675,0.7175369355,-0.9660772209,-0.768927122,-0.4606571019,0.2502184442,-0.851762006,0.6175803955,0.9830867322,-0.7180458119,-0.5859381629,0.9112716878,0.9907541648,-0.747904634,0.3691492939,-0.0882281445,0.1700288765,0.0707095844,0.7318476248,0.5433847986,0.752509501,-0.2566024488,-0.2846474588,-0.9674729611,-0.8311381816,5.2746325835,0.4933364409,-0.3205847296,0.2998870804,-0.1107301577,-0.5908731367,0.5385999359,0.4349054766,-0.9752664538,0.9267848982,0.8232225915,-0.6106614701,0.3880172053,-0.3005620396,0.2485877579,0.6041488062,-6.4573458247,0.1173335763,-0.677844148,-0.9311712605,0.8895370867,-0.3762464057,0.5296920258,0.2899570516,4.0051927699,-1.1401439747,0.7601217953,-0.0620097848,0.7552607124,0.7661513932,0.6075060738,0.2823503575,-1.1661674204,0.1137438265,-0.4264859104,-0.7456157343,-0.4812558374,0.9519733445,-0.8217361103,-0.270226674,14.9152655503,-0.2955474203,0.2023893442,-0.6001513739,-0.1673633993,-0.8361673941,-0.4577670281,0.6933785378,0.9150996403,-0.38302787,512.5744444562,-0.7657644729,0.9178746709,0.3262864765,-0.1336002029,-0.2373369416,0.8865358471,-0.6364760141,-0.9023579912,-0.3617651921,-0.3383833945,0.9399836828,0.7744289146,0.3974181793,-0.650149768,-0.932616787,-0.7262919972,-0.0221992329,1.2103539087,0.443359521,0.3478646192,0.7928237349,-0.0150404786,0.4064138596,0.7518615586,-0.3753211029,-0.1502862246,0.2317474512,5.7531435182,-0.5602945618,-0.4236553371,-3.3672846665,0.0025145035,1.2645512719,-0.4614698024,-0.8759341761,0.6248009727,-0.1523121089,-0.0325194798,0.4659745274,0.7691825813,0.9305480797,-0.2848058843,0.631418177,0.6515909374,1.2635462139,0.3921222693,0.8853502467,-0.1709163399,0.8116684769,0.5609853799,0.980565697,-0.84142307,78.1929070533,-0.611852229,-0.2337938049,0.705964864,0.6385362766,-0.6060503142,-0.9919068682,-0.8289212591,-0.8274123081,-0.3909945222,0.4358232881,-0.6108866165,0.8271314212,0.8393455902,0.8368831816,5.694066929,0.0623057691,-0.5915306886,-0.0162797923,-0.4554244454,-0.2942657896,0.7305954455,-0.2784637513,-0.4480609742,0.5177765999,1.2187555543,-0.5663426301,0.3388047306,0.578994057,-0.9231933239,-0.1958863016,-0.2897373826,0.2059610319,-0.2583329111,1.0483336359,0.7104437066,-0.5161364864,-1.0561528479,-1.5877043105,1.4724053171,0.6836131031,0.666110389,0.9548596075,0.3057627033,0.3937093398,0.2324681636,0.0267907148,0.2580097901,0.1130799154,0.784387385,-0.903483975,0.4589062158,0.1915929746,0.9180614283,-0.5078647066,-0.605781999,0.5499297201,-0.0697889612,-0.0834783428,0.3515362541,0.0713000698,0.8563575636,0.2581161546,0.4580183235,-1.6457960334,-0.4122800287,0.2966295062,1.0090440094,0.42103672,-0.5933282873,-0.9477853426,-0.1523431506,0.116002243,-16.0131431971,0.3298138027,-0.3519448456,0.4801846805,1.0352878169,0.9485007906,0.7070036805,-0.8335095907,0.1705144693,0.9015618389,0.7548861425,0.2914078864,-0.3517716174,-0.3273359707,0.3333589722,-0.3874688085,-0.6491122971,-0.4408856693,0.1409450983,-0.3256800628,0.5053082944,-0.6594746894,0.2667499014,-0.6736449877,-0.4878293411,34.156762701,0.2567177337,-0.8984211975,19.7791142367,-0.1908972483,-0.5899625331,0.0868285512,-0.7273693769,0.3755312224,-0.6136359499,-0.5420881681,-0.9528751226,-0.4543364023,0.1364223832,-0.1318466935,0.9036663137,-0.292595416,1.0730797782,1.395700195,-0.1862758102,-0.570021802,0.086049724,0.1456491843,-0.3567317909,-5.9916019892,-0.180648572,-0.6707818398,-0.8844583895,-0.2077285684,0.2521239173,0.620314946,-9.5412155782,-0.9041802245,-0.2997576391,0.8347096573,0.9117179103,-0.0734875081,0.0503630475,0.3027915011,-0.9082450632,1.295440845,-9.760094288,-0.3490467087,-0.8292907166,0.8412263458,0.9526315979,-0.0927242996,-0.654499867,-0.636223195,-0.9514132784,-0.6141936774,-0.953559805,0.5415843885,1.2570294523,0.2186336201,-0.4250066389,-0.1244195696,1.0582908929,0.2326359874,0.3321805881,0.1841891283,0.5149268347,0.3435594612,-0.5095535911,0.4357248775,0.8396003497,0.1266161529,-0.2689340214,0.8939793429,-0.3092051338,-1.7669852595,-3.6353510198,-0.4817752919,0.2500324581,-0.1399347402,0.2047113671,0.0961667761,0.2334991159,0.0435462402,-0.0049183215,0.2287407042,-0.1905281632,0.6297017586,0.0865142541,0.7048115338,0.803275492,-1.0817262009,-0.5869111147,0.6399545268,-0.0851597371,-0.2143918917,1.918792789,-0.8023530183,-0.8845146594,0.0094873945,0.3548059081,-1.5504872726,-0.3410690745,-1.13697029,0.2583797264,0.9454242484,1.7717531437,0.5689901309,-1.346980386,0.3737239602,0.5725736263,-0.6531173912,-0.0002163745,-0.0784052608,-0.5218691134,-0.3885765237,-1.0345105752,-0.582853481,0.8259577974,-0.8794422754,0.1056998256,0.4626762125,32.8194440537,0.0397594936,-0.7463181352,0.4095377471,0.0909165009,-0.510149522,-0.5805901345,-1.7472178037,1.5728052192,12.4631482028,-0.1924296734,-0.8075792718,0.1175613995,-3.5610939971,0.9919553744,-0.275220306,0.0794560131,-0.0863073229,0.5258375773,0.297478935,-0.4685848549,0.1956201099,0.1335836562,0.0178802372,-1.8310997885,18.0730823661,-0.9338356871,0.782617431,-0.2859542534,0.8680384782,-0.0538527868,0.0237035942,0.5409472843,-1.0237112275,-0.219453999,-0.9555185735,-0.5396900038,-1.6787423228,-0.8144543403,0.2573604823,-0.0772080182,0.422061315,-0.0357678888,-0.2282098775,-1.1237871114,0.1774869652,-1.3885544989,-0.0349354081,0.131956848,0.7940606455,0.7162577031,-0.4189892936,0.0503483694,-0.5660942064,-0.3740972063,-0.276431478,-0.2350212827,0.4785936565,-0.7003036277,-0.632022741,0.0853209197,-0.6119969187,-0.449780999,-0.5084824122,0.0353603517,5.6676779521,-0.5232799218,0.6050177619,0.9060888688,-0.1864689864,-0.0553504326,-0.3832996215,-0.609390809,-0.0266314471,0.2549801459,8.4807157006,0.4066203355,-4.7552395706,0.1474162578,-0.6681366338,-0.4248405692,-0.7839843859,-1.1102622449,-0.4210985542,-0.2263888409,0.1412107398,-0.1031547082,12.0226785848,0.0641841559,-0.0941399792,-0.3996430927,-0.3197587909,0.3233217491,0.1668291057,-0.0695980969,-0.7474592429,-1.1697243045,-1.6813550041,-0.3995614844,0.519299343,0.3996180201,0.3053152521,0.3976529031,-0.2744644564,1.580431937,4.0603072029,1.1278270035,-0.7372462692,0.1007560077,-0.7846811385,-0.025864041,-0.503798438,0.5203114934,0.3800175029,0.715844406,0.5673126728,-0.5142624014,-0.1972342186,-0.7742830868,0.0333240436,0.2344225677,-0.0320864207,-1.2089193231,-0.418019751,0.6718797128,-2.2077707551,-1.1040749433,-0.7397500343,0.8874740137,-0.4341308268,0.6135863491,0.2957173298,-0.0839190527,-0.7141528968,0.3292534423,-31.8174081593,1.0618628466,-0.5173799753,-0.5824051275,-0.7931872801,0.7500739563,-0.1312490557,1.3721435504,0.8147381255,-0.8707197847,0.1351420157,0.9418319072,-0.4795501287,0.2625528187,-0.6968206175,-0.656006917,-17.4933649042,-0.2025278586,0.299564308,0.9982262023,0.1876716666,-0.2994971817,0.0144872503,1.2355258002,-1.6124765797,-10.0679876409,0.1257634744,-0.0807182619,-0.0014719446,-2.2233951713,-0.9313924862,-0.3664962416,-2.4472608219,-0.6210749057,-0.805316364,0.9322963332,0.6719089832,-0.4408532697,-0.3834240538,0.9418133357,0.8672661242,-8.3600463443,-0.5271505562,0.156344707,0.2585621249,0.1000798266,-0.9314286802,0.1553877784,-0.2600756657,0.87642243,-75.3960769799,0.5820211701,1.013625936,0.6622382307,0.3699926154,0.9728664587,0.2894640634,0.4689508623,0.7505162176,-0.3235169552,0.1796158308,-0.3813664962,-0.0692954961,-0.0900371402,0.4325920609,0.9055063249,-1.0345157214,0.8542451566,0.150417477,1.0680018457,0.1029143076,-0.8388118987,-0.4099660372,0.4618784779,-0.8700986506,-0.2122808767,0.5997818592,0.6481828388,-0.2181981894,0.6196966766,-0.0843515054,-5.4557860882,0.4029093632,-0.2557672938,0.0346118181,0.5656820273,0.6470949064,-0.0694869836,-0.0710274163,-0.223126872,0.3556349299,0.382677914,0.939644509,14.1926098816,-0.542202723,0.2893869496,0.3590615724,0.2150739588,-0.0974238387,-0.95200775,-0.4612979129,-0.7213272168,0.8336620934,-46.7940513171,0.7101415557,-0.535019643,-0.6104954293,-0.7238107954,-0.0075944453,0.3689955592,-0.9944195721,0.7923025767,1.6884181979,0.4692588823,-0.3381954788,0.5646175749,0.7911196619,-0.7229349007,1.383145786,0.4014652654,0.0460376825,0.3259122724,0.603758901,-0.2169812989,-0.684225834,-0.9439694071,0.1078454895,-0.7675112373,0.6538230745,0.8814035995,0.3480689955,0.871123654,0.3009270564,0.6728965577,0.5973260345,-0.1751742631,-0.0256529662,0.3553529034,-1.0802473711,-0.3128156204,0.682519136,-3.3821846692,0.5203284349,-0.1024136737,0.3189664117,-0.3666520645,0.1416334491,0.2867776035,0.2228013076,1.039907486,-0.5652505882,-0.4282506349,0.9158008482,-0.0005419161,-0.2004946468,0.7621995971,-0.1142070717,-0.7130736727,1.0466253673,-0.4745678499,0.4325825847,0.2515651243,-0.5438963629,0.7894054378,0.1323658576,0.4974985549,1.0541843579,-1.3764138296,0.3724540361,0.5742298491,-0.8881268984,-0.1988317087,-0.7090921408,0.7431576846,-0.0377054804,-0.9075140622,-9.0983553064,-0.8460912072,0.3254148412,0.1463273825,-0.6491293079,0.2683805587,0.0250469434,0.7605646547,-0.3990622708,0.9260624715,0.460122065,0.8970019403,0.9351429176,0.3121705777,0.3410275493,0.259036343,-0.6090453695,-0.3391390961,-0.0144344643,0.8578622545,-0.4906143181,-0.5062024926,-0.4468374809,-0.4355785555,0.9434618302,-0.9745052136,-0.4568007912,-0.8719838655,0.626447363,-0.2715333883,-0.4710401883,0.098183858,0.251862597,-0.4438421682,0.8155183631,-0.0238063093,-0.3791496924,0.6172578252,0.8280025186,0.2239558719,0.3342242396,0.5535391177,0.3866975252,-0.687275217,-0.2768231275,0.3261143197,-0.0195774588,0.2722601571,0.413252154,0.5384314613,1.0389388407,0.9120334613,0.2061010437,0.2480372767,-0.7429045521,-0.3086717643,-1.4911734245,0.7241917669,-1.4011507652,-1.4553010245,0.6540915191,0.9008987607,-0.1334360582,-0.9272947162,1.076747163,-0.3540958051,-14.4369518765,-0.4635852098,0.6419117025,1.1606944047,0.4310243174,-0.8859734283,0.876652588,0.2402323846,-0.3189149123,-0.2088867476,-0.4467735352,1.0409767552,-0.615373669,-0.3830419842,0.9805729911,-0.3320084995,-0.4607178377,0.0187248153,0.2434630477,-1.4043851947,-0.3177569533,0.5256287618,1.4767590744,0.4289263931,0.4111221113,0.2407761816,0.0812973692,-0.1378988654,-0.9899582369,0.4713610796,0.3785427237,0.3426202177,0.0258406685,0.3780084831,-0.091671326,0.5412014181,0.4652273233,-0.0184719901,-0.1047411875,-0.102564534,-1.0239725119,-0.2860050023,0.2397108317,0.2981227922,0.0163053631,0.4106813143,-0.52645064,-0.2835627983,0.0366208454,-1.029652429,-0.9775335995,-0.6542338421,0.1819998941,-0.7529976695,0.446902944,0.3592196255,-0.4757704738,0.7128001923,0.1412891889,0.8256575977,-0.4286003016,0.0452670336,0.4247374667,-0.8972834015,-0.0125031953,-0.8608889937,0.7887601592,-1.274333626,-0.8943728506,-0.0772761465,0.2952575995,0.7405568826,-0.1912690297,0.8113686635,-0.242396494,-0.0479112318,-10.2137477831,-0.1788424216,0.0791675163,-0.0045799687,0.6977272265,-0.3522643894,-0.7627116935,-0.9337684318,0.5179609607,-2.8061178649,0.3250375199,-1.0752044549,-0.1696056422,0.0428986324,0.9442271022,-1.0876406509,-0.8275590168,-0.2347996812,-0.4707114048,0.0756619686,0.823283822,0.9945727208,-0.9247652145,-0.099368678,-0.7596750282,-5.0755651988,-0.8160752635,-0.0939150189,-0.5613154124,-0.7305274614,-0.1018653377,0.9033288732,0.9470883701,0.1998906656,-0.3021658262,0.215718188,0.4582464559,1.0855917701,0.1639084216,0.6663425692,0.8361870996,0.8028631026,0.3101240122,-0.7235926214,0.3131662933,0.3733901999,-13.6582590991,0.1956798632,-0.2680312701,0.7438779165,-2.3710948097,0.5255612685,0.906677415,0.5662623649,0.6731001498,0.0216563917,0.5695376991,0.1755164258,75.4491114647,-0.1586045565,0.6029304848,0.205823575,-0.2955998048,-0.9502406567,0.185479028,-5.7523104237,-1.0848928096,-0.3063247987,-0.7033402693,0.0966618392,-0.6275846375,-0.4919907094,0.0456774864,-0.5054631743,0.2624445033,-5.5394350147,-0.8487923117,0.5841866633,0.6075804688,0.3275068932,0.5969903942,-0.6600424227,-0.5067144883,-0.6483009065,0.0438939137,0.0322765059,0.2648624446,-0.165487723,0.8431851936,0.9879295784,-0.0538366803,0.1854569678,0.4362645639,1.0371151151,-1.1783300964,-0.2161147507,-0.6886805243,-0.3820650799,-0.7477808842,-0.8365287417,-0.3166639739,0.1840242051,0.1064884389,0.686344824,-7.7511861316,-160.2492503737,-0.2414444966,0.8045331053,-0.0183682703,-0.7613696907,0.5527402645,0.0431648414,0.4942569375,-0.8090713312,-0.8028047959,-0.1976103062,-0.0674763686,-0.7318266761,-0.8437695493,0.2191883633,0.5554779286,-0.0211233231,-0.6334175781,0.2583247098,-0.1437964934,0.1076981302,-0.6903719489,-0.0021854077,-0.9709594358,0.4637188286,-0.9154110437,0.9762028908,0.1050137104,0.5739352724,-0.2602596297,-101.8462974462,-0.5798460785,0.7128699527,0.1194382934,-0.8320774273,0.9901001574,-0.4248937971,-4.3478634457,-0.2565686504,0.0728224308,-0.7876435672,-0.7461848947,-0.1970820168,0.8621406065,-0.5963563694,0.9244989595,109.9972805731,-0.1223746956,0.4052211299,0.3626538629,-0.1069733291,-0.4888690089,-0.7219714998,-0.1531553601,-10.8850369807,25.7728951377,0.2684968301,-13.6754809484,-0.6534763089,-17.9621597804,0.7264533684,0.7213008867,4.0941988024,0.6743436248,-0.8324952519,-0.8549022621,-0.2397522607,-0.7189746868,0.461106199,0.5562168442,-109.7639095475,7.1754283153,-0.6558204329,-0.6512299676,-0.569093107,0.9825196639,-0.9762941431,0.7510520824,-0.8456155434,0.7396298218,-1327.9892690892,-0.7985651464,0.718866725,0.8107926735,-0.0733358427,-0.6669109682,-0.276213231,-0.0769984788,-0.8614347577,-1.1726651524,0.7140573547,0.7756648375,-203.2346493861,0.5304363532,-0.7581073376,0.7414411948,-1.9051259259,-0.314079339,-1.2997937333,0.0089705223,0.1103693526,-0.390714833,-0.0781463343,-1.3571235339,3.0304273731,-0.1707532975,-0.2548183864,0.1637185475,-57.8777517218,-0.3164944209,-0.4989736322,5.2668705276,-0.2009903501,-0.6219306926,-1.0732007077,0.2344888659,-0.8632970006,-0.2847450493,0.5555500135,-0.9000985723,0.6657554379,-7.034212784,-0.121047624,-3.4925283502,0.5149389849,0.2194635036,-0.3091937105,-0.8882224469,-1.098694803,0.7961342678,-0.3509085682,0.6586114989,0.6793846323,-654.1390850978,-0.4648844919,0.1273070709,-0.8539917268,0.3703137337,-0.976274836,-0.4753790026,-11.2558212512,0.9696363387,-0.2184118831,0.0442441397,-0.1975888594,0.0808034824,0.0832151612,0.9481985494,0.0690174867,0.5210086772,9.0052281457,160.7992746981,0.4617596686,-0.6439045433,-0.2208622823,-0.7559081833,-0.2593968721,-0.43477206,-0.44051921,0.7652614572,0.6581219008,1.0185369573,-0.6417429659,-0.0278418811,0.3325149665,0.3586962771,0.6001204885,-0.8251379991,-0.6964880908,0.4047997797,-0.5892905329,0.3520742335,-0.5565699727,-0.0714122823,1.0883783115,1.0598129769,0.5266913321,-0.5899276607,0.4461129101,0.1241152582,0.5450390965,36.5976418065,-0.3945585988,0.8249245509,0.8292591041,0.5446455219,0.3264946601,-0.1354795551,1.6785934268,-0.1246260075,-1.0101666275,1.0040504999,-0.4214224664,0.5112194762,-0.1398346913,0.7186856287,0.7237225303,-39.7853302877,0.3477241232,-0.4226559583,0.1226632237,-0.9796111211,1.3014618984,-0.6053311919,0.0627272296,11.532102461,-5.4043894816,-0.1509683285,5.1750068803,0.5045219769,16.0659923474,-0.6909157819,0.0521223617,-1.0735620477,-0.2706433232,0.1482648402,0.9363069453,0.9169850673,0.2586406115,0.6213806606,-1.1341133809,336.4002844558,-12.5644464079,0.5496444234,-0.434586549,-0.5258156664,0.6432087848,-0.7793182674,-0.3103139043,0.4223501102,0.186195225,1379.1681959301,-0.8908504126,-0.7656786251,0.7369169884,-0.4582680592,-0.0976383457,-0.6493060141,1.0580363307,0.9752829657,1.5274602538,-0.8699435669,-0.5078011913,217.6118149474,-0.8429947903,0.2970516465,-0.5385100197,2.3634088229,0.4074362296,1.6061682067,0.5687175392,-0.4020856745,-0.639767727,-0.9235392799,1.5484240007,-2.5372163505,0.4027436663,-0.3658800368,-0.2281698411,143.5259699536,0.5833340808,-0.7269296991,-3.236696974,0.5344165413,-0.1639142469,-0.02924201,0.1724055992,0.2925978786,0.2544141343,-0.447369619,0.0416834261,1.7128214643,3.4556055017,-0.4184001076,-0.0712847792,-0.266831667,0.3767838196,0.6841028005,0.9456731686,0.1941452622,0.7072088466,0.8070448796,-0.0012935848,0.187908896,655.2057303881,1.0291048094,0.0468389402,-0.4415161856,-0.2522128847,-0.4971255565,0.621515836,11.1310606119,-0.4429084684,0.5198512657,-0.1297613596,-0.3583511058,0.9225655468,-0.8358114798,-0.2861148982,-1.2242994282,-0.6390580353,-0.9236904749,0.3093155354,0.7597736055,-0.7698453701,0.7186587278,-0.491363119,-0.8117937249,0.0285329395,0.5399787054,-0.7279988537,-1.0773118535,0.1956646066,0.1479124452,-0.1314371943,-0.4232415023,0.6532877385,-0.7276952572,0.5835350456,0.3619915008,-0.1418022918,-0.2831567912,0.4545869212,-0.4427844353,-0.0341042776,0.7986134867,-0.3287811423,0.0712984599,-0.3228770421,-0.1390918283,-0.6588340613,-0.3761818063,4.5316253818,-1.0153489888,0.0636714174,-0.1220201034,0.523471441,0.6502847336,-0.4774847728,0.3684317561,-0.0540613733,-0.0102916758,0.0707848572,-0.4521395031,0.8801476723,0.56632723,0.4395030017,-0.5222420237,0.7731077391,-1.0136485587,-0.7313213169,0.1257352557,0.2017225945,-0.2107137179,-0.9771715087,0.7716545916,-0.0355244123,12.0340707161,-0.5105170818,-0.042023882,-0.8677876638,0.4551809306,0.6767129412,-0.3026353827,1.1636298666,-0.601676397,0.6698555103,-0.826955752,-0.2738759421,0.7961965173,-0.1325388229,-0.3629676261,-0.2942874852,-0.7401633089,-0.9678035704,-0.8876586784,0.3795998922,0.2819266698,0.9711895678,0.9930916894,-0.8340670028,0.3758186671,2.4176325224,-0.3511508728,-0.1511863556,0.0555618012,0.3961155049,0.8782259245,-0.5324944313,0.3702887885,0.172794719,0.898609306,-0.6497982041,-0.3346453673,-0.5169713575,-0.3523875657,0.2609927428,0.1440781006,0.424145183,0.4356635356,-0.4941604841,0.6885315636,0.5679109906,0.6864225576,-0.1955059949,0.7026472277,-0.7571070973,-0.0038063381,0.7439025413,0.160473716,0.7259960826,-0.6316328028,-0.0875177155,2.6919788655,-0.850877757,0.5260741318,-0.0187428237,-0.7256386437,-1.1378221348,-0.1246554093,0.4421944318,0.4151763462,0.8228616907,8.7732792432,-0.7918205419,-3.98033058,-1.1229637407,0.6419357566,0.2042071443,-0.8891202498,-0.4937488052,0.1843236988,0.243530537,-0.6118754541,-0.8683151228,1.0537535621,0.5439707672,0.6485766482,0.7123476135,0.7291874447,-0.3291333939,-0.6579285207,0.8888698975,-0.270494186,-0.9274524173,-0.2265532649,-0.2917000769,0.5402875792,-0.9898077649,-0.6931824273,-1.0090071521,0.3654261986,0.2808347135,0.4512014843,0.1060911357,0.9368617311,-0.982896282,-0.7187362722,-0.6272524528,-0.5769984208,-0.8797079434,0.823973025,0.6341044732,-0.5090062512,-0.9608739643,-0.1578292319,0.5417930891,0.6339346438,0.6657029276,0.2781572404,0.6808370404,0.1001741341,-0.2572384165,1.8372836668,0.5050454874,-0.7071584962,-0.2824920266,0.1541759135,-0.4783441847,0.8979066979,-0.7804258801,-0.9160831748,-0.3173159229,-0.2442276692,-0.8217612571,-0.4232124516,-0.3565891839,-0.2345733276,-0.6731250246,0.2867661472,-1.1415050022,0.0008435487,0.1612439552,-0.5290825021,-0.5848431632,0.0371972941,0.2255300326,-0.9851436317,0.7741505076,2.0250163994,0.4020702451,-1.0036563427,0.1958224778,0.7855364698,0.6421644122,-0.899149969,0.589629637,0.9941716584,14.9762544761,0.2682537237,-0.76009107,-0.7834940393,-0.7292578692,0.4517905905,-0.0736161663,0.4068012251,-0.1352096999,-0.8810266231,-0.7592727435,-0.7021812895,-0.0602164006,-0.1282267343,-0.9193119659,1.1249208236,0.6067518355,-0.2107779902,0.2215598608,0.800298876,-0.1784362566,0.5269839128,0.4485402291,-0.2074686518,0.7952996502,1.5038926214,0.4859386373,0.6667355617,-0.0689636777,0.1740063453,-0.8398036677,0.4817984575,-0.2617279144,-0.1027185215,-0.5934360328,0.2984203478,0.9483181951,-0.6446176717,0.0567738407,-1.0143181515,-0.534652056,0.6369743441,0.1849392841,0.5695119031,-0.6253216601,-0.8422239916,-0.2292110682,0.8448622775,-0.2267474319,-1.0890718831,-1.0492259796,-0.8327380014,0.6206442821,0.4686296124,0.9015857838,0.4472911324,4.3570595532,-0.0723064613,-0.5453399704,0.420391732,0.4172993113,0.4741852655,0.4190668163,-0.311720749,-1.2563116454,0.6151784357,6.7819558454,-0.0664655618,-70.2573408336,0.669335772,-0.1433583206,0.9424512041,0.2487622634,-0.863205985,0.0264922199,-0.110240143,0.441620587,0.29153683,5.1259841321,0.2164503474,0.0465503572,0.8961176648,-0.8331372593,-0.4544955087,-0.2675655693,0.2330435747,0.1054033512,-0.9450082004,-1.0568313153,-0.9698346266,0.5615100626,-0.9433308998,0.2627264453,1.5268976337,0.3483607511,1.7401057589,7.2159858478,0.4313427814,0.2519505253,-0.0643457361,0.4903690527,0.4705327803,-0.9199272906,0.1374912902,-0.8227625113,0.5861086498,0.1489268562,0.9995752936,0.1193479372,-0.2148682574,0.9453025945
   0.8301700959,0.9561692254,-0.4050091666,0.1955617584,0.1283665531,-2.8680175786,0.6469726996,1.25231819,0.5016615074,0.0215775343,-0.4734351936,1.5550525418,1.0149447468,0.2140998577,-0.7266704655,-0.243784063,-0.1723365233,0.3415975858,1.2803292435,0.2209404199,-0.8689471648,-0.5570696534,-0.8097971527,0.4271352754,-0.2131587442,0.6011408427,0.9071321105,-0.0782575602,-0.6113330402,-0.5509980924,1.1339246458,-0.1601036562,0.7341805838,-0.5713572881,-0.3611595446,-0.5042330183,0.1559025726,1.0374077358,-0.1583660233,0.2516197341,-13.9180160783,0.9785358916,0.520614165,-0.6823228596,0.9455561895,-0.6809376104,0.1296828495,-5.8457073079,-0.0986343574,1.0303837968,-0.8041804326,0.2112495165,-0.2482603873,0.4211467391,-0.039042302,0.4937645986,0.4752600595,-0.9109527524,-0.3647956196,0.2754355936,-0.4350321169,0.0848815064,0.3558959706,0.6440066768,-0.0778433949,-1.8535689409,0.7300206738,0.4945504955,1.1849677317,0.8914345828,0.836427195,-0.1711112714,0.3650809257,0.8431324767,-0.6578020361,0.826301283,0.9015882394,-1.1362994974,0.6224231511,-0.2966512204,0.0791265113,-10.2677799969,-0.1827896824,1.069188705,0.9631187758,0.5234647327,-0.5772643939,1.0034796613,-0.9456249241,0.5672817976,0.7531443248,-0.7116558908,1.0494246692,-0.34671381,-0.5681451736,-0.9676410829,-2.1953983507,-0.4434519602,0.9784745636,0.1780478122,-0.1607146995,0.9117114868,-0.5900016183,0.4671558996,0.7487232669,0.5466918175,-1.5771166835,0.945544254,-0.073387601,-0.8371116844,1.0650926578,-0.2909577029,0.9995598613,0.4525226681,0.2531340575,-0.3306514321,-0.4198556362,0.680260973,-3.5089490466,-0.6539049397,0.082507277,1.0507064859,-0.0713410991,0.6665272981,-0.752260243,-1.1081919235,0.45602205,-1.0197330686,1.1200216269,-0.283105008,0.0037178169,0.9815660418,0.1853410579,-0.4047626775,0.6244897021,-0.109034319,1.2628702587,0.702778635,-0.3883952198,0.8513538749,0.4320880527,-0.5280952163,-0.8116445177,-0.8130558353,-0.9830213116,-0.3947122931,-0.3328997377,0.2844387196,1.0164737438,0.4639703769,-0.2692488721,-0.8316410326,0.3779896858,0.9776983028,0.6315260738,0.9937059606,-1.6693497098,0.0952913694,0.4458907117,0.0509561153,0.1459865373,-0.8233138142,0.757271937,0.0872710097,0.4802534481,0.5235488291,-11.3895901329,-0.0007051967,0.7817643202,-0.2143918062,-0.4650809379,0.2806427256,-0.7053024817,-25.5438407142,-0.2874842143,0.4976292843,0.3176263024,0.9301907029,-0.2631885493,-0.2908535386,0.5763383971,0.4371293422,11.3011721366,-0.2049517792,0.6430488643,-0.5490126965,-0.2087864425,-0.3026762878,0.23007173,0.5212392644,-32.6391035907,3.8379993077,0.0794431606,-1.0645508703,0.3421797777,-6.0094409138,0.8099974719,0.3156233151,2.8757278404,-0.1187867934,-0.7954754292,-0.4145972555,0.5230308939,0.3953025444,0.8713084129,0.9714366542,-7.211573517,1.6500134619,-0.5790449519,0.0644010275,0.9583637547,0.4007411373,-0.4196829197,-0.6631770272,0.3141206276,-1.1751304571,-984.0037883192,0.287235391,-0.6528711482,-0.0626029855,-0.9975230005,-0.4045370334,-0.6853305886,0.1696055821,0.0300691107,-0.4699862354,0.8349388841,0.2003132308,-70.223244973,-0.5391819102,0.0019421588,0.6925036226,0.1125257514,-0.1992778154,-1.198544173,-0.8545930184,-0.862506931,0.9572539026,0.4748926503,-1.3911218894,1.5940102698,-0.1933030207,-0.2106986856,0.8182279237,-14.0834679071,-0.6114861993,-0.2822304203,1.6373465366,0.4232574686,-0.6304362574,0.2457027692,-0.9391241669,0.3055827724,0.7993210684,0.0019339095,-0.1343478473,-0.5594559679,10.4540306585,0.743592074,-7.6752777399,0.3720818718,0.6494323718,-0.6167038659,-0.2113207156,-0.2279199725,0.7258190381,-0.5811947539,0.2344281809,1.0286672792,-157.799786007,0.2740646566,-0.6206501773,0.3243598292,-0.4294145268,-0.9690678408,0.0509654187,-1.5775330379,-0.5634056821,0.0535108568,-0.3089979466,-0.1756452588,0.4821739744,-0.3794157627,0.8048069811,0.4837956146,1.0266454875,-8.8815144837,-159.697692352,0.4468025317,0.83789975,-0.6003851473,-0.4751495404,0.334783252,0.9000862892,0.67074013,-0.5866548231,-0.5163299258,-0.6970221726,-0.1868612593,-0.0342993613,0.6333539419,0.6384991467,0.6359408893,0.01562167,-0.9552878883,0.2028178565,0.710113292,-0.8620780081,0.1670281577,-0.7591847778,-1.1114204425,-0.8879240367,-0.9682886906,0.7223059865,-1.0781867136,-1.1067298292,-0.675177084,-37.2671766132,0.6946967688,-0.5042448364,-0.5214302262,-0.1763721008,-0.3304689506,0.4210888303,-2.8867125609,0.287881211,0.9706967457,-0.6558678488,-0.8755055004,-0.7285413651,-0.1628791233,-0.436760077,0.6727064284,128.0293117998,1.0602267239,-0.5095561632,-1.0846227953,-0.8611691007,-0.3960084926,-0.0427429119,0.7220001652,-12.8473469568,8.7995485862,-0.0605437001,-4.8211622091,0.0496689487,-15.9368366593,0.7333447625,0.8424860851,4.8032448612,0.8300828959,-0.5777572749,-0.1121287755,0.4909380359,-0.7008220456,-0.1215352136,-0.5548925405,-131.0783659251,7.0162202843,0.0222388473,0.3231899421,-0.156553336,0.8589616333,-0.0090882895,-0.5370382227,-0.1990048015,-0.3443006571,-1378.4459005189,0.8388948254,0.2555347311,-0.5251416172,-0.0100300345,-0.8837492674,-0.8821405767,0.3072541804,0.2758002876,-1.8989128909,-1.0499812172,0.7742796647,-217.6779713003,0.4302921174,-1.134511597,0.6445961891,-3.6101174451,1.0485952724,-1.3076593122,0.2058576804,-0.011416179,0.1152912087,-0.0784810135,-1.1554340633,3.6971682319,0.3526562585,0.9393898261,-0.9178372432,-58.9911418206,-0.1707935024,1.0375228758,4.8052483713,0.2078612421,-0.3892644595,-0.3308146726,0.762103713,0.0604038139,0.7714089806,-0.9531850377,-0.1449292451,-0.9282695413,-2.2263548396,-0.1838237295,-2.4052152063,-0.0529060395,0.2163943992,0.0253637,-1.0437479892,-1.291488217,0.2448182242,-1.0948992305,-0.559906877,0.6100520216,-655.4474840856,0.5939209158,-0.7147317232,-0.7711091795,-0.7856043721,-0.1520908369,-0.0178210348,-3.7543095391,0.215611572,0.0418433553,0.3171150574,-0.3600439815,-0.3366464858,-1.0882932241,0.0651683775,-0.8526988683,-0.3870670805,0.2487329569,0.6591179991,0.2400893837,-0.5209269074,-0.9363935954,-0.1375951401,-0.1369337892,-0.6241462341,0.8580647196,0.5463922234,-0.7267938452,-0.6931781123,-0.7469798277,-1.100434032,0.7497617927,-1.0931118875,-0.2377277505,1.1922604044,-0.4979886766,-0.8728911027,-0.8193395034,-0.9610168942,0.6534520816,0.3619853811,-0.1146097837,-0.351673119,0.4622780457,0.1614149901,-0.6672952973,-0.1300729815,-0.4336632664,1.3164152703,-0.1070320447,-0.4221865467,0.6522344043,-0.5473857232,0.3143583275,-0.7339009989,-0.8269956119,0.4000837614,-0.0789524232,0.3801570235,-0.3041055441,-0.5167676319,-0.1772847571,-0.7810472715,0.1674237281,-8.0149584284,-0.4491599296,0.6693617562,0.8027352602,-0.7048716842,-0.5979606678,-0.2820085957,-0.848846278,0.0802920961,-3.892148909,-1.0932360952,1.2147885175,-0.4523309821,-0.6244597544,-0.8957827007,0.2153659223,1.1317182777,-0.5210112949,-0.3425050064,-1.0468178004,-0.1776378261,0.514341117,-0.2993572443,-0.3934204678,0.9577825853,-13.5676883189,-0.2950201674,-0.7707595323,0.706825544,0.8890544902,-0.7912847082,-0.6971641908,0.1815713324,0.3877209508,8.0085695176,-0.0900968952,0.0378009231,-0.5574074092,-0.9402395319,0.6434037182,-1.0982851334,0.3472942393,0.1801829445,0.6034028698,-0.1538189999,-0.0034882611,0.592692977,2.1046814068,0.1146663145,0.4049390542,-0.9873564717,0.9842986775,-0.1201061846,-0.2649371806,-0.6533558571,-0.3828581231,-0.1781289405,-0.9991207174,7.7309557496,-0.0208243601,0.5172020024,0.9331155507,0.5661431543,-0.6765882204,-0.3794844965,-6.4928315453,-0.0762320928,0.1783216727,-0.2918909738,-0.9307038178,-0.3156764157,0.5944752598,-0.281505155,-0.0244311387,-0.3010955152,-8.5355837522,0.9163535917,-0.0532419304,-0.435133687,0.8827809403,-0.9250267837,0.1665596943,-0.8462154872,-0.4303659552,0.7393089472,-1.0693217197,0.5839964952,-0.7034633849,0.3131802026,0.3378471534,0.1526644001,1.7084342774,-1.0836920153,-0.4749629183,3.6225625641,0.0416779476,-0.6489564136,0.6607832048,-0.8804531457,0.4730482984,-0.7734390253,0.5175036404,0.1642085559,-0.6367490563,-0.4557372212,-0.4158719667,0.4900270951,0.0752257626,-1.0652531701,-0.7119300586,0.0218814961,0.1592633357,-0.15850612,0.6026973451,0.376313757,0.4067472464,0.0283962224,-0.6316389433,0.4302084732,0.0934867055,0.764988333,0.100465335,0.0644461256,-0.5021127617,0.4355650705,-1.52760377,-0.197676468,-0.44148489,-0.1677488647,-0.9629052504,-0.637742029,-0.2041825179,-0.2622345067,0.5347420274,0.4994432579,-1.1419757713,-0.355894086,0.4894434528,-0.7465180315,-0.3087316887,-0.3509205891,0.2208418097,-39.3212051863,0.9016444562,-0.4557777711,-0.2423919518,-0.7765576922,0.3954855127,0.5448885326,0.0497897887,0.1551457554,-1.7806204834,-0.7391237563,0.5042433598,0.6897319041,-0.7657314454,-1.0875693386,-0.4618903635,-0.6242204241,0.15208428,-5.4981163038,-0.4579510573,-2.251756014,0.8876936342,-0.0966642868,0.6315527436,-0.3416123893,-0.3066063559,-0.8905077095,0.202233795,0.7206259971,0.3355183841,0.3949535944,-0.4145593174,0.4157165472,-0.9249807907,-3.6758260033,0.5623194955,0.9604778465,0.8714028149,0.0062547918,-0.5534526694,0.076854181,-0.7115285675,1.1518402225,-1.438780688,0.8662971425,-0.8113718017,0.5626213009,-0.2570577596,-0.2191947983,0.1936475749,0.8017343918,0.3523650496,0.7411847151,0.6002836663,0.3439841693,-7.3817217431,0.8085005712,-0.9818283877,-0.708544677,-0.9566572305,0.8015914264,-0.2389070356,-0.9692558989,-0.833594295,-0.7342874275,-0.4241327668,-0.8002269784,88.9041142591,-0.7461401976,0.4339001992,0.8158083513,0.8051936122,-0.7300883083,0.569197029,-5.9855332243,-0.8122314269,-0.5848278499,0.0803757746,-0.3551354443,0.3086536847,0.8369494685,0.8704692143,-1.1775744192,-0.8441795054,-8.6742802555,-0.5471305202,-2.4177052242,-0.2748808829,0.228491854,0.0039911834,-0.7445017023,0.4561561173,0.0407955512,-1.0808519484,0.1281253343,0.3010212125,-0.1112239633,-0.5925319263,1.0023660193,-0.5576278304,-0.2106057036,-0.1061455745,0.7186096703,-0.8804086008,0.1551516387,-1.4743301762,-0.7168836956,-0.7132430622,0.195153128,-0.0093310647,0.5581253206,-0.56416457,0.6033887213,-1.1838516402,-18.8690438346,0.4218221279,-0.0037821312,0.2627915073,0.4172416051,0.8866611942,-0.4714129546,0.5189076514,-0.9439774038,-0.2189178147,0.3010523391,-0.2268159341,0.8256066925,0.2397771204,-0.7350270855,-1.1472129782,0.4757162265,0.5006052367,-0.2076876399,0.4186524857,0.92775145,-0.7785001241,-0.6015413218,-0.9925170592,-0.4746855325,0.1119607456,-0.0350534668,0.3854384488,-0.2328165232,0.231732969,-3.4351447041,-0.6360727474,-0.2824144243,-0.5520829832,0.5405510935,-0.4071223232,0.2044900326,-1.2424428239,0.2722975226,0.8361415997,-1.1206720357,-0.7971347588,0.4526569276,0.4547327376,0.9387003025,0.5051258627,2.5864333999,0.3573436244,-1.1112434805,-0.1519844873,-0.010842619,-0.7333831315,0.2047363094,0.3405210659,-3.0284240538,0.717323555,-0.2595850139,-40.5403790981,-0.4264958079,-2.5766620635,-0.8618250675,-0.5380934225,3.4601526258,0.417872286,-0.3908278337,-0.8966327787,-0.5548183277,-0.1345126081,0.5705188635,0.7404811019,-14.2396243922,0.250529497,0.9203250678,-1.0361583234,-0.4631904864,-0.9314066665,0.3657414612,-0.3992353023,-0.9239578079,-0.3700007364,-393.754457408,-0.2128745798,0.4395826397,0.8385405591,0.9641298111,0.836308799,-0.5555825786,-0.2654695335,-0.9366862247,0.2215815216,-0.0075713115,-0.0745929272,-9.9487794686,0.181305564,-1.0466081087,0.7274379356,0.6020509826,-0.2006701159,-0.9722742108,0.7952120027,-0.8768247111,0.4631530673,0.1152548026,-0.8774810282,0.3293672958,0.6169695083,0.2143416181,-0.3443072078,-5.8026887327,-0.8452445389,0.630398081,1.6906076933,0.6184531368,-1.7013548192,-0.8426761769,-0.8773874957,0.836802415,-0.1285163812,0.0073757893,0.017477991,0.3941201771,-0.3470593599,0.0833433685,0.1884993393,0.7890441586,0.6389745018,-0.8088340954,-0.3608574997,0.2858234354,-0.3865590633,-0.5480786352,-0.4649576703,-0.6749200788,-78.4715106118,-0.0093326123,0.7291246832,-0.1988971031,-0.98753853,-0.9226528201,-0.4586211065,0.2659985138,0.6375229106,-0.8556838101,0.6023585543,0.7623334517,-0.4555625699,0.3209201936,-0.033174234,-0.6106326631,0.5411548324,-7.6174760638,-160.256286947,-0.9253394067,0.6125433695,0.4296288209,-0.7730452449,0.4989296726,0.4587613509,0.5136419428,-0.1628647107,-0.971976304,0.7641788755,-0.9243750808,0.3704169069,0.9065461922,0.1018794898,0.8895207444,-0.1203041991,-0.1730391559,0.3292517348,0.1846141208,0.7918114838,0.1723457085,-0.8783487232,0.5195009959,-0.7581686638,-1.8589460526,0.7428187956,-0.4175616634,0.7059000884,0.1778100745,47.5484396816,-0.2382610355,-0.7188284935,0.3824320215,-0.25948615,0.1712389137,0.4711345713,-12.7130128859,0.6647342256,0.3179792302,0.4011386124,0.9563116915,0.1624288719,0.8792958022,-0.9529790208,0.6612667671,72.2060376222,0.0881895537,0.6656771651,-0.0365239394,-0.8043061289,-0.2047632506,0.1775370771,0.5588647921,-0.316337192,28.1975655331,-0.3157685362,-1.1822962596,-0.2231021613,-16.5670525785,-0.2900967706,-0.5205529648,7.6681947405,0.474530594,-0.0964229786,-0.3222212065,-0.5918550119,-0.8691528845,-0.7069713038,0.5205879369,-276.4158926978,11.73669131,0.1711386066,-0.1411938907,0.4394073335,-0.6922541175,-0.8245415128,0.2471342474,-0.8191416235,-0.22923426,-197.4649203991,-0.2791306531,-0.6329503899,0.4935501113,-0.5304251628,-0.1924215779,0.2003539845,0.1122548599,-1.6530527673,-2.3766458669,-0.7207377287,-0.6120304644,-2.6789569218,-0.2399011458,-0.6571789228,-0.5114451672,-3.0286724248,-0.290702089,-2.0899785358,0.5982242687,-0.0241441912,-0.6384612093,-0.7519435192,-2.0176080093,0.4781932815,-0.0871096886,0.8892633194,0.1873697992,-41.2358217953,0.2435347852,-0.0325502999,4.3686872429,0.6002047336,-1.1350924694,0.4953617636,0.8957175966,-0.741435132,0.3419441047,-0.4228123768,-0.4558074002,-0.6960662693,-5.1363608338,-0.4578454818,-3.5516406927,-0.5659820918,0.1706908773,0.2957632706,0.1758939709,-1.2902155999,-0.7351499292,-0.3324877602,-0.347460067,0.8943872606,-27.6127041576,-0.3816300929,0.5043677743,-0.845277121,-0.1376784749,0.6818578045,-0.2236588611,-2.4611548326,0.5045522263,0.2472846866,-0.9232081898,-0.4650065996,0.4789111593,-0.3561014543,0.2721197471,0.9617852692,0.7847989616,0.804821925,-1.0665126863,0.6296410175,-0.8764523044,1.0074254803,0.0636641405,-0.1654148852,0.1652849126,0.2982894069,0.415196159,-0.5878585352,0.507723036,0.8363442623,-0.631567103,-0.2143391172,-0.022062877,0.0359283772,0.9945677121,-0.4529692238,0.8317349476,0.5335767872,-6.698390479,0.9336622165,-0.1325820461,-0.6199366399,-0.6509825507,-0.2039136274,-0.229279645,0.472769069,-0.3585272105,0.6180491474,-2.3610637936,0.5745734009,0.5586924741,-0.6247439748,0.0463866324,0.1916635267,0.867291519,-0.7093875776,-0.0618716465,-0.0729500221,0.6264264822,-0.2177151391,-0.2278510508,0.5289646755,-0.6800046971,0.3243037865,-0.1980958092,-0.2541414819,-0.7219886566,1.0660169116,0.2103497988,0.3243470566,0.4390877133,-0.1762775385,-1.6300956619,-13.9918273069,0.6851396948,0.7141391928,-0.2612930272,-0.0152002817,-0.9464879567,-0.5899361447,-0.2148037936,0.1387202249,-0.1672575495,-0.2937085892,2.466818363,0.1129624839,0.2053780373,0.5389738146,-1.0523356867,-2.2809731269,0.9944800409,0.8409203791,0.8019458492,-0.6672637536,0.5715324281,0.7145346979,-0.3162743865,0.0848404721,0.1900910914,-0.8841972537,-0.6630760445,1.0582991264,-0.4290349164,0.3543608714,0.8025473,-0.732375205,0.0685288094,0.4329312699,0.6804816672,1.3483676919,-0.0819115085,7.3919692165,-0.6833912917,0.2341695918,-2.0917690189,0.6931331488,0.8444302752,-0.3284177882,1.0124382654,0.9476718779,1.41676756,0.2332076013,25.7228798441,-0.0735133921,-0.2810416194,0.6810573561,0.7828838603,0.0640722321,-0.7622244008,-9.5442531658,0.5922078281,-0.1697317092,-0.271456815,-0.9634593697,0.9579803536,0.7058934205,-0.9942277577,-0.1959769496,0.5105980094,-45.8755792252,0.5291403753,-0.4490685658,0.1161689167,12.7595892669,0.8260016422,-0.1002659703,0.365204715,-0.4408932931,0.3321487487,-0.1805001693,-0.2845770706,-4.0985972638,-0.2882926817,2.6220941125,-0.0703828507,-0.9090268413,-0.0773348869,-0.6044420653,-1.5357661194,0.3939624715,0.5144583423,1.0180132722,-0.3971522205,-0.347142969,0.4640295752,0.6457527548,14.3411586098,0.0085785623,0.2229917839,0.2261158608,-0.5527243715,0.2534138492,0.9833680698,-0.6476225209,-0.7310424474,-0.1778614601,0.4734368808,0.313495121,-0.3627381897,0.3633638211,0.0914892056,0.41565008,0.5260264219,0.3261300741,0.6337407154,0.7634630004,0.352058151,-0.7149734524,1.0373572297,-3.1640823676,-0.6720972344,0.8966664313,-0.4443519738,0.1003058264,-0.5129848789,0.9863618169,-0.4616584422,0.8412996771,0.3111952186,-11.4040398266,1.239923993,0.5554433186,0.9735792288,1.214861475,0.3272241241,-0.3309478028,0.4360014336,-0.5626323761,0.1080996874,-0.4307803212,-0.9878644794,1.037960791,0.2462816812,0.7349186045,1.191135331,0.856690316,-0.1035337841,1.1954018893,0.5455697506,-0.4992277937,0.2703409954,-0.0950498526,0.9555893069,-0.9551682597,-11.2781911601,-0.1648788076,0.4062461333,-0.9937073523,0.5634853159,-0.1162864832,-0.6018065038,0.985172524,0.7948955844,0.1390393962,-0.8549201261,2.0018475704,0.6351139784,1.087158856,0.3710251168,-0.5861542351,0.1019677942,0.5977106577,1.001423782,0.8613308416,-0.6440619378,0.2933892921,0.6134712424,-0.6461217253,0.5935494001,-20.4284078055,0.3183805157,0.9469119155,63.2524216787,0.3134253208,1.0522089339,-0.8397531659,-0.5874837567,-0.3805532398,-1.0400675198,0.093940086,1.0619089136,-1.0606016122,61.2326571249,0.1492034118,-0.6958138047,-2.7603731627,0.1111822335,-0.4615744503,0.5618471054,-0.3799134072,-0.3373693924,0.1926403655,0.1355507656,12.8161477066,0.7415840466,-0.0270413215,-0.4438946777,0.2408267626,0.3880760619,0.4240120055,-6.8362997526,0.8766245058,0.1101159253,-0.6203194741,-0.3847184309,1.210050732,-0.7236548018,-0.4631914792,-0.0760104819,0.5263249893,-42.3205465769,-0.1083411952,-0.5825626285,-0.4543324986,26.0737506239,-0.3172727466,0.5563938209,1.5824830168,-0.1957936414,0.4568734964,-0.7142295948,1.2256395547,-9.008100833,-0.7217735898,2.640918724,-0.3063791711,0.0819847721,-0.8882201099,-0.2573279123,-5.4648598633,-0.3005655041,-0.0453704119,1.198951436,0.1807983346,0.3277542597,0.7683238628,0.8318244814,0.008410666,0.2455138728,0.0574901066,0.6168655705,0.7559332427,0.7625790787,0.400990676,0.6973648777,-0.5007494127,-0.5737066258,-0.0557345028,1.0471719757,0.9074965962,-0.132234363,0.7428763358,-0.7117373062,0.3610893392,0.1090139938,-0.3354745067,0.2088528327,-1.0284541467,-0.3306838942,0.7471813744,1.6554225133,-0.2576246741,-0.3774777477,0.31299518,0.0532333804,0.0517055571,0.3656029397,0.9283276134,-0.3409113565,-0.1251953967,-0.2111675161,0.648517226,0.2162308753,-0.1866560724,0.0619494501,0.3856755005,-0.5989989133,-0.7608669926,0.7031445716,-0.9469894608,0.5990362184,-0.1228505453,0.0012911935,0.0581297721,-0.7478381785,-0.0135215674,1.7366347442,-0.6082407948,0.9907014621,0.8572826197,0.6144071089,-0.0948968429,0.7963627239,0.5491476782,-0.1283753096,12.4148532227,-0.3845465786,-0.9051908364,0.1154874494,0.7783253978,-0.3304435887,0.0331558407,-0.1417884875,-0.391032684,0.1046463663,0.2676806617,-0.9771592753,0.4203819903,0.8936847615,0.3501671289,0.5383101233,3.0225735643,-0.987696101,-0.6589841368,-0.9711798197,-0.9458285058,0.6396241019,0.412631829,0.0108654262,-0.3296151413,-34.1240747152,-0.6289345136,-0.3205048948,0.1842783256,0.1063194327,-0.8258966505,-0.7232628814,-0.2365863723,0.376160991,-0.2569795872,0.4323614612,0.5993269413,0.8116968692,-0.3719992351,-0.5726260746,0.4623995616,0.345477596,0.1282443006,0.2035088183,-0.7464921949,0.8232014793,0.2333430054,-0.3708239475,-0.8180264229,-4.9262574864,1.0376652228,-0.0555093728,-0.2543810535,0.3893811909,0.9323892975,-0.0242909892,6.0908508801,-0.5597176923,0.1832257683,1.0341506684,-0.9549201438,0.9345680872,0.8154642134,0.0849006861,1.0675891094,-0.5779285206,17.1173438482,-0.9643882075,0.9489689081,-0.8564876988,-1.2355604701,-0.1656994453,0.321604095,1.0370656386,0.432497719,-0.7656181411,0.8386717894,-0.2859404326,-0.9614961095,1.0764315583,0.5596478835,-0.6955589936,-0.1103385392,0.0979303566,-1.0738346165,-2.645439293,-0.7915521496,-0.2084147649,-0.4504937951,0.8382063551,0.0729950122,0.4741708261,0.6041180294,0.0658154577,0.4941542398,-1.1571643,-14.172940002,0.7771490925,-0.0631988584,-0.6094248783,0.3654032716,-0.0376356268,-0.2282553163,0.9685807548,-0.2938515712,0.63963667,-0.4153654372,-0.7253618042,-0.3712623687,-0.1372930459,1.1606033056,0.2457868911,0.4369406155,1.6020144941,0.0551460885,0.4848310891,0.0827857063,0.363553866,-0.8167151608,-0.0377121559,-0.1446807728,-0.8368513689,0.0896458828,0.0505445736,0.7869571634,1.1094721111,-1.3947504592,-0.2825733468,-0.7350903432,-0.0450216647,1.0678535211,-0.5210479693,-0.3110322916,0.6611075258,-0.1581818187,-0.542858187,-0.1083367014,-0.484272857,-0.2119067837,0.0720915708,-0.1057298719,1.3366684578,0.7635889594,0.7807415633,0.2796349337,0.6337680556,0.7050822422,-0.1036693643,0.8273533997,0.0518388635,-1.6466861063,0.5432773633,0.9383839854,-0.7725092134,0.894216733,0.2222678196,-0.8369096582,-0.2651383502,0.0806996867,-0.9228556493,0.3039035828,-0.4955859809,0.8764572825,1.0663559318,-0.6310676407,1.0256437028,-13.3299498248,-0.0068480394,-0.238270382,0.9175727007,0.7046185321,0.8642998635,0.5388852887,0.0826926236,0.8805669648,-0.985591888,-121.3730778011,0.2257742757,-0.6733181581,-0.21100262,0.2414834673,0.4087901934,0.9380088713,-0.2639490282,-0.4779122085,-0.6057929434,0.2233061827,0.0354868298,0.2082866556,0.9995789114,-0.8012800261,-0.5963353597,-0.9330281305,0.6508287975,-0.2950213271,1.0948727571,-0.0528557183,0.8119101442,0.786959858,-0.5585248397,0.6670420594,0.1193107625,0.8753563513,-0.4689364466,-6.504398407,0.8216357342,-0.0622180756,1.7797222272,0.6677336935,0.1971115484,-0.5452949154,0.8707832964,0.5013420632,0.7855100687,-0.4885697651,0.3757785414,-1.1689420302,0.7270488452,0.6167638468,2.6002465129,0.1390794178,-0.6301852515,0.6922629018,0.1926299809,0.9810969632,-0.1040253868,0.7679705909,0.8326041312,0.5106354206,-27.8362712009,-0.4151206767,-0.4857145296,-0.7220940932,1.1392462425,0.2712418434,-0.298848352,0.5511957477,-0.483524827,1.3126092268,0.4427700543,0.5438716344,-0.2139462983,-0.2873622258,-0.8975650128,-2.1942094969,0.4482304101,-0.4876992351,-0.8544475952,-0.2956092396,-0.5866496589,0.0396491754,-0.2835382941,0.8920169966,-0.0625705417,0.334257055,0.1987283088,-0.8413858848,-0.1419306726,0.5939463324,0.2699119768,-0.7452206974,0.6988801885,0.8620364857,-0.7240143116,0.1640908586,-0.7586846038,-0.4683438774,3.0137811107,-0.3771189058,0.8675334745,-0.7261572501,0.1095480797,-0.2678593267,-0.3700468839,0.8626165367,0.2489264693,-0.8921379465,0.2314187572,-0.7841745052,0.0808467903,0.6160092273,0.4039927323,-0.2536628329,0.7450861848,-0.5963237889,-0.0700090961,-0.9990012316,0.3219847635,0.9937205464,0.8689304921,0.4321463977,0.0816911557,-0.5355648764,2.2649018178,0.7324186351,-0.6005420743,-0.6238335092,0.7129288678,-0.5788135598,-0.8662557846,-0.8496684654,-0.2992629762,41.3593402621,0.4598832608,-0.0877388363,0.5368372349,0.3610581921,0.8428909992,0.0760563415,-1.0363608119,0.7752183566,-0.9516278927,0.4641098781,-0.32305467,-0.9872750691,0.9498131578,0.0470196962,0.9777637271,2.4143757642,-0.0227611768,-0.6446053597,0.1488394202,-0.2380010156,0.0255177808,-0.4165467589,0.9460281636,-0.5271404759,-4.4054067342,0.7807566942,-0.1836574536,-0.0113313472,-0.8271529441,1.0958300946,-0.2351968759,0.0297230651,-0.0679258632,0.2994047016,1.0677020474,-0.0306126933,0.5027368713,-10.461150177,-0.2833960616,-0.4330663893,1.6915134018,0.868088245,0.0244449375,0.0856451011,-0.4649618912,-0.0882534419,-0.3825070902,-0.5959691481,-24.4625197807,0.0386718596,0.4044594272,0.6375551227,-0.5364026523,0.7170388159,-0.5151965576,11.1078096339,0.564378409,-0.0054291807,0.4998404921,-0.8040434289,0.514026805,0.3458658882,0.815173949,0.3815177642,-0.5810885987,61.7376809343,0.3744050373,-0.8334626778,-0.3082402243,-4.8468149091,0.0486055599,-0.4566267854,0.0405921371,-0.5477724865,-0.8119884893,-0.2808702511,-0.6317180705,0.7583309876,-0.8925723663,0.7832897135,0.930175309,-0.2343733875,1.01803129,-0.7059625699,-18.5907303609,-0.1326918486,0.9822618447,0.164235142,0.6577113136,-0.5650955902,0.1691072976,0.3050543029,1.1064748788,0.6244543767,0.5609693888,0.259264224,0.3291053911,0.1218412356,0.8099195852,0.0166738818,0.4190660275,0.2561506234,0.344394348,-0.11966919,0.1691370374,0.5557707797,0.8324214809,0.7378086346,-0.9396362379,-0.3253451152,-0.0732310109,-0.9336013147,-0.9503893901,0.9747257403,0.2246569642,-2.6367331316,1.1015882601,0.9574810426,0.0459859535,-0.2477391787,-0.0593415372,-0.3990687805,0.131978738,1.0173437095,0.339503886,0.7050205473,-0.2414101124,-0.7699802082,0.0051717952,0.1025444608,-0.0152917527,-0.7837578286,0.738926921,0.641372335,0.1905757135,-0.1916992053,-0.2185478225,0.276636484,0.0559686663,-0.5843287257,-0.9665217712,-2.2139675941,0.6738484681,-0.5503197634,-0.0630128014,-0.2795248438,0.3016353313,0.6333516878,0.7514494633,-0.568358475,-12.5371172891,0.3001412507,-0.327520026,0.6760476463,0.765099887,-0.0746229799,-0.6290339219,-1.0805844027,-0.7760022839,-0.6148296375,0.4181879175,0.4513406668,-0.2009833558,-0.27867254,-0.3512912472,0.3789390168,-0.2214257664,-0.3706844688,0.0168252177,0.3698554669,0.6563715626,-0.3837988467,-0.3716134352,-0.2546732581,0.4134480155,0.2401763582,-0.6227084499,-1.0198937611,1.2819635758,0.5683198383,0.1448409882,0.2441706255,0.1444274505,-0.495556757,-0.7072405664,-0.3007446737,-0.3573695191,-0.5467099376,0.6682638038,-0.5047536376,0.2248145981,-0.9751190347,0.873393345,-0.6107086837,0.6123568463,0.4079441605,-0.6736994604,0.8235867367,0.3873557757,0.9591995006,-0.051419873,0.6172230767,-0.152885587,0.7778538576,-0.2116541412,-0.219762751,-3.3198134273,0.8621822467,-1.4006911519,-0.4257968801,0.2398244623,-0.0199121922,0.1332251286,-0.7391634806,-0.1914368623,-0.9519214993,-7.2338214273,-0.9811457982,-0.071053464,-0.2958527296,-0.2427743159,-0.1330302829,-0.8145298172,1.1871669553,-0.8656212063,-0.0316015692,0.8459074658,-0.5994796553,0.139535378,0.9970884434,-0.8820905531,0.479238471,0.3909955413,-0.7783779121,0.0597153625,0.1909159354,0.8488797936,0.8443330724,0.5764912225,-0.2555237502,-0.9357937453,0.0336943714,-0.9049500608,-2.0406217751,0.5218897621,0.5756028996,-0.1552078077,0.8878036616,-0.7040204637,-0.0092020745,0.1994397479,0.6745027731,-0.980122664,0.186616504,-0.599820083,-0.6657883737,-0.6394890716,0.4955274601,0.8420926897,-0.3707579288,-0.8422525151,0.3363750444,-0.6390303929,0.2787587828,-0.4901935772,-0.1491306364,1.2130636674,-0.1919444575,-0.454901582,-0.3569720789,0.3098704582,-0.2562501588,-0.6532375084,-0.1080330913,0.4195529127,0.4599340258,-4.2720911203,0.7060101621,0.889769975,-0.7311387852,-0.7276479609,0.773784634,-0.4985026174,0.1359854848,0.5175860513,0.830147503,-0.4042503476,-0.6868595098,-0.0163255124,0.9419969777,-0.6896914838,-0.0587213127,0.0663476329,-0.2571028427,-0.583909054,-0.8879932233,-0.6199077301,-0.3241201919,-0.8597511623,0.7069664763,-3.1780543506,5.6023592843,-0.5769316347,-0.9476288787,0.3090415733,-0.8065825927,-0.9740753537,-0.6115717389,-0.4558871995,0.4777205718,0.7703810814,-0.0246179385,0.5171699114,0.7449171813,0.9443973191,0.0626176759,-2.3091065833,0.3779198953,-0.8727185754,-0.2959239343,-0.8344420958,0.0597578096,-0.0453805845,0.9960362995,-0.2039056873,-0.0163464694,-511.4088147466,-0.882583307,0.9571356348,-0.1615632665,0.7388302217,0.5120071674,-0.9102062949,0.2963088912,-0.1706645141,-0.1414350084,0.6481530503,-0.0262340357,0.1897631755,0.4353262279,0.7981753451,0.0900328351,-0.130032281,0.1294771267,-1.2359887097,-0.697399521
