encog,BasicNetwork,java,3.4.1,1,63726197558697
[BASIC]
[BASIC:PARAMS]
[BASIC:NETWORK]
beginTraining=0
connectionLimit=0
contextTargetOffset=0,0,0,0
contextTargetSize=0,0,0,0
endTraining=3
hasContext=f
inputCount=4
layerCounts=6,101,111,5
layerFeedCounts=6,100,110,4
layerContextCount=0,0,0,0
layerIndex=0,6,107,218
output=0.00000000000000000001,0.00000000000000000135,0.00153354806228485,0.00000000000000000001,0.00000000000000000001,0.998280287163473,0.00000003064744760313,0.712937190216164,0.786158036589503,0.215095269897964,0.414186803771394,0.999429538292285,0.0140446753385042,0.999854535078674,0.00000021462888624164,0.998726856751206,0.0187140544032267,0.992795348150506,0.00000139027815132768,0.0000126814360059168,0.999999999736121,0.99999978953219,0.84363827836836,0.00841904222708103,0.999546316282406,0.00140697029684343,0.996403514538751,0.999999979019313,0.286517991740804,0.00000004031254034037,0.999999422937514,0.049340388401171,0.244200307642335,0.255873788507192,0.0114899342379379,0.00000068830515481659,0.307035130255035,0.00000002022373749596,0.00868970359479454,0.592680484880852,0.885408165174845,0.638980609828409,0.00219290167280254,0.999958647383749,0.978584474583173,0.000276647668118682,0.754859533470811,0.729958915044882,0.838816073718668,0.956744297581787,0.999999988215178,0.999999137830318,0.98780879552759,0.732818410164987,0.00000003552709739669,0.00000008629336454944,0.999313276692088,0.00000000000001952608,0.330123528845649,0.906411260342062,0.00000000000035278021,0.808185922669105,0.00000399424925836154,0.00000030941676803865,0.00000584435328714345,0.0000579697792986768,0.00235604538067851,0.419499525460017,0.99936317999987,0.999999836596175,0.780743664568714,0.999999224536901,0.0151752531955089,0.00222707204175299,0.962454742336076,0.00000066235099874856,0.99327280467491,0.00000001823343094568,0.00000000000005714627,0.999367904350605,0.64352211665163,0.0842731034311499,0.267993213971759,0.00000000208127107115,0.985886011824594,0.999997612377193,0.242037173061013,0.00000045901326076014,0.821586325350959,0.857658511248962,0.0102783613339887,0.0959033571625977,0.00012250088420778,0.953992492339959,0.878778088291245,0.970786301172707,0.000124615526570831,0.00738379379100178,0.0000196102206014425,0.998906286750111,0.990708288962148,0.981153097847499,0.0000370366311036799,0.203684358976691,0.0000344268955654504,0.999729074839618,1,0.00000000000000000001,0.00000000000000000001,0.00000000000000000001,0.00000000000000000001,1,0.00000000000000009607,0.00000000000000000001,1,0.00000000000000000001,0.00000000000000000001,1,0.00000000000000000001,0.00000000000000000001,0.00000000000000000001,1,1,1,0.00000000000000000001,0.00000000000000000001,1,1,0.00000501863295958088,0.00000000003470096916,1,0.00000000000000000001,0.00000000000000000001,1,1,0.00000000000000000001,1,1,0.00000000000000000001,0.999996503291322,0.00000000000000000001,0.00000000000000000001,0.00000000000000000001,0.00000000000000000001,1,0.00000000000000000001,0.00000000000000000001,0.00000000000000000001,0.00000000000000000001,1,0.00000000000000000001,0.00000000000000000001,0.00000000000000000001,1,0.00000000000000000001,0.00000000000000000001,0.00000000000000000001,1,0.00000000000000000001,1,0.00000000000000000001,1,1,0.00000000000000000001,0.00000000000000000001,0.00000000000000000001,1,0.00000000000000000001,1,1,1,0.00000000000000000001,0.00000000000000000001,1,1,0.07687474911847,0.00000000000000000001,1,1,0.00000000000000000001,0.00000000000000000001,1,1,0.00000000000000000001,0.00000000000000000001,1,0.00000000000000000001,1,0.00000000000000000001,1,0.00000000000000000001,1,1,1,0.00000000000000000001,0.00000000000000000001,0.00000000000000000001,1,0.00000000000000000001,0.00000000000000000001,0.00000000000000000001,1,0.00000000000000000001,0.999999980095586,0.00000000000000000001,0.00000001103614406058,1,1,1,0.00000000000000000001,0.00000000000000000001,0.00000000000000000001,0.00000000000000000001,0.00000000000000000001,0.00000000000000000001,1,0.00000000000000000001,1,283,232,156,707,1
outputCount=6
weightIndex=0,606,11706,12256
weights=##0
##double#12256
   -212.2581543546,-1176.0607194562,0.8073936765,-434.9910160754,-0.059783147,0.497959071,-0.3200148097,0.511965709,-5.7730148583,-0.854545535,-0.3053612699,-7.8542370332,0.7746062597,-13.827917529,-0.30911777,0.685475156,0.4458101714,0.421038231,-0.3651611241,-351.6032912823,-0.6995361461,0.3143689149,-0.4692065418,-3.2473130524,-0.5242425076,1.4961460655,-0.665367322,0.3693219859,-7.4332890593,-0.9765341393,0.7434124162,-25.006073855,-154.0661099503,0.4423491236,-0.4949582025,-1135.0010741306,-29.478017783,0.5076731125,0.3183436851,0.508614642,2.7011734533,-1.5760837944,0.7060698563,-0.7738816525,0.551612301,0.1601437822,0.0568779109,0.8869291282,-0.2092557795,0.1532664482,-0.3404019999,-5.1275018342,0.4445865531,-0.9342821001,-2.7920111477,-0.4890378056,-1203.8095199451,-1.326691368,0.0022636762,-1640.7944532992,-0.0703507926,-0.8491467781,0.7115654704,0.6892250676,-0.6493749683,-0.3009295261,0.3491323822,-499.3382517707,-0.574160665,0.1308839102,0.0909537403,-1.8391602999,-8.2243399162,0.1975912314,-0.5018335527,0.5555961782,1.2222177772,0.5378202217,0.3703605904,0.7551128978,-6.3248610796,0.2367821143,-7.5360028872,-1.6831837684,-31.4292916753,-0.3984303603,0.8761368503,-0.8804204752,0.7442730551,0.6435929646,-13.552739497,2.4693190603,-0.680516365,-0.8724171589,0.3084125202,-0.6387144583,0.4534990261,0.8703812224,-116.6202538421,-0.4803266826,0.4660913871,21.0658051264,0.1284792574,-1.6408410694,0.6402909871,-0.4625629961,0.9352888148,0.2751138416,-0.0962924422,-18.7337069688,-0.2351090476,-0.2003614668,0.6531404265,32.0394217139,0.7719861551,-0.689405714,-0.6391233623,-0.7570264515,4.322417114,1.06391898,1.0457213169,0.8484003739,-0.3739294853,-0.525905913,1.747670766,-0.4005208031,0.1410406402,-0.1607270503,-0.5299490559,-2.1386987677,-2406.776658499,2.857052584,13.9948342258,138.4507349838,-0.3747661845,-0.1169868983,-10.9760580222,-0.583007536,-0.816587689,0.6891580817,1.0532830198,0.5159972173,-0.2555346766,0.8821676125,-0.2607398735,-0.339239353,0.0328776432,-0.6411158971,-0.3410091599,2.128934062,-1361.2573941012,0.5225012841,-3.8085586389,-0.0087321054,-2.1307446058,1.308958993,0.2075190096,-196.7828123288,0.4631647776,-20.4857297385,10.5116179746,0.1552963505,0.8060810565,-0.4916021216,0.173720799,-34.5357635791,0.4773895115,-3.0359649239,-16.052416792,-0.4815663087,-0.3304771887,0.7665366181,3.7554140445,-0.8846769714,-0.3211699758,-2.8478694485,-0.6737074899,1.1408707441,1.2819030089,0.6909260995,0.1504842538,-7.0954690098,-444.638603123,2.0256561215,0.1725512835,-13.8792255216,0.408196648,1.8582313557,-5.4852548145,0.9935308504,0.0406813748,1.057969995,-5.7526548206,0.5052518185,-0.0049956473,0.9366714521,-0.6143915598,0.091130005,-0.0793772415,-461.9362265221,-0.8554517085,-0.6038312221,10.1143802468,1.0695420423,0.6325599013,1.5300082134,0.9315308417,-0.525159362,-1.2313865594,0.297341362,0.8088362637,-0.8076609573,-0.436317476,0.990551431,6.048817345,-92.8070552712,-0.8392835245,0.7590916281,-0.2197997053,8.0541816274,0.3242637994,-122.8300021707,-0.3424052397,0.2451152858,9.4863491536,-795.8017499513,0.4688481821,0.7454854174,0.5863491516,0.5849715424,-0.1770677883,-1548.4164893115,-0.6518969456,-978.1624926622,-13.0949809958,0.9672966981,0.2643786644,0.1814686611,1.0064942314,-0.6701021682,-5.1610841885,-1.8803936237,-0.7050483149,0.7830239032,-0.3323502221,-0.331326425,-0.451508635,-0.0030759798,0.5748329163,-1.2203438434,-812.9189133376,-571.3772837419,-0.2614536189,-1.7032124409,-2.8734010132,0.7833476686,1.9660192926,-0.4268999909,0.5953822864,0.1519206551,199.3187824328,-63.9119210256,-0.7768497711,-0.5103937169,0.4569126269,-0.099962771,0.6622489664,-0.307923861,-8.5285029652,-107.4807938836,0.3194304981,-1.212278932,0.1390873101,8.7244892741,3.3098922008,0.0487842907,0.6068258888,-5.4115057159,0.9022197881,1.1279861327,-0.7683450807,0.043817725,0.7066201395,-0.0152388111,1.7093529116,-0.2794894367,-320.5081534083,0.4993407803,462.624618341,0.9805818679,-0.8716098094,-0.5829936188,-0.8961205723,-106.2290842114,-107.129614106,-0.2939381782,0.2037341559,-0.6837352043,-0.6588309842,0.9147748768,-436.6564581928,-0.8020339547,0.0400023945,-2.4612769677,0.884466711,0.2025069664,0.0145692399,-0.1836795605,-0.2790942215,-7.3515471391,0.0412453879,17.0561749746,0.9573704126,0.3342337083,0.7192731608,-8.2033060765,-2.0180831076,-0.5986534224,0.3015603878,-0.0236404776,-359.7450306383,0.230586315,29.3597467109,-0.664919134,-0.6574651699,-0.222573104,2.9231866771,-0.319335814,-1884.333015674,0.1475772958,0.9264088737,1.093204036,0.5493308066,-0.4602282427,66.264465944,192.6993946022,-1.4742121479,-0.497989297,-5.4936330413,4.1588742069,0.8358189175,2.1658256996,0.6750665288,0.4643021791,-0.2641891207,-0.3300809634,-0.432266901,0.8999425677,-0.6921515388,0.2706216811,0.7975138285,79.9787493314,-6.2168769934,-0.2940289122,6.1217155882,0.048338446,0.7629873862,0.1447882518,0.3269340868,-328.2628975778,0.6630929336,0.6213870049,1.836536734,0.9980668279,0.1340860097,-0.8513332678,-0.3324444923,-0.1718102315,-0.0545608751,0.4367130503,0.759317811,-0.5985960976,0.1508603419,-0.7016287817,-1.4578501978,0.8380070413,-0.616439724,0.8155976975,0.0936196358,0.1279840011,0.0050998945,-0.4269387601,-0.2424360595,-0.1091518194,-909.9755837163,-0.9750433022,3.2846911826,2.3541780674,0.6484151513,-1816.6162570234,0.7346816622,0.5737815611,0.5670544806,3.0311651705,-0.300486111,15.611433508,-0.6976454432,-0.3444874161,1.0010299935,0.6884516009,-6.8514652671,1.3339977135,0.3179851166,0.1817099244,-0.7891146168,-3.7447953987,0.0625312344,0.6843550968,-0.4111364935,-0.6548391906,-0.7787027381,-0.4704899567,0.8565017965,-0.0871832135,-0.7963836831,1.4835517836,1.5926090013,1.8952506671,-0.3384239839,-0.6504159942,-0.0531695426,0.4932549515,0.2670537503,0.0125906401,-0.9164126863,-0.2016805687,0.5988050643,17.9994077683,-0.5106730255,-404.6410816233,0.9169915913,0.9111423398,1.1767297223,1.1438277779,-0.5026436051,0.0753392931,32.8389070734,-0.5823390773,0.5842259661,0.8403355444,-7.5174784003,-0.643335547,-1.3633446948,-1.9973100955,-0.0199406207,0.2995734798,-0.0142090638,0.2693488391,-0.7094124609,-0.0471544674,-0.4218772041,0.0912931593,142.2497964238,0.8853484919,0.6533996327,-14.0142760693,0.5568830581,0.1123215548,0.1902585959,-0.2947597605,571.9582724051,0.1360838692,-1.1438135582,6.9987256733,1.1662190864,-0.7369364096,0.8144340755,-0.6728324526,-0.0757062582,-0.040815596,0.6672410997,1.0728360641,0.956591615,0.7954826192,-26.4369726692,2127.4023767212,-6.7106761318,-0.151951918,0.5537674361,1.1860692398,-22.4594118723,1.0936579774,1.1026612724,-1.2053972039,0.9363512989,26.8238073881,-2.2229437753,-0.5140157796,0.3880381151,1.1449198147,-507.9025009055,-1.1386394888,-1.0301444844,-0.5014722153,1.5728508157,1.6601730275,0.8125027194,0.8495568681,1.0533474919,-0.0499963345,-9.5909932689,0.4857608138,1.3083436552,-0.7007163528,-0.4138999235,-2.9777016754,-0.5810971869,0.7236068829,-3.4239060075,-0.4639352405,0.7055618608,0.8706239429,0.2152595139,1.0854020897,-0.078686744,-0.5907828033,-0.2597242128,-0.6229598585,-12.1330797567,0.64384703,0.1908588047,0.306082383,-0.8321542434,-0.0285562167,10.5541029456,-0.33414114,0.3869974373,0.1588054228,-255.4881760654,-0.3198667626,0.1348061756,0.0637037682,-0.058808735,12.1925657029,0.5122286425,0.7634955322,10.8485711089,12.2518287719,-0.4873213088,-0.9432850748,-1.0995188556,-12.3746681104,-0.4103942429,0.3777028076,-0.6051319189,0.009455065,0.3473494412,-0.5485453514,-0.6596493775,-0.0650127791,-0.332145587,0.5329530852,-0.2153051448,-795.212348817,-0.0819268809,-0.7149085564,-3.4408573772,-0.3958058108,2.0803847437,-3.8705873958,0.2416828447,15.0889833786,-2.7488372274,0.7823475298,-65.787964831,-71.1229476224,0.0257753787,-0.8572345873,0.1294761394,0.7964110792,1.051110948,38.4937225567,413.9270914064,-0.1323852454,-1.1380573131,0.1938478231,0.8158087532,-9.5710389923,-0.5294001909,-0.1342196971,-0.5590442845,-1.7320143488,-1.9129839549,0.060852788,-0.7976440614,11.5025190882,-0.4727078147,1.1399747914,1.9821681061,1.2579447855,-1.8304352371,2.0622864296,0.9725297919,0.0923523769,0.1973991429,424.5426836713,-0.0767590223,2.2504800503,0.3463696234,0.0154656914,-0.560588836,-0.0538310693,0.9179100949,0.5308553308,-0.9891693492,0.7181447264,0.480674352,-1.339271867,0.6427367794,0.0766252648,-0.9384819629,-0.7257311994,0.9814628219,-0.0709908597,-0.5257337727,-0.5201261506,-0.2357370297,0.8892790498,0.2946531211,-1.5415012522,-0.1452849267,0.1536851655,-0.8606725387,0.1244852979,-0.2312412221,-0.717322608,-0.301862132,-0.627487267,-27.6111874604,0.0333794697,-1.7459612199,60.0471439525,-1.0091143657,-0.5433816669,-0.7067993346,-0.7862223029,-0.8321686057,-0.0166371937,-0.8586133129,-4.0659116667,0.0600853092,-0.1127700656,0.5350912751,-0.3126532359,0.6746684945,-0.8873350005,-0.6259500854,0.9350700704,-0.3700903303,0.4092260969,-0.9769332036,0.1662244134,-0.1082414111,-0.7881002304,-4.5236390716,0.7357523211,-0.3562734857,0.605150434,-0.6450425792,-0.4525323958,-0.2343239405,-1.2625225315,-0.0554567301,-1.029459615,-0.5628673691,-1.149044031,0.5562948109,0.179352153,0.3060363009,-1.4386964793,-8.3181799756,0.3111560109,0.1021074419,-0.8673381392,-0.3623087714,-0.6298380045,1.7199963091,-1.3430283757,-0.6570297822,0.6907046175,-1.3744691544,-0.0845345438,4.0525177303,-0.1118173241,-1.3545833514,0.6993559113,3.8974609671,2.6756220533,-0.6377687133,-0.9143222048,-0.7833499669,-0.3604410496,-0.5707871799,-1.8329509013,938.9958713935,-0.9689979944,-0.6380566205,-1.4439312854,-3.3654214456,-1.0708852803,0.0534164075,6.0461844889,0.2995148274,-0.2713561623,0.8956406625,0.0327731141,-0.8036490898,0.1724925115,-0.5360691378,-0.9368156416,-1.2000924401,0.5892040741,-0.220331716,-0.5979391921,-1.1853887567,-0.4565777109,-1.0429432734,0.1600596901,-1.5634329692,0.5474395936,-0.8620559377,0.8320817852,18.355069844,-0.3103246965,0.4075233308,-0.9804853043,-0.9769527364,-0.5542960474,-0.7679976326,-0.0987179564,-0.5287172149,-0.459298903,0.6530820848,-0.5407838365,0.0075711548,-0.8841310832,-0.7593148705,0.3655294584,0.5663037852,-27.5291804989,0.3431336248,-0.5334699154,7.0068608308,0.9573185759,0.5967939251,0.0560744262,0.234364537,0.1430677188,-0.407147236,-0.354239351,-3.822242762,0.8597778929,-0.7114167914,-0.8217098293,-0.1291457393,0.1243523411,0.6402683824,0.3192610865,-0.2413720373,0.9972391909,-0.7038094325,-0.7912509832,-0.973413754,0.4367332277,0.9537203153,-2.0906964256,0.8950251095,0.7193002018,0.0978406095,0.6147945101,0.6780687938,-0.914971253,-0.1984129111,0.6646181781,0.4296099875,-0.410426844,-0.8221879146,486.9264951606,0.7092116537,-0.3557229984,-0.9677854191,-0.2257038095,-0.4561128018,0.3433101387,0.3430461776,-12.3849531383,0.8449173858,0.1749262959,-0.1154609021,-0.1204947046,-0.5804901978,-0.3116691949,-0.9704584537,60.2010900153,-0.8881240201,-0.0564469573,0.3469316034,-0.0961976122,6.9227858537,-0.3782043009,0.2520558616,0.5541050849,0.3101938956,-0.1977647256,-0.3920187121,190.8550884874,0.471738382,-0.3669815044,-0.7909666649,-1.3793902013,-2.3773683077,-0.256368731,7.8422644615,0.7354266941,0.2599714917,-0.8457547424,-0.3908459731,-0.6501421006,0.8879034081,0.1297652149,-0.9320702312,0.332293379,0.8916620605,0.9712321367,0.6641887825,0.3124912097,-0.4335551533,0.0369013626,0.1832262227,-0.055724954,0.3246314895,-0.2056716248,0.7506369172,0.7306564444,0.5601255325,0.4758748985,-1.3328849961,-0.8515268638,-0.7268580963,0.798621091,-0.524934721,-0.4239300455,0.4260042342,0.4849713226,0.3816527664,-0.1230239894,0.6987214534,0.0771308237,-0.6788978139,-1.9452730013,2.3098957572,-0.5891168595,-0.0110482461,5.7780530622,0.210593115,0.5665889909,-0.3968123349,-0.3367372871,0.6845194154,0.7456926689,0.146195306,2.5602749134,-0.6574508593,0.6679099877,0.2973377934,0.7033189356,0.0185421021,-0.9765853006,-0.9435160917,-0.7388123329,0.0285768475,-0.2342360789,-0.3461996891,-0.189164762,-0.7325969609,-0.3550116426,0.7933641679,-0.1276381052,-0.916606486,0.2288632287,-0.1392568013,-6.578919684,0.5894536437,-0.6510418328,-0.8652834603,0.8023577553,0.3701456302,-0.566325508,0.2059495548,-0.1718956882,-0.1974362046,0.3211240363,-1.3952916589,-0.5981223358,0.6934446056,0.3536751936,-0.6800504947,0.3581808188,-0.753171761,0.7235504693,0.5717589155,0.405599104,-0.1112851582,-0.5222788248,-0.5326856943,-0.4424132747,1.6798683614,0.1522862172,0.9714329259,-0.4860841449,0.4492593049,0.0701341206,-0.1916712688,-0.7477745083,-0.9474734877,0.2159758881,-0.8486286129,-0.0433450234,0.6275213488,-0.9014200563,-0.9845570443,-54.0783787389,-0.1453344904,0.3677682465,-0.0650818302,-0.9701179698,-0.7807879885,-0.6498115349,-0.6710605109,0.646354206,0.3821379484,-0.6009730035,1.1866169199,-0.4611155363,-0.1998019755,0.0362609071,-0.8973757645,-0.5205894933,0.7715505852,-0.5694290013,-1.0378548686,0.2385929428,-0.5091469388,-0.5793006214,0.2924486558,3.1398293432,-0.0297685038,-0.0587561131,0.065594888,0.0929877921,-0.6626235143,-0.4206455031,0.4740302023,0.6550660587,-0.7182652642,0.4638832329,0.4948381465,0.6275260661,0.5380219563,0.5561765204,-0.4383746222,-84.629911244,-0.0516667679,-0.5254377532,2.4359306596,-0.9858106049,0.9389783143,27.9469880376,-0.6343254111,-0.0344839101,0.4808167028,-0.8098422391,-2.7484108227,0.3647263848,-0.7162863505,-0.6537351402,-0.4768184518,0.1314257864,0.2396585146,0.4801439653,-0.7425463394,-0.4820783714,0.1995353369,0.8285614708,1.2295059712,-0.2846677058,0.8783610826,-0.1944482141,-0.048611262,-0.497396617,-0.4235133638,-0.8339490395,-0.7900308576,-0.3338850408,-0.5020155217,-0.5821809655,-0.573425219,0.6271699,0.2215645318,-0.2916169504,-0.4784694769,-0.1195815951,0.5505270788,-0.1430627147,0.3419030511,-1.1277521878,0.7711555751,-4.7801157353,0.3122007266,1.0041945691,-1.0476625525,-0.5351715322,0.2282364626,0.3003091146,0.8379228859,2.5944348087,-0.116712771,0.5551004404,0.2208457986,0.9338915139,-2.6569405081,-0.7539268154,-0.4888148613,-0.5820816298,-1.0528275801,-0.658259333,-0.8324568877,169.1850999391,-0.3537373242,0.2885495653,-0.4448860381,-0.3596244913,3624.0421873366,0.247740612,0.8896311264,0.7455194009,0.7897416997,0.4288824026,0.6612817106,-0.0043902905,0.6783105291,-0.5072289563,-0.5185860302,-2.2934801915,-2.0693768877,-0.7274440693,-0.8126893629,0.6284587204,0.1980872157,0.4825736868,0.4443063513,-0.2373523771,0.180148183,-0.2568059821,0.2745120052,-2.5712753672,1.3830676702,-0.7559226056,0.516323512,1.0409715265,0.2332693656,0.6270324968,-0.1397937057,0.896328693,0.3904023452,0.647511341,-0.7959799957,0.083241847,-0.4826225096,0.6046554049,-0.1838644346,-2.3263063368,96.6745649606,0.5535833988,-0.5650099528,121.7364981796,-0.7356901331,0.9977252218,-20.5180647926,-0.3651705442,-0.0403252999,0.1241441725,-0.1469867792,-0.3585395706,-0.8207316053,-0.7739122599,0.6590212023,-0.2186476501,-0.2471476119,0.6384949776,-0.5464730903,-0.0066232909,0.6360275991,-0.5353209002,0.7120161027,-1.1427189194,0.6527424858,0.7135753789,21.823654241,0.2919506561,-0.699895969,-0.9240087699,-0.8621317007,-0.5350660939,0.2189528962,0.7723960055,0.9009654074,-0.8631114124,1.148358428,0.0155008966,60.3833329246,0.0112464859,-0.5450013921,-0.4193736727,-0.3771952869,0.4953013004,-0.0656157714,-0.7307433024,-4.9232229654,0.4279008375,0.2860071235,0.5709941381,-0.7936064004,0.2790365085,0.7396912103,-0.7816338394,5.1074439932,0.9424389822,-0.4070990595,-0.445374876,-0.0890640425,1.3226336888,1.0298898821,0.1856467776,0.3794860767,-0.356687119,0.0183226205,0.2490728762,377.1479804931,-0.655056102,-0.4226815591,0.4610486947,0.8536092778,228.4601920453,0.4811808097,-3.4319702994,-0.4634878466,-0.1942270146,0.3703608642,0.3793954275,-0.4392518915,0.8806525967,-0.8958829659,-0.215413322,1.0942288049,-2.2586014284,-0.157733996,-0.2525093524,-0.4908349302,-0.895768489,-0.7262569958,0.1925735812,0.682472753,0.0121734026,0.3967944055,0.0967720467,1.5251205729,-1.0137441498,0.4334464586,0.1263193523,0.8999626982,-0.5047504738,0.2044139287,0.580381844,0.8512846237,1.2267346368,0.6313527022,-0.4534913854,-0.7189329778,-0.4190508935,1.1770706628,0.3926386501,-0.5253057055,0.5354388904,0.2549636031,0.9269379818,0.1031115656,-0.4250634698,0.0642466279,-0.8216187319,0.0659925127,0.6783836551,1.2246328237,-0.6353242451,2.3783669434,-0.9523316547,0.7911788712,0.2828290925,-0.3467884351,-0.7595047707,0.0674477737,0.0366946466,0.6263235368,-0.2546327061,0.5822346106,-0.0512007806,-0.3688210544,0.5930195005,-0.426029368,-0.2741798756,-0.0624091019,-0.4721206309,-0.2952694461,1.219401908,0.0588264274,0.8336816656,0.1207340817,0.962921855,-0.2125812035,1.1042089998,0.5667512595,-0.9680746277,0.7232055484,-0.1213321045,-0.3176099605,-1.5647868172,0.7709025879,1.009458586,1.1136674829,8.0662560842,0.668429409,-0.4932326782,-0.4169848397,0.0961284193,0.402396972,0.2342195804,0.6458833238,-1.0863890188,0.8245602046,1.3862481921,-0.1933495128,-1.2427345515,1.2407995033,0.6322488889,-0.697090119,-0.5621228468,1.2343629725,-1.196775092,0.135811661,-2.6656764747,0.7227619615,-0.3544360523,0.9471280837,-0.157872666,-2.4932695919,-0.7123311912,0.8036751614,-1.3970143837,-0.4658445178,1.5787294658,0.5945047133,1.1052708993,0.0912539296,0.4683032518,1.3302272213,-2.1272877297,1.3035937254,-0.960284682,-0.545214514,-0.2543809025,0.1826912965,-0.1159852959,0.4966922993,1.9158405933,-0.2654084439,-0.5921251036,-0.7101843872,-0.5778684654,-0.5851480943,-0.8247612225,-0.8416870057,0.2567588152,-0.8835845687,-0.4501507466,-0.9098795568,0.6507652226,-0.0407010214,0.4861026914,-0.0347037688,-0.5956510807,-0.6327846598,-0.6924430237,-0.1866378495,0.0726568343,1.9856027751,-0.4707621515,0.64589377,-0.9683627354,0.1611569692,-0.3758988517,-0.2427635777,-0.7155794355,0.3656504966,-0.1903696926,0.7617433811,-4.420839292,0.2848020379,1.0401055788,-0.6073591447,-1.0536163779,-0.0262333104,0.7097147385,0.1462520397,-0.5952381732,0.3535488551,-0.4260716668,-0.1020758241,-1.0305647804,-0.9368446501,-0.6480803153,0.3116627206,-0.8437847544,-0.2627114478,0.2126161322,-0.3172663617,0.9841468884,0.1182814623,0.8968792819,0.2349569282,0.6286176802,0.0987530557,0.8855786747,-0.5866238629,0.1949461009,-0.5123903652,-0.8714395505,-0.6546928467,-0.4955985488,-0.7778351459,-0.2618496009,0.7724780977,-0.1989907041,0.9811212173,0.5780913022,-0.5207918932,0.9040824836,0.5018024922,0.4078774343,0.07950273,-0.7264838989,0.654791057,-0.1760067135,-0.1552730186,1.900557674,-0.7938703116,-0.6220556384,-0.0497910208,0.5280288295,0.0468218796,2.1584089906,-39.1024103895,0.1601685934,0.2859013073,-0.7870813817,0.5120303197,-2.5296273549,-0.6684445425,6.0953222532,-1.1288841071,-0.8434520752,1.3574434192,0.0007756067,-0.5523174128,0.490457112,0.4381549654,-0.3148873168,-1.3564422087,-0.3770019441,-0.9340861831,-0.8705237731,-0.1297041215,-0.8792984556,0.3971886665,0.929401542,0.1588844935,-0.7991581921,-0.397248849,-0.0540963011,-0.2194368908,-2.576496855,-0.5709755107,-0.064859801,-0.1265666852,-0.2028022968,-0.6922077991,0.226696557,0.4938937669,-0.7237209458,0.1926940076,-0.1250773976,-0.3495702489,0.614364079,-0.1397257075,0.6239313656,-6.5108273478,2.0540295963,0.8554589631,0.7121724897,13.7174629562,0.8332587158,-0.5287886316,-9.7121213079,0.5291450063,1.0583515051,1.0416192304,0.8168130276,2.0852225749,0.631671069,0.4382265819,0.8189497459,-0.7563193056,0.4621320541,-0.6498959016,0.0055225136,-0.4139171883,-0.1529013161,-0.0874708468,0.716863389,0.4455594932,0.4505372059,0.3047958646,0.3191444032,-0.5465578345,0.3843330324,0.8090545143,0.0360227174,-0.3222599597,-0.1111288714,0.3838396235,0.9523059102,0.7284870929,0.3384511853,-0.1186801755,6.8738497244,0.9685839261,0.6141334253,1.0939558358,-2.3467689079,-0.9191463636,0.4720106416,-0.2416302516,0.1751339577,0.0164498617,0.1302442532,0.0112602976,0.9082092673,0.6626200898,-0.136266545,0.9131948934,-20.2424709296,-0.6754736279,1.1487426085,-0.3922826431,0.5237321938,1.7516191578,-0.3710287131,0.5758156532,0.8767530358,-0.8356425424,-0.6424948239,0.1702535212,-1.2569361046,-0.329324721,0.3095192026,0.0528697946,-0.3849980012,-4495.5689854103,0.8447353723,-1.1528293313,-0.6198926982,0.8863430983,4.6964909134,0.823926948,0.8761455076,-0.5767350638,0.6071094487,0.2176480619,1.7049146669,-0.2140847859,-0.8470553112,-0.2838639753,0.1341685001,0.1837519102,-0.1755825105,-0.4973695627,0.5662926406,-0.2752795179,0.3894172699,0.9242714964,-0.4450939553,-0.8452041514,0.5418039702,-1030.9921778601,0.5060848036,-0.5909449349,-0.5353079492,-0.3435045012,-0.4124454332,-0.7350939851,-0.1718486804,-0.4323219287,1.1520842036,-0.2218980795,-0.0731765936,0.803387456,-1.3840707472,0.7282089327,0.3186172253,-0.4682422008,6.7608083247,-0.328160599,0.57307001,-0.5505941151,-0.1492022407,-0.8315036338,-0.8173831424,0.617267765,-3.972119238,0.4243615872,0.2413740831,-0.961717627,-8.3165371955,-0.7526950984,-0.1719697626,0.3643289025,0.0588552621,-0.0633256543,-0.4317894706,0.8086264784,1.1019293993,0.3642994819,0.1025952581,0.4729997666,-1.0155103899,-0.4961376388,0.6528623736,-0.385585549,-9.7874829802,0.5788976432,-0.384643575,0.1803761586,-0.0521697464,0.4208995791,-0.8347222837,-1.0865955252,-0.7488997428,-1.0801302736,0.2176121064,-0.5184819224,0.3401267544,-0.5459784198,-1.0131683681,-0.6378355257,0.5387067457,-0.1588310267,-1.0195934219,-0.6385253246,-0.0298990444,-0.528924255,0.3245128879,-0.4885079624,0.227754451,0.0352916124,-0.8865831783,-0.0754171062,-2.2397158169,-0.6716652451,-0.8746259258,-0.456859539,0.306438093,-0.0806007409,0.7887224232,-15.8268957906,0.9125998895,0.2017286169,-0.129374024,-0.2153367488,-1.9428384331,0.5132825041,5.782171781,0.1226865301,0.1586519978,-0.2783292319,-0.7295328889,-0.2769789548,-0.4401225958,-0.5687692415,0.8711991718,0.7079671516,-1.765507913,-0.0038470193,-0.5957001371,-0.6309447757,0.8211550634,0.5023718078,-0.0496370844,-0.49963431,0.043406093,0.0294049583,0.2279933602,4.6366846775,0.095344608,-0.1147586356,-2.1513372255,0.9541851753,0.660510684,-0.6860874508,0.2812966282,1.0726468206,0.2345827477,-1.4139751054,1.0751357208,-0.0400368027,0.0221657525,1.0688992691,0.6698068191,2.7360752831,-0.1304780655,-0.6062539049,0.2903158148,-1.0069694756,-0.2400640871,-0.456587132,-0.0229799943,-0.5269150743,0.6221462773,1.0868024269,1.1404755626,-3.0984171035,-0.6918246083,1.044796849,0.0791228167,0.3963044394,-0.5360316222,0.6253930068,-0.8259505148,0.0224695043,0.587200372,-0.0016633919,0.5846152266,0.5539836471,0.4523418784,0.9592578513,-0.2370268291,0.3456395418,0.0051620745,0.9400696549,0.3664511921,-0.3571072598,0.3430377836,0.0483799175,-0.6192970758,0.7428878919,0.634561603,0.6292153035,1103.9724051079,0.2523485845,-0.3560372785,1.0515887885,1.9316103878,-0.9949062718,0.35974534,1.2096345824,0.5047071008,0.9930295655,-2.218625072,0.239165381,0.0025453199,0.4605000482,0.6461132184,0.1482642017,32.1408041401,1.0974796549,-0.7047368186,0.4269362266,2.1603944199,8.9211839029,-0.6433305647,0.8905978649,0.0171022167,0.2053643561,-0.3385707157,0.452298995,35.7096386452,-0.1124829487,-0.3108601885,0.3705887751,-0.0335895838,-11.1966359953,-0.0132352874,3.681886575,0.1651181544,-0.5473029979,-1.6632477287,1.1091528005,-0.7740518898,0.0501550833,0.8212303518,0.9433882964,-0.6821644204,5.4406759185,0.1999803685,0.3668088677,-0.2039000818,0.2497339956,-0.5937051633,-0.5030220608,0.3522454562,0.8715076865,0.4069853236,-0.8477260414,0.2241105859,-0.2921251068,-0.3257512224,4.6779315077,-0.7648110977,0.9307623011,-0.0795789487,0.2529791888,0.7067808903,0.3139842028,-0.8066782016,0.1275948431,-0.4771943721,0.8974560294,0.3173863996,-0.16768947,1.6999204188,0.3574852564,-0.492534252,-0.099398855,-2.6520200509,-0.2937213869,-0.7150098499,-1.1204814491,0.6890381629,0.4340950154,-0.6466385494,-0.2044894709,-1.2030250148,0.4811559745,-0.1906662111,0.192261119,-0.9456670813,-0.0525669116,0.3782941007,0.5637650205,0.0967025678,0.0241371416,-0.9444561982,-0.7746872901,-0.6205726041,0.8558771721,0.4884592199,0.5832455884,1.0963102248,-0.6410482944,0.3196344978,0.7165397444,0.5934284629,0.5997964086,0.1306799439,0.3222279508,-0.6868875846,-0.8671405524,0.627351484,1502.6878320084,0.2467710858,-0.2438252794,-0.6878534769,-0.2237331632,-0.9509645393,-0.4165243625,0.8132431599,-1.0412188038,-0.9163360642,-0.6719937222,-0.7388173518,0.1778515179,-0.0485033184,0.4226702607,-0.86255942,13.9706429044,0.914116779,0.7094458837,0.5203677805,-0.952173046,5.713856566,0.371894796,-0.4087990762,0.1148471008,-0.251688127,-0.4215603546,0.7148175698,39.6921078519,-0.9076365875,-0.5252252117,0.7447201303,0.4300073162,-1.3610030024,-0.9926222926,-1.6255900861,0.1963283629,-0.2722251961,0.4167069327,-0.579882951,-0.1790966053,0.1181690262,-0.3301693813,-0.1379976435,-1.9345823455,1.1241181678,0.2763465006,0.7872402239,0.1390964347,-0.5201110797,0.184873642,-0.32851896,-1.8563668521,-0.4710845535,0.3004062443,0.5468304883,5.4995043351,0.1703821306,0.8429181986,0.3012399776,0.1636921523,-0.5819662331,-0.3182157126,-0.5877979992,-0.0249112855,0.7756644786,0.585150477,0.8651653082,0.2046077855,0.4947501698,0.4973231414,0.3279457269,-0.9049578939,-80.7517094423,-0.8882901414,-0.9144711919,0.4227350139,0.7904377832,0.1902460491,-1.6322780108,0.244532977,0.5637525431,0.4964137776,0.8639497097,-4.0062782815,-0.0495676291,-0.576817444,0.4592100621,-0.5113580112,-0.1747578611,-0.9565627388,0.5438490821,-0.4512959362,-0.900802614,0.5812430864,0.225027002,-0.690460149,0.7045699526,-0.0055376529,-1.2410903484,0.2798165427,-1.0030050118,0.8568773493,0.3796784132,0.9710705563,0.5159712182,-0.618784695,0.5876752946,0.5989844669,0.160140593,0.6076788027,0.5367498799,-0.2802389678,0.5468542852,0.5935968002,-0.5743210694,0.0124929664,0.4859265666,0.2628244011,-2.1588871462,-0.4330441716,0.408108094,0.3629336663,-0.8485099202,0.44233557,-0.2232108297,-0.3576286244,6.4577523526,-1.0345867189,-0.7346200415,-0.9596416587,-0.4507956598,-0.0704262536,-1.0479069118,-0.6490749501,-0.1385834337,0.721438101,1.0649061096,-1.0334096624,0.1956508895,0.4349138753,-0.1323108463,-0.2934182029,-0.1592257244,3.1295220879,0.7625246672,5.1751275598,0.4893032937,0.2085773663,-1.0482558841,0.4022934091,-0.3892411744,-1.0315110325,-0.1089019576,-0.6767097097,-1.7592503046,0.0680784386,-0.2875221285,-0.4780057862,-0.5793572149,0.7732175622,-0.4411440832,-0.1413930225,0.042496353,-0.8427750924,-0.2765328844,-1.2135780227,-0.3315887345,-0.0301443043,0.0163639904,-0.1328773427,0.9704066303,0.7133765428,-0.8287317035,0.2223776613,-1.0635740207,-1.0236996371,0.7578903301,-0.6287659168,-0.5767701304,0.1820204906,-0.8400381249,-0.2287127467,-1.2587574723,-0.568171477,-0.624366631,-0.2466353974,-0.4314384953,-0.7676244736,-0.9149204101,0.4325054957,-0.0702788309,-0.0249793903,0.1365909617,-0.1736320185,4.6134294558,0.3075158611,-0.2323359772,-0.4904588142,0.917955864,0.9295720504,0.4747720982,-0.3148739645,-0.8019419796,-0.8480072892,-0.5035087129,0.1975234073,0.8938508071,-0.9417369352,0.9295945307,-0.0880945943,0.1909486493,-0.6558602149,-0.7549816835,0.5576868586,-0.144675464,-0.3948640779,-1.0719715462,-0.9622000549,0.496529486,0.5562860397,0.6308612453,-1166.4872192663,-1.0593364701,0.2388701172,-0.3438848222,-0.8982658429,0.218322706,-0.6739267497,0.543810052,0.5947929808,0.3661839326,1.2695180414,-1.0837816695,0.4017448386,-0.9778150506,-0.7757738721,0.0121077699,-1.8255339821,-0.1126098377,0.0391688544,0.6845905379,-1.0575384629,-13.1891889911,0.6422843162,-0.0042785625,-0.3319675282,-0.7701256662,-0.223038015,-1.0533048101,0.8211957366,-0.9502458665,-0.4275114902,0.0440600095,-0.310537429,1004.0765777279,0.4906365985,-3.1993856538,-1.3228113199,-0.4918962628,0.8281576074,-1.1313845395,0.2093995707,-0.1175378225,-0.7761196493,-0.055491043,0.5436098602,-4.9098648655,-0.3835925001,0.9805166544,-0.3323270085,-0.0106356673
   -0.4976726671,-0.4579494165,-0.8607459912,-0.2280321639,0.7140902568,-0.4211847126,0.360635102,7.4660811348,-0.7748680094,-0.1228699659,0.2408947719,-0.3589389515,0.8776373444,-0.0130055812,-0.8017964817,0.3711750655,-1.0137969784,-0.3088713219,0.2884300779,0.0896410845,-0.1510557266,0.6244342327,-0.4696490841,-1.5478874285,-0.435522544,-0.107399506,-38.0994276167,-0.1417459384,-0.6186085423,79.9477749137,-0.9552330196,-0.7287983743,-0.0522879022,-1.1120192478,-1.63477631,-0.7727190022,0.2151614067,0.1587498799,0.3794773627,0.5978506047,0.2634825982,-0.6426809528,0.4336134127,0.1674678929,0.9559468124,0.460085172,-0.3540501911,0.7454031194,-0.7073175952,-0.0571343187,1.0712989209,-0.7681202215,-0.9511785228,-0.7022520822,0.3612965618,0.0922208481,-0.7510527981,-0.798960383,-0.481793427,-0.4019095593,-0.8272059492,16.1325204875,0.7715137275,-0.308342597,-0.9777566743,39.1640045616,-0.3561436307,-0.4773668615,0.4608435537,-0.1830135492,0.7635893439,-0.6803870768,0.6913659768,-0.9822730581,0.0096827955,0.5341880339,0.5652938317,-49.1934122534,0.0907649989,-0.6085148582,0.103567788,-0.753929808,-1.5032607254,0.8690608536,-0.6128701584,-0.0588285824,-0.3310805091,-0.1687454662,-0.3504550687,8.2409612908,-0.793307525,-0.1040729633,0.0008606275,-0.105394245,3624.9479969018,0.0240711306,1.1619897573,-0.4034607249,0.2386968547,-1.5412888426,-0.4462402406,-0.9739473507,0.1450713779,0.8415293423,0.3341954144,-0.6916627052,0.2178267737,-0.66680108,-0.8522980194,-0.6640402346,0.7716923833,-0.6768897275,-0.1280328152,2.8961341202,0.3350054879,-0.8447081707,0.0973448956,2.2054630359,-1.47980086,-0.1944224997,-0.521431969,-0.3132452767,1.4727399642,-0.1770764716,0.575680767,0.3822841797,-0.1144149503,0.1782786936,1.2207967865,-0.2201593393,-0.6418168171,0.5987173076,0.1917775935,0.6140128928,27.1601162763,0.2919447655,0.1340141558,0.0012124249,-0.2561681806,-0.1985798649,-0.2793358585,0.4583877715,1.2402386025,-0.0735610934,-0.2094021745,-4.4074452041,-0.8777341535,-0.7165393182,0.6953443045,0.94810611,0.4167221391,0.2637888655,0.6548100122,-0.0100378427,-0.0007995815,0.9491696581,0.3872711646,0.3816573235,1.4256802698,0.0196005306,7.026472229,0.0353801978,0.0193045704,-0.7138337454,1.1550395758,-0.2867179267,0.392930379,1.1174232773,-0.1951072548,0.562261987,0.0359528514,1.3743097664,-1.4385750209,0.5086457746,-0.2313851918,1.2282421601,1.6306162779,0.1720187185,1.0235193914,0.3784804529,2.2695988269,-0.5461042428,-0.4314345627,0.0182630473,1.2923937252,0.2025196139,0.3740291967,0.3417652062,-1.8684408084,1.5310834996,0.5822793153,-0.4418637433,-0.0534937505,2.6598728358,-0.0543438069,-0.9798016054,0.4053078554,0.8050376917,0.946660722,0.3755652952,-352.7698263754,0.9130167123,-0.1109227178,1.3389417455,2.9084110325,-1.1415394628,1.3379196071,4.1027877542,-0.7633675521,1.4730835595,0.2655491904,1.232412425,0.6450170856,0.2096743985,0.9409139007,-0.5617826097,0.4970954659,2.600223258,-0.0407676106,0.8366065649,0.8272302366,0.3793284251,1.4522820631,0.7634939969,0.5393300956,0.0952489279,0.0631483379,0.9705572871,0.9719201314,-2.4496852855,0.1958952624,-0.8312360236,-0.1664165358,0.2847106302,0.9761449024,-0.3696743415,1.0621590035,0.2807835447,0.8254064581,0.6812172547,0.0676391891,0.6095073799,0.8988535765,1.1933433198,0.5451319101,0.9135828914,0.8628969768,0.2488068842,17.7379955379,0.7861515895,0.1862967674,-75.0581047982,0.3966295975,-0.0086339393,0.7927871234,-0.0140280189,2.6212774735,0.551889533,-0.2115674633,0.334318713,0.9622097026,0.7339385207,0.6438768625,-0.3240727643,-0.0384161915,-0.4355274764,0.3767163313,-0.7783788488,-0.4416538919,0.6356749456,0.2070628224,0.5814058659,0.5845383447,1.0834159263,0.3169724463,-0.351553334,0.8665760267,-0.5577307511,-0.5971324486,0.2663214688,-0.7846355611,0.9005901907,-0.5901511246,-0.5247461062,1.061449712,-0.1651878927,0.7650328955,-0.114453004,-0.6420208531,-0.3888591294,-0.6720943563,-0.1690072539,0.5659266429,0.8105649245,0.7448302625,0.9856361347,-0.6172569541,-0.1099268224,0.1104378992,-9.0095414786,1.1930264518,0.8659510296,0.9927898049,0.1911511443,0.5240439322,0.94740523,-0.816819583,0.7378251591,0.3958109636,-0.8675498506,0.9832341854,-50.6811297522,0.4125469911,-0.4147753901,-0.5242205203,-0.695152985,-3624.1139704521,1.0884229809,-3.1299774851,0.8214426541,-0.4576505304,0.918930873,0.7522195119,0.1679068127,0.6473927958,-0.2830526723,-0.6602540989,1.2768377028,-0.6179381052,0.6108605785,-0.6162881384,-0.1975638418,0.0954959413,0.4057500795,-0.7147380774,0.4384504172,0.7429013866,0.7560597815,0.2551052791,0.9594273837,-0.7231612867,0.4365713548,0.1253983481,0.2940096148,-0.3840654247,-0.3245465184,0.3078729572,-0.0699678213,-0.465945576,0.5795850026,0.9204465934,0.0946603402,0.644669663,-0.281416629,0.3201014473,-0.1413461031,1.2451451725,0.7947819371,0.2893585912,-42.5762070403,0.0562852878,-0.2556859362,-0.4510412179,0.694151041,-0.3501663232,1.0354733227,-0.460434549,3.0518533079,0.6739298672,0.4433189336,0.4851288607,-0.3829952596,0.8890486313,-0.8619687436,-0.5265017504,-0.0682240087,0.5535705461,0.1541184202,-0.1362025799,-1.1960082875,0.008068875,-0.761973163,20.4654767853,-0.7428811977,0.8162242975,-0.0320393373,-0.3413302397,-2.1619826968,0.0595857032,-0.5900571922,0.8859213842,-0.8470745343,0.3599082212,-0.794923364,-0.7629651061,-0.6332623518,-1.1593859571,-0.6104545674,0.78829195,-0.5601057874,-0.4308541479,-0.3991428536,0.7431447045,0.5820549035,0.3759177615,0.7871200256,0.50547985,0.4678598509,1.1327115727,-0.1260034766,-0.1888646724,0.7037378683,-0.163858951,-0.2738370426,-0.2080013818,-0.0415558033,0.1563909134,-0.5154969317,-0.0254777344,-0.5371675236,0.2963653036,-0.70561798,-15.0860119516,-0.4424383042,0.5972206675,-0.1755956458,0.2406231168,-0.2776725256,1.0151695033,-0.613968321,-0.0411662799,0.7827952534,0.0788241684,0.2460628373,-0.084121657,-0.492803231,0.8525617774,0.8369847636,1.7968847825,-0.0643314838,0.5088456029,-0.4838751673,1.0536481991,-0.1618702032,-0.3079417363,-1.1999309639,-0.0759362301,-0.5291884381,-0.6903082261,-0.2538688114,-0.2181514881,2.6973445213,-0.6488087175,2.5318544195,0.7010566016,-0.8903157561,-0.2614674118,-0.773985424,-0.215472631,-0.0670988955,-0.6984628412,0.6810195482,-0.6804964839,-0.7972432383,0.135520103,-0.7066644614,-1.2903882666,-1.3757183057,-0.373858602,-0.752108742,0.2632279093,0.0530460091,0.7848015162,1.1775768639,-0.5911489499,0.7150957286,-0.8293624547,-0.8903582736,4.6353640703,0.3750368121,0.8680897919,0.3250966218,-0.6149892536,-0.443633069,-0.1589415191,0.6694933184,-0.0474965577,-0.3994623323,-0.0494378754,-0.8285967511,0.339635357,0.1689105161,-0.6080181373,-1.6517759422,-0.8676224505,0.7646104851,-0.2227951145,0.8445479337,0.2497806344,-0.4216613207,-0.4309906262,0.136324856,-0.6334485952,0.5719125239,-0.2246865114,0.9913026124,0.1182390668,-0.8160192299,0.3544465282,-0.2142159422,0.7341902944,0.7555865785,-0.5274526064,-0.0733625432,0.7893253955,1.5534710183,-0.111467442,-0.087067013,0.2414139282,0.7519707037,-0.7440462157,-3.669346409,-0.226619237,-0.7847675675,0.26099659,0.2217402329,-1.5899810912,-1.0484152781,-0.2017710159,0.5094050046,0.7992135062,0.8961208314,-0.7158681824,1358.6301549372,0.0376899508,-0.7421831999,0.692538713,-0.8276199901,196.5732758073,-0.2043718663,-3.4128366615,-0.202753623,-0.0971947418,3.1665568855,-0.8328135794,-0.9006144292,-0.4422402583,-0.5672445919,-0.5019041476,-0.875924346,-2.8457044794,0.6345410485,0.0738711232,0.5510093419,-0.9986373553,-0.8523954776,-0.8693415559,-0.409783556,0.6532534611,0.9138121288,0.335204437,-0.0664230803,-2.6792968257,0.2249561432,-0.3648021634,0.6676444567,0.8973847142,-0.9261793671,-0.0898199142,-0.6891858496,-0.5352528401,0.5562336743,0.7213205087,-0.205607517,0.0508980076,-0.4355648689,0.1117146135,0.8232944434,-3.6524886944,0.098270531,1.0163376461,0.3927036547,-0.1944402184,0.2943848847,-0.0677326591,-0.9399027946,1.0142097528,0.1321842155,-0.2044214406,-3.6629424109,-0.6415968918,0.0116062582,-0.4877664221,1.1309051835,-0.5077350296,-0.7397749972,-0.1562264791,-0.7591100446,0.0925740879,0.4684765336,-0.074782955,1.2846523842,-0.9014004479,-0.5089200211,-443.924456419,-0.9319769119,0.7934238853,-0.7073376382,0.0794532909,0.7085501268,-0.4894995642,-0.8273606984,0.5242126172,0.7738670613,-0.2971042304,0.1838902957,-0.6580143735,0.9478705664,1.0799148317,0.1209965837,0.818718855,-0.8518951823,-0.4163895769,0.400069729,0.3149701806,0.0894344585,0.8273639258,0.8879147827,-0.4874230519,-0.6817436152,-0.4157703857,0.7549842752,54.2898808444,-0.6813027729,0.3107742184,-0.8860400132,0.0282143659,-1.4501583374,1.030629781,0.5556561535,0.3221655647,0.2545560196,0.6230220256,0.1000738704,0.4318447535,-0.0784922946,-0.5125538147,0.9908864849,-1.7339447316,59.1869661815,-0.5991077124,3.4995127499,-0.9977700246,-0.3871756864,-1.2191636354,0.8115217793,0.2346055736,-1.0785850243,-0.1261647014,0.4958770509,-2.2561667116,-0.4957486011,0.4543259216,-0.1196967443,0.8140483366,0.2291104815,0.2388794166,-0.1128106418,1.2540843935,0.9925409844,0.2013450503,-0.1898990026,16.4528303787,-0.0560338318,-0.8761299399,-5.7113016396,-0.0938333314,-0.535947911,-0.3385125573,-0.1576766126,-0.6084955244,-0.7853666262,-1.3492684709,-0.0104079072,-0.5963207963,0.1958769929,0.2497993184,-0.3823685608,-2.9039104287,-25.4435281576,-0.5343669395,0.2486266502,-30.7563448025,-0.0441895466,-0.9241047453,0.6189533902,0.5949656321,0.0643159633,-0.4934884294,0.3861831025,-3.089412425,0.5291027089,-0.6570510273,0.3347001073,-0.945128645,0.1219033148,-0.2636883265,-0.018655495,0.0487327487,0.329690853,-0.7667038728,-0.5240116089,0.4985394811,0.2760941161,0.2546955232,-0.3396490594,-0.4633994774,0.3181334407,-0.81978501,-0.7165333433,0.5413232186,0.8946808308,-0.4270548739,-0.8593333298,-0.6392815981,0.98629598,0.5391048109,-126.6794296687,0.7804258616,1.6541187284,-0.9719634948,-1.2767706032,0.2106558137,-1.0071766971,0.7989115241,2.2416982691,0.7935346057,-0.4460434031,0.93575882,-0.7300729818,0.6073537765,0.5188884465,0.465817823,-37.7346314339,0.28169643,0.1584027126,-0.6231328098,-0.7906624195,-0.7833865571,-0.5325320154,-0.6297320489,-0.2372815557,-0.5219504764,0.0338660458,0.762508857,-21.4590907005,0.268415637,-0.9499076547,0.821113827,0.3776476996,-1.0511577466,-0.7665106018,4.9025121297,-1.2483589826,-1.0338140207,-0.6944722219,0.0394929972,-0.1384588707,-0.4103417118,0.0826053429,-0.5067166108,-1.2260517139,-1.4918424944,0.3820679371,0.1690503625,0.819362823,-1.0538729191,-0.8532821897,0.5387865598,1.0189563206,0.6125832012,-0.8619314664,1.0808376352,0.2925653188,-0.1831838626,0.0512803275,1.3577058094,-0.880356933,0.9295853002,0.4422315729,-0.323269338,-0.3069095046,0.8513383593,-0.3748908701,-0.064039108,-0.6142686844,0.1581025855,-0.7386473985,0.7665912705,0.3496830958,-0.0771268105,0.7522397529,-0.4799508944,-7.7379067736,0.1578196887,-0.8269107673,-0.4549472136,-0.7740915818,0.9915106593,0.2803577234,0.8753647797,-3.0029971529,-0.4567862737,0.0193367543,-0.3746010053,0.8837345767,0.1402537977,0.3798906363,-0.3796694164,0.3810747375,-0.1525601379,-0.1197342375,-0.9161992929,0.0392204406,-0.1714076472,-0.5689261684,0.6066019005,-0.7274251042,-0.7815116188,-0.0097688106,-0.2682704917,1.2560488695,0.8004410321,0.3771897125,-0.7611528187,-0.4979220303,-0.3129139974,0.7770748593,0.3807234314,0.1694583285,1.3818917749,1.0578942624,-0.1705988679,0.0049520922,-0.2056148562,0.9635546318,0.8750165564,0.2175521614,0.4791646118,1.0015830965,-0.8026300637,-0.1823092574,0.4038450118,-0.5760497282,1.6474994481,1.0632795394,-0.5834927799,-0.2020991329,-0.6010583443,2.9636591192,-0.3484496156,-0.5829124719,-0.1925881538,-0.7226944852,-0.6429704628,0.9942742128,-0.4330643494,-0.0852232208,0.3220390459,-0.4837992873,-0.0105395049,3.0688780712,-0.5068819848,2.15008135,-1.0365089178,0.7092111865,-0.801139871,-0.4062897445,0.64191166,0.634242589,0.715607575,1.3295964086,-1.2784313351,1.5599994803,0.9147355435,0.5643594319,-0.7675276883,-0.3152117471,-0.0512067654,0.3916390368,0.5694479654,-0.8876175787,-0.8448738893,0.2391728763,1.8885209687,-0.8403178459,0.4104289352,0.8691046145,-0.2511376542,0.6746958081,0.1736081146,0.0637366916,-0.3252244642,0.0797069095,-0.1551008401,0.8880538482,0.3449127932,0.1621948263,-0.4553172634,0.9138277972,-5.0064419127,3.2488349806,-0.048770547,1.1176529737,4.3511580053,-0.2406823372,-0.108520284,0.9813515341,-0.5513420365,0.787827784,0.8435594297,1.2571802429,1.1070183054,-0.702150544,0.3167289172,0.5907595957,0.9006257009,0.6750098447,0.4014990001,0.1391591649,0.7217908826,0.5659353907,0.4269616173,-0.2079041997,-0.1997107317,0.8136879362,-0.3118586155,-0.3067650475,0.1953117142,0.1132098533,-0.6279914471,1.1030352122,0.5843799389,0.7579094886,1.2147559344,0.5532510102,-0.5831120167,-0.4322447438,1.0640308642,-4.3208018294,0.0543851521,-0.2341157284,0.5823242149,-0.0765510409,-0.6260819266,0.5288168263,-0.3918928866,0.1924130925,0.4054247026,0.7216848527,-0.3570236422,0.7018129357,0.6781260658,-0.6238667583,1.150810495,-20.4736428966,-0.532715752,0.6712108744,-0.4204632544,0.3048777056,3.3230546205,0.7627589747,0.9217542885,0.7941881621,0.6106384413,-0.2652839604,-0.8922574665,0.1968211343,-0.8773636054,0.762964457,-0.0123675261,0.8177104236,-1.0081232968,0.8103320354,1.9059812838,0.876173207,0.1223795819,3.2991357106,0.1484769086,-0.2914127743,0.9473251121,0.4602563733,-0.8713359354,1.2667812891,-1.076934099,0.5635853547,-0.8344511678,0.0435093812,-0.7108358473,-0.1663310823,0.1693044015,-0.4542856822,0.1286181403,-0.1373269144,-0.2636552999,4.9379908417,4.1369325305,1.0660893992,-0.3032986263,0.0756686666,0.5476085896,-0.4508616056,0.5337005404,-0.235309483,0.5913988583,0.5787202637,-0.5917063688,-0.0157439512,-0.742015181,-0.4927336226,0.5648067976,-1.972075389,0.6813821329,-0.7221850645,0.850142755,-0.9248016247,-0.7575161158,-0.0801312649,92.5511899271,0.2947068957,0.8581373859,0.7711577668,-0.4982552117,-4.0295954425,0.1219151035,0.3423311704,0.0807430386,-0.4049868908,-0.7680531292,0.8227800586,0.7161231487,-0.7333373761,-0.1805351344,-0.4005088431,-0.2487081509,0.3895546686,0.0984681934,0.835473515,1.5912962849,0.2528207283,-0.7133828782,0.7261247391,0.6924019595,0.839429443,-0.8608816824,0.2041296459,-0.9823469119,-0.270295253,0.8697713169,-0.2593240501,-620.6959050922,0.768703967,1.3470302938,0.2297115407,-0.0275344605,0.6412542507,-0.5708344632,-0.6066250948,0.8859031391,0.336693647,-0.8422749073,0.6581324142,-0.5716798569,-0.4686085868,-0.2654037164,-0.8604074939,-14.6169013323,-0.0458666894,-1.0042855015,-0.2613226377,0.4261065772,0.4767331153,-0.816364427,-0.3750649855,0.8953877091,-0.4036747252,0.4763977348,-0.2293675788,-0.8909036232,-0.5459151825,-0.7092336936,-0.0281010433,-0.0571487403,26.736688514,0.6626229769,3.7010148642,0.4483723593,-0.1389404607,0.4030401141,-0.0776789353,0.4108078924,-0.312227147,0.4126080635,-0.6066955081,0.6848024686,-2.0846464163,0.7644709245,-0.2719272521,-0.3423799683,0.93011962,-0.1635091068,-0.0862350841,-0.693393359,-0.6861076717,-0.2043087497,-0.225938848,-6.0012485576,0.1731747095,-0.0780113933,8.1265422325,-1.1813099002,-0.504663459,-0.1579048434,-0.745494062,-1.51423697,-0.4524830374,0.5716006413,-1.3733858628,-1.2289016022,-0.9947069408,-0.4507473343,0.1798111937,7.2943633256,-5.1726649939,-0.059110353,-1.1961698755,-1.8847913053,-0.6999394624,-0.8786714489,0.7394484815,-1.0306162706,0.3566210684,-1.2554313047,-1.5049034495,0.1794340745,-0.5748776102,-0.7873769659,0.5943792684,2.191172308,0.1537977481,-0.3363637837,-0.0716723333,-0.0635208763,-0.6784729017,0.6952448355,0.1285911841,1.3620808711,0.2230508322,-0.6793780875,-0.5961888086,1.0920536969,-0.6077835755,0.1973782318,-0.9936119739,1.0201039736,0.0086107443,-0.8159855024,-0.9082651706,0.0303331916,-0.2624790659,-0.5325800944,6.5262544781,0.6525713972,-0.3960321299,-0.4626848725,0.6183539758,-0.3508536533,-0.6509372573,0.4411495855,-6.416368803,0.8606460364,-0.3367878096,-0.2654000744,-0.9662153851,0.3562966461,-1.2377289369,0.1840805918,1.4887814358,-1.199413362,-1.1892539787,0.6346038811,-0.0414647241,-0.7899100574,-1.4737977902,-0.6452544488,0.6489587273,-0.2876071495,0.0965280066,-0.6700613433,0.3424233099,-0.8779674824,-0.6875222419,-1.2156519983,-0.4793720674,36.240613464,-1.1004046018,-0.9307691351,-0.4466457376,-0.589349643,-0.7202926553,0.0525312291,-1.2310196714,-0.9437601509,-0.7471690708,0.5630168826,-0.798882184,0.7491861988,0.4033328897,-0.6370376002,-0.3938212468,-0.531683165,-0.1083013152,-1.1949121121,0.9098188641,0.7786710177,0.2049504748,1.1582700587,0.171773017,0.5774464023,0.9074639672,-3.2324852317,0.3179350648,0.4784257711,-0.5433227045,-0.0067252978,0.8580317268,0.523336271,-0.6476609832,0.5993686395,-0.1114801752,0.8618988161,0.6286105795,-0.0836093186,-3.0324754628,-0.8113338581,0.6617319661,0.6478419812,479.7444843353,-0.7274203528,0.3917368428,1.0569480153,1.0481041795,0.3219897142,-0.0218394908,0.0269136974,-3.0742240382,-0.583306534,0.0575930969,0.6420718467,0.786794688,0.2821177232,-0.5195757838,0.8103326965,-0.8160918475,1.0695598955,-0.6981042799,-0.3664720866,-1.4671509443,-0.1188590025,0.9455646397,-1.2416594848,-0.2147959361,-0.1736661961,0.9373776428,-0.2848519396,-0.3903369035,-0.4556183371,0.5048888466,0.9479830563,0.2133854804,0.5928265078,0.912940401,1.93790244,0.8277164132,-0.2780565088,0.2816156745,0.5509719969,-0.3567361652,-0.8138868394,-0.1274656236,-0.1062052937,0.9545257631,0.0890019614,0.3008448734,0.6969581162,0.5222535085,0.1582156196,1.1016571247,0.5825634679,-0.0847218866,-0.9864863564,-0.7262855618,1.28572763,1.4442579442,0.6966013417,-0.9594949987,0.9912783004,-0.4823046909,1.6559891846,-0.6126383562,-2.6301713362,-0.2065559967,-0.0802811833,1.1057212598,-0.6492226551,1.2360912467,0.7973818838,0.9382050447,1.1732570876,-0.1393421819,1.1731248946,-0.1521729097,-0.3348867495,-0.42860731,-0.0643132753,-0.3514096163,0.5890428287,1.0710961,0.0953332666,-0.3407020454,0.3795314004,0.2265458836,0.7903748213,0.3445698911,0.6416966777,0.360140934,0.2102268593,-0.6001751007,0.1678610355,-1.2178031572,0.592143507,0.9916458195,-0.7914741474,-0.7527844882,0.7122835969,0.1253521631,0.2940993801,0.7679661879,-1.09781966,-0.2788918448,1.576836413,0.1841802954,-1.0799571803,-0.5759953575,-43.0767906377,0.162279688,0.4499609043,-0.7798616175,302.6612818781,-0.4977016414,0.3579589111,-0.8635722201,-0.4739543342,-0.3875406824,-0.6831829511,0.2385991596,4.3081489204,0.0634040676,0.8521243215,-0.3229522658,0.2266032076,0.3133228937,0.1774039802,-0.1918048373,0.0723367969,-0.2903747625,0.66271928,0.3943735979,-0.4012454904,0.2801776129,-0.7153509261,-0.6079566855,-0.8908818612,-0.8229270656,0.6785200113,3.211458496,-0.2109489236,-0.1236634106,0.4188717355,1.1454230731,0.0648304518,-0.539054873,-0.7639922643,-111.2081449086,0.3145737947,-0.5372998192,0.2287945776,-31.312323764,1.0183592371,0.4056615878,-0.8142535123,-0.8885269572,-0.4651933434,-0.0337601276,0.4072163013,0.3233417466,-0.4739245149,-0.8711521202,0.8318364084,-12.4118654601,0.6048373829,1.186120933,-0.301284518,-0.3464239186,0.6143549412,0.1641186132,-0.7750612695,-0.7233749101,-0.4108744733,0.3657745002,-0.5607234302,-70.1685469364,1.1823932731,-1.0350321108,0.2541812623,0.2284832097,-1.011806246,-0.0059487895,-2.8046244612,-0.1786590333,0.4451044525,5.2707829454,-0.0731666959,-0.2384624846,-0.8246378466,1.1170699557,0.8407964838,1.7821011217,-0.1881972049,0.7542500734,1.0430686946,0.1352558406,0.7094734546,0.3658405134,0.4657633053,-0.5915375485,0.881002902,0.2252637452,-0.3913429091,0.4491904871,0.0879074353,-0.6479291665,-1435.549302421,0.8939656019,-0.5165353306,-0.6213051386,-0.1462138319,-0.5308222214,-0.955103433,-0.1287446769,0.047865635,0.338678206,0.1328592902,0.6045080996,0.964541719,-0.1829891596,-0.666175797,-1.0661166559,0.7324835017,0.1192943768,0.685362578,0.2628180439,0.6370824929,0.2600082274,0.1951973488,-0.0068950032,-0.3664120449,-2.2746677115,-0.6420100572,-0.9381411097,0.7500954074,-1.6460143431,-0.6245264242,0.6191632895,-0.917123892,0.6758415446,0.7430944055,-0.7172247356,-0.7765570636,0.5773835572,-0.0113343362,0.4843322614,0.4993512886,0.3697165912,0.9207749643,-0.5853739323,-0.0349617253,-1.2840360752,0.699721458,0.3130020854,-0.132022277,0.2671458944,0.2944642148,-0.6642564592,0.6346704828,-0.547779876,-0.7455932577,-0.7259164063,-0.7945715005,0.1856871188,0.58660531,0.4711760464,-1.3695896095,-0.4823221711,-0.3888104466,0.7335090307,-0.0104175491,0.1355268085,-0.7423534572,0.3341106012,-1.8022066063,-0.4118872873,-0.8255496691,0.5639703113,-0.6250609686,-2.2748594915,0.8918893707,0.6992879816,0.9167676756,-0.9518110018,-0.0728092581,0.3517487249,0.2148422306,0.7803941694,-0.4021988539,0.5052513485,0.335079286,-0.6501143181,0.6980387713,1.9419778506,0.7075129053,0.5282097134,-0.8195496494,-0.4897227916,-0.0394470476,-0.293590538,-0.5359898925,0.6072486533,-0.3867063761,-0.1265754535,0.7161517794,-0.2480073652,0.7742650673,0.4466927977,0.4441242651,0.291878088,-0.3117420084,-0.7350239548,-0.8392302002,0.9293918806,-0.8117226618,-1.8797381189,-0.0440717119,0.9824141553,0.4991190644,-0.7716970544,-0.556001039,-0.5723976752,-0.3658650317,0.2476433169,0.6594903119,0.2176387922,0.8872087539,0.740016953,0.7963169897,-0.0019616287,0.0806007455,1.4509865968,-0.9313239334,0.1585343818,4.352386095,0.6663599303,0.4797182225,-5.4335151783,-0.0440027224,-0.1658483152,0.8971068176,-0.6637174463,3.2104525081,0.0480974154,-0.9795590884,-0.2499712944,0.1123731596,-0.7111178048,-0.4276614634,-0.8801400888,-0.5590582143,-0.9383476989,0.4908457322,0.3523849805,1.1342535793,-0.3087069797,0.4362324138,0.6563086086,0.2656371447,0.8852103,0.3080674025,0.1987628186,-5.7224371094,-0.2866393733,0.6608127329,0.4321314057,0.6887354932,0.6606059032,0.9509016565,10.8631870666,0.1010439958,-2.0249770799,-0.6842160688,1.0419822103,-0.3679109874,-0.8625252394,-0.3631239613,-1.3234172596,-0.536635258,0.3883641266,-0.9767400388,-0.70565195,-0.0157388118,0.9940825684,-0.1978949453,40.0563821027,0.5717689965,0.2526599575,0.4882693363,-0.2200432542,-0.328848571,0.5847094003,0.2337217691,-0.0469948616,-0.5745015181,-0.1595052752,0.3268398967,3.3090230209,-0.0060181893,0.0442252994,-0.6727144761,-0.487730605,34.5261852788,-0.5861402039,-3.0528759004,-0.3581863154,-0.5141485738,-0.6532857033,-0.2102152993,0.9679089851,-0.8301494516,-0.2656211309,-0.1047786099,0.7160396806,0.6129118671,0.2214920936,0.0366114308,0.1711561379,-0.5215844373,0.9769680883,0.7829535559,-0.7303203103,-0.9091438176,-0.6115496865,0.239180172,0.4114660861,6.1113941798,0.6172890564,-411.7555028036,-0.4627364951,0.1439128491,-0.5427652577,-0.4568406751,-0.3323204417,-0.0720006982,-0.171702816,-0.4716489466,-0.4399892921,0.9575804435,0.0574905184,-1.2453122725,0.2721082787,-0.8101043043,-0.7850975672,0.3147195111,-29.6046933486,0.6595528204,0.7835525586,7.3569824108,-0.2812683993,0.2811480315,0.6137562462,0.4581248566,-3.3543127457,0.7414812845,0.7636239105,-0.5544145571,-3.4938708674,-0.6585661879,-0.8598577696,0.0532248379,-0.6457441839,0.0568997501,-0.3982862855,0.4160461898,0.5939383717,0.1013251414,0.3127917253,-0.1981970087,-0.6784060723,-0.6444837724,0.6850646705,0.2058446287,0.7842342241,0.8577449401,0.6742715598,0.424364099,-0.7704622509,0.7439029059,0.1271741764,-1.2626121049,0.0143879209,0.6199878332,-0.9558388846,0.578052408,0.0893532993,-0.4994465245,-0.101396353,0.2294893589,0.5112716842,-0.310124148,-0.36551133,-0.786763305,0.8975427169,-0.6099935037,0.0901752935,-7.632874623,-0.2442196339,0.8905390792,-0.3513548734,0.6090384272,0.1436696456,0.0667830837,0.6158528987,0.1442521001,-0.87883467,-0.0294481717,0.6589901641,-6.405740585,0.5876118669,-0.3134163703,-0.3172153379,-0.6586060839,30.894055603,-0.4478846036,6.3014281681,-0.2305787118,-1.1188786978,-0.1192732842,0.5079342737,-0.5017265912,-0.1078090179,-0.2835906648,-0.4164809664,1.886370631,-1.711378031,0.9275481412,-0.4946365233,-0.606348457,0.8493061934,0.4447644449,-0.8581065097,1.2247142142,-0.0190878189,0.2414667621,-0.8521871077,15.9713810151,-0.7563417157,-0.3444066468,-10.1757879538,-0.1143008261,0.0386637459,-0.5204179806,-0.4508638016,-0.2166148494,-0.0805422868,-2.0841084195,-0.1573484317,0.7893679784,-0.0374728949,-0.3767952436,-0.9913585791,-0.6422205915,22.6058370367,-0.8762626893,-0.6933892991,-1306.4392574023,-0.8095609353,1.1236165139,-0.3848876395,-0.7794762117,0.952898731,0.1939943771,-0.4005315988,-4.3704194917,-0.1760939402,0.4728082459,0.9075106559,0.3917021486,0.4419898006,-0.9741060519,-0.2802366267,-0.0976420516,-0.7039147451,0.4158767869,-0.3858866251,0.3434455399,0.811970239,-0.6244188322,-0.6644885482,-0.0663294291,0.0204331848,-0.198203785,-0.4938121245,-20.3244270596,-0.3680564548,-0.0443901135,0.990971772,-0.5116281631,-0.8597718852,0.6031720167,9.8106641466,-0.0784629974,0.2273683897,-0.0875731008,390.8037770479,-0.8887767139,-0.0075500588,-0.1790416278,1.3413536027,-0.1582457019,-5.9202527599,-0.5077892115,0.5687092252,-0.2454937842,-0.2756391662,0.7235313248,0.4743577516,-0.4094032306,-0.3430721714,-0.2798823543,0.0646131416,-0.9059741518,-0.9618312841,-0.932917132,0.3311610667,-0.6852247454,-0.6781604201,0.6882446683,-52.8180925195,-0.7427343809,-0.3915472237,-0.9496228178,0.9476286499,-1.8635180073,0.6783223258,3.0202458648,0.1624746093,0.2631474238,-250.8454293254,-0.1001451096,-0.3927539318,-0.3110446973,0.9889719924,-0.4241572228,1.9902194292,-0.4320879224,0.5562214989,0.7548003671,0.3229941504,0.3320941087,-0.4622259924,0.7707847278,0.9836931369,-0.2221385023,0.8484626859,0.0285414448,-0.3976210447,-1.0323129067,-0.2915905771,-0.6289098712,0.5248765023,-0.7321654729,0.5437013058,-0.0320633785,-0.1618967086,-0.549289318,0.6508009905,1.0377227734,0.4549295311,0.6238046194,0.1621586076,-0.2328421442,-1.4622026374,48.5558332628,-0.6700547252,-0.7697414241,-2.6484923889,0.5451872864,0.3409762397,-0.1361694016,-0.2603708171,-0.1519097696,0.660897217,0.9007928897,0.9911786069,0.047569348,0.4874075683,-0.0870257407,-0.7139037507,0.5909797147,0.8451071195,-0.5436848791,-0.2861850389,0.3566564212,-0.9646169822,-0.8002409366,0.0559966671,-0.0655815238,-0.1732664002,1.3183989191,-0.6165400652,-0.1423157519,0.4323764832,0.826181022,-0.9027261227,-0.1587344362,0.0912094707,0.842180605,1.3489972768,1.1077417284,-0.4123989057,0.7699809971,-0.7298720147,-0.4074382299,-0.0548093664,-0.1564042768,-0.8667278373,0.9342918186,0.5370980057,-0.2253299106,0.649003947,-0.1830511652,0.3760695034,-0.4903372902,-0.2402853096,0.420482758,-0.6800302996,-3.8362060422,0.5856421927,0.3996169772,0.6362380402,-0.4108985159,1.7967086304,-0.6364523296,-0.2709505061,-0.0322728923,0.5795359208,-0.2092657744,1.2985944019,-42.9904563791,-0.5411220619,-0.3737943761,0.5128191707,0.6936912139,-1.4091111578,0.1551792185,-0.682084376,-0.1466564608,-0.3859012137,0.4428735108,-0.8280791515,0.7633632379,-0.9316356641,0.5972622529,1.0414436355,1.1901548064,0.8095341751,0.4259872536,-0.4886039363,0.1757070516,0.1383693702,-0.072842679,-0.6203690812,-1.3127782028,0.3957284705,0.8781639486,-0.0590219594,-0.3036084621,1.7490661263,0.3379788593,0.0627455273,0.2827635499,-0.4946750584,0.6830086958,0.7368854097,-1.465267473,-0.0234661971,0.146342342,-0.8937264744,-0.6850704118,-0.5899636175,-0.3585616541,0.1301208953,-0.2240974328,-60.9920589544,-0.5198049282,0.2167581318,-3.2227443788,0.4453126434,-0.4349449525,0.5955169178,-1.2200175858,-1.0976103403,-1.4598854962,-0.1793903617,-4.2009077813,0.1831100551,-0.6915897999,0.1083167163,1.5389484536,0.6506696621,-0.6269656455,0.395439247,0.381782728,-0.7773062239,-0.2594309138,0.2392756647,0.8055045036,-0.9119862101,-0.4331148646,0.1544394477
   0.866766535,0.3281883801,-0.5589953873,-0.8829318093,0.7231250222,-1.1289069521,-1.2513603677,0.0450200956,0.5925130653,0.1679963416,-0.8873287577,4.9035515198,0.4722594415,-0.3177158357,-1.287714445,-0.6730668766,-0.1240359699,-0.0277867525,-0.48842606,-0.6767342691,-0.2602674995,-0.8764519357,0.3551745153,-1.397244423,0.8878135867,0.1269885085,-0.3467800668,0.1627710133,0.3977159574,-0.9682851878,0.4007349002,-0.178436683,-1.6855163763,0.2632970781,-0.807029196,-1.3556070178,-0.4517579438,-0.302980474,-2.1487287162,-2.2860177489,-0.5468744848,-1.1904172263,-1.375825069,-0.3264778065,-0.8720552698,-1.5051931609,5.9747124801,0.5014488213,-0.7038546285,-1.219602421,-0.2414971871,-0.4505492537,0.8633406043,0.511706433,0.2653466577,-1.5393039915,-1.2291335415,0.6230930116,-0.2659684621,-0.9115150019,-0.6660014607,-1.1516309566,-0.9365873476,-0.3939873094,0.5727013618,0.3737568731,0.4461888333,-1.2568858291,-2.9510028136,0.5200608026,0.3750102483,-0.5036854,0.1333683362,-0.5865351155,-0.2376032068,0.2701024636,-0.8564080288,0.6913249708,-0.4660769037,-0.6344760243,0.3419074897,0.5325368967,0.2648620379,-3.4500209972,-13.1933974318,-1.2355031913,0.4750165627,1.9948895938,-0.9224081709,0.4830074936,-17.9159581729,-0.5121186429,-0.0026271208,-0.6980353109,-0.493827304,-4.2734367164,0.1538403515,0.068051407,0.8891420625,0.7493069227,-0.7583851198,-0.6610217894,-0.7952156879,-0.5895210363,-0.5014672049,-0.2600313925,0.3068072504,0.6293989477,0.1443942306,-0.7571642509,-1.8748852534,0.4823396563,-0.0291836658,0.1482473319,-0.5555828501,1.3015725761,0.4412932468,0.2797080084,0.8658620286,-0.7531695227,-0.771484837,0.9003333002,-5.1629360955,-0.8509908253,0.6623919676,-0.4940781405,-15.8449065263,-0.8429615814,-0.2649812536,-0.8942577782,-0.7691005981,0.0352277723,0.5954041576,-1.2398037042,-0.5592876429,-0.7728964052,-1.2821573175,0.7488223425,8.0430255238,0.1097510962,0.1461805329,0.8534590862,0.8829475353,2.2419546368,0.071068157,-0.8802684899,-0.960939412,0.419059065,-0.0681846452,-0.1396898834,-16.1597365326,-0.5299993453,-1.0544782132,-0.1367721687,-1.3609402739,158.272468989,-0.2875668496,7.7300556993,0.1561124947,-0.4325484071,0.7127102813,-0.046385544,-0.0726816557,-0.1909592011,-0.3445154193,0.4490937577,-1.3398947481,0.4810900794,0.0487260963,0.3790561871,-0.1706747753,-0.4381447677,-0.4927777049,0.55008045,0.1347483701,-0.0002565444,-0.2635690213,-0.2513267153,-33.4400999184,0.9913781848,0.5741173873,-0.2942004398,1.0127771141,0.8604611045,-0.9006651239,0.8636137451,0.4380485549,-0.5894713708,0.7657217296,0.3599356521,0.7144846245,-0.0715081138,-0.8598275092,0.7485354031,-0.3781155665,1.9408253001,0.5969570288,0.7545140792,134.9971376295,-0.3906485483,-0.5409158029,-0.0455742271,0.9699424644,-0.0753384434,-0.8887127953,-0.5284315221,4.4761040906,0.9650986474,0.872448986,-0.5202079096,0.9996416413,-0.1677418319,-0.0770898103,0.7909284252,0.0001945491,-0.2850328346,-0.1427903209,0.3657212366,0.2201625005,-0.9160625097,-0.2695121724,1.198290636,0.6201453331,0.1009396831,0.4870243722,1.0252164051,1.5879071443,0.9567947098,0.7070373131,-0.6707327932,0.4783774746,0.3437432067,-0.1296580617,-12.682857217,-0.581027381,0.2738047856,0.7803994257,-6.8399232282,-0.0478170463,-0.031645917,-0.5893839411,-6.4960671566,-0.8995338138,0.2605114224,0.8001467872,-0.8411230787,-0.4811412298,-0.0513480265,-0.6906445035,-0.0217398366,0.756884706,-1.4230085951,0.8031266154,-0.3054849786,0.8789242544,-0.4250381802,-0.6067732515,0.6043096285,-0.425974469,-0.1483603391,-0.5715896839,429.4252237035,-0.2706606273,0.6325861427,-0.372646656,-0.800922915,-2.4392019539,-0.0561086318,-3.0289290745,-0.7376288024,0.7328507869,6.2405172347,-0.6291007488,-0.0034431476,0.6434640096,-0.4624301481,0.2748893807,2.1490281237,-0.6911721335,-0.8222444252,0.08261756,-0.7073898175,0.114754908,-0.4137809117,0.3229138916,0.9246060884,0.7533154719,-0.3307935965,-0.9237814321,-0.4329222714,2.1692638,0.417198316,0.8736463341,-0.4198728587,0.8829851104,-0.8305988292,0.5990516504,0.3904080582,0.1215843126,-0.0547376862,-0.1576294699,-0.2546452383,-0.1880815407,-0.9353451095,0.9153073392,-0.8446415902,1.1407646776,0.3468439499,0.0419058772,23.9559809935,-0.629662236,0.2147356129,215.822263636,0.4037936803,0.6309422393,0.4965796159,0.8338146153,-0.8164143359,-0.5615530915,-0.2543584223,-0.4677206024,-0.3350626461,0.4669365191,-0.5268395345,-0.4721346634,-0.5988722144,0.7068172515,0.404810054,0.4144876485,0.682859335,-0.3098554868,0.6513646662,7.6832077537,-0.2017961743,-0.2787723128,-0.6559467882,0.2786084321,-0.5035388291,0.3325678182,0.6975752154,-0.8350006574,0.5250890203,-0.851033771,0.6482426784,-0.4333155861,-0.9188437849,-2.1905743137,0.8210787996,-0.0514800685,0.3544580561,-0.4954520582,0.8450340871,-0.4039172676,-0.0829120423,0.5207886517,-0.4871943376,-0.9285526897,-0.6315625839,0.9769133805,0.288739057,8.4522778578,0.8864373022,0.4428071884,-0.4043352648,0.0852027028,-2.8195678798,-0.5043876094,-0.6015802499,0.1900510515,-0.3283030784,-0.3744694519,0.166633918,1342.3644396687,0.639732438,1.0255975621,0.6751689504,0.5964277044,3623.7193348495,0.5957358143,-2.3243442672,0.5823867087,-0.0048365325,-0.990299054,-1.064228412,-0.8269041207,-0.844532242,-0.4089065257,0.9457045461,-2.1959876686,-1.5310857958,0.5931597248,-0.3725401244,-0.1919090203,-0.6444318085,0.1220236389,-0.8010914238,0.3145060964,-0.7255617668,0.7267713573,0.1438986096,0.6563646863,1.2895303566,-0.727215872,-17.8785065316,-0.1549212418,-0.0156401112,0.7562563996,0.6377860893,-0.5892811532,0.3159911778,-0.4804748647,0.06888062,-1.2433715247,-0.6156466657,-0.9658471104,0.0204613577,-0.7990190229,-0.2443932019,-0.8301461246,0.5265255802,-0.4032775888,0.1513706907,0.1008791032,0.905726141,0.6559337059,-0.1090359581,-0.0143518794,0.6830766339,-4.8583929948,0.9512677695,-0.3561795634,-0.4996710566,-1.4353426753,-0.0856483034,-0.2645277536,0.5870198987,0.7967416271,0.4648664014,-0.4938294224,0.4059396383,-0.3906010647,-1.0635287948,0.2243724685,-0.7546941323,0.7662503712,-0.2154141233,-0.4358473259,0.2905888585,-3.0291783435,-0.4596908314,0.573108986,0.6692361774,-0.4031296402,0.5755321284,0.2536495809,-0.5492968921,-0.9208596283,-1.7557958738,-0.8257167609,10.1941682953,-0.9651057636,-0.349529335,-0.0273174164,-1.0875463368,-0.2322007805,-0.6398452811,-0.0015234598,0.1475144156,0.0568361753,0.2309591534,-0.5949768488,37.4645080341,-0.7162384756,-1.2352096529,-0.299653975,0.5733022624,1.8725123017,0.1989365319,0.4186454543,-0.9008946707,-0.9430918062,0.5460409943,0.6856230339,8.4814437891,0.0961007136,0.1808129787,-0.8003520873,-1.0059107407,1.0283756982,0.0488423002,6.6789892387,10.7739005512,-1.0305723132,-1.1875220391,0.3795734129,-0.5201988665,-0.5342153269,-0.4452596658,0.6308999193,-0.9875986506,0.1041433044,-0.7466521765,0.7872205832,-0.8949413616,0.3532643989,0.4459327624,0.2407053594,-5.5618149136,0.5478806149,0.2736937875,-0.4246427356,-0.8387403444,-3.0730854789,0.4936790625,-2.3417248205,-1.1176109998,-0.6468346292,-0.9963406632,0.7203281297,-0.7878645993,-0.4323466461,-0.5574635104,0.3337589083,-1.2513317467,0.634159983,-0.4028737754,-1.0502216609,-0.2473546424,-144.7233487158,0.1769246501,-0.2128532248,0.917049908,-0.8098746935,0.4933399113,-76.0561044087,-0.7402126897,0.021760091,-0.166215339,0.006925847,-2.0806428776,0.8585959812,0.1333358781,-0.1023365255,-1.3560925219,0.3106394472,-0.8022699085,-0.5841266598,0.731047063,-0.5175465704,-0.3735690906,-0.5759621158,-0.3438250631,0.8757382121,-0.4810568697,0.4392808254,-0.9133996901,0.7260856751,0.8279092032,-0.0196886015,0.377334559,-0.6736452585,0.1421662065,-0.8777636364,0.0772219378,0.5657370813,0.7742422262,205.2816675738,0.2857658128,-0.9877293969,0.2901024287,-0.0397323379,0.2952379441,-0.5943491985,-0.3670662794,-15.5602590472,0.3529494765,-0.1278545125,-0.5656203818,0.1819031775,-0.9056876823,-0.3868970474,0.5166935334,18.2875832283,0.0603643793,-1.6344603312,0.3767566315,0.3547256278,2.6788054702,-0.4991890299,-0.746314546,-1.0098283651,0.1876366024,0.9980170905,0.1680604263,1.9396950591,0.0838142862,0.8546426419,0.2742685716,-0.0631479001,-36.5771627515,0.5007159496,2.2282243895,1.0515263897,-0.9656943129,-0.3908463175,-0.0632603395,0.3835569685,0.0690804001,0.0277289315,-0.7344797533,-1.6642872547,2.7177043175,0.5823285093,-0.0964092301,-0.0772467342,-0.1369119444,-0.5162813575,-0.549209429,-0.2226974152,0.9887797832,-0.7772973318,-0.1968610054,-6.1255761329,-0.49074096,0.7351257293,-0.1081352814,0.2151524139,1.1905559392,-0.1488167481,-0.7813771618,0.505195733,0.0346987248,3.5192936114,-0.6622034379,0.4980596858,0.9089444363,-0.3975683843,0.967701308,1.4634806924,0.6919519742,-0.1910324807,-0.3276485873,-9.1509284009,0.1146186172,-0.0057560498,-0.6332862654,0.6789671522,0.9208128094,0.2198402537,-0.4759096763,4.2098382903,-0.7699480521,-0.5903279606,0.9882709468,-0.364193737,-0.9404032975,0.3071947234,0.1837339869,0.6371624766,1.1246962844,-0.0858424497,-0.6092762899,0.2120415117,-0.0563809731,0.2313751435,1.1026931823,0.2073142857,-0.1964110239,0.2835316869,0.397831458,2.1197061634,-0.7951428427,0.2588202312,0.464305734,0.2833252758,-0.2041959341,-0.6996554595,1156.1339580707,-0.4997146896,1.3795106503,-0.5321980335,0.4016331993,-0.2179859109,0.66275733,0.9204166611,-0.8772197179,-0.8716389927,-0.0774301705,-0.2828549473,0.8125831566,0.4641481608,-0.5997520557,-0.1265314696,17.689459423,-0.1316682385,0.1014315543,-0.2643910811,-0.2546090246,3.1317222365,-0.7320575409,0.6016328147,0.8086205125,1.179889286,0.7018345532,0.6488225315,1.2445345356,0.9123396407,0.5122551055,0.0669291452,0.4362431089,-7.8887209108,-0.1634097379,-2.6204472106,1.3065633899,1.1779337222,0.102192484,-0.2698847369,-0.528507149,-0.3896647252,-0.1238012785,-0.6646226371,2.6626755021,5.1307835023,-0.0329621839,-0.8590137464,0.6425964324,0.7388234616,0.4994925869,1.0467070068,-0.4888257778,0.1650245055,0.0570998336,-0.648438026,10.3242228762,-0.042777842,-0.2665129812,1.2699315152,-0.2669340274,0.4611205308,0.2128395816,-0.2356634118,-0.7981326299,-0.4130844107,0.3703820441,0.9556122842,-0.4310540015,-0.0297152088,0.0745124581,-0.0767048445,-3.0923132628,-13.3188024405,0.0764052652,0.5122901033,-14.3952886974,0.6942599471,-0.57033346,-0.086359674,0.9774588478,-0.7813328801,0.5250366429,0.5622561312,1.5102890819,0.2852301138,0.8960122525,-0.3095151527,-0.0456351189,-0.1882210556,-0.3588552165,-0.7130583601,-0.4935824757,1.1532540938,-0.699931518,-0.5726039128,-0.3960992384,-0.81212755,-0.8312253644,-0.9479320935,0.5654661911,-0.5749619479,-0.8992594983,-0.64502136,0.7088474581,0.649750553,-0.1465645712,-0.3234341514,1.6233018187,0.8606783919,0.9116382245,7.9353602867,-0.5193571734,-1.12224281,0.6652990467,-1.0694594034,0.6372951063,-0.5405661396,-0.6873227821,66.6418086851,-0.3303215203,0.4029501608,0.320361343,0.5348350151,0.1006124993,-0.7632169712,-0.7675688433,-15.9779547014,0.0388046586,-0.1780404045,-0.7072532604,-0.7768717118,1.2572368381,0.9270680733,0.5034322541,-0.1060239965,-0.48028014,0.6531893764,0.6474027627,-1.5116472616,-0.8215260542,-0.5941674986,0.7519532577,-0.3200131398,-2.8886774218,0.003077379,1.0982459494,-0.6192786346,1.113624668,0.6474236977,0.3704287721,0.9088873463,0.1171735021,-0.1627094518,1.022017583,-0.8889754307,0.4041821506,-0.0570272259,-0.5959652232,-0.6914975334,-0.5399573859,0.2710025205,-0.1403217538,0.0978203533,0.1979868241,-0.5667982332,-1.0805525231,-38.901490537,-0.5911582753,0.5575076153,2.7225638986,-0.1350151898,-0.4987751579,-0.8218098124,0.4945481017,-0.8402892201,0.3440707928,-0.2842946675,0.055233818,-0.6283995721,-0.269130889,0.2775424743,0.8271539808,0.1397049287,-0.4867506312,0.7660130682,0.4321934611,-25.1957364057,0.7411684737,-0.9743425818,-10.2981386108,0.0778446156,0.227187446,0.1479369723,-0.7823872239,3.8243054798,-0.9077711999,0.8976703981,0.9735031668,0.8274903848,0.1085721967,0.4776423245,-0.2783318783,-0.422647963,-0.4781082326,0.675944845,0.2783174781,-1.0213182262,0.4703382596,-0.4266879379,-1.4075676235,0.7003110419,0.1329892376,-0.4279303092,-0.2909651782,1.1003365619,0.2725565458,-0.9870534033,-0.8851904999,0.3881185288,0.8943536473,-0.184496638,531.8135153124,0.5304698187,-0.4450599435,0.9056159639,-0.6686699047,0.1265038639,-0.1606920879,-0.76265869,0.306208796,0.468566153,-0.4696701313,-0.8776117917,-0.8539706181,0.1076804842,-0.7859992906,-0.3646458049,23.0880123729,0.6422154324,1.0405821413,0.7285462766,-0.6408014457,2.0930270308,-0.1471743719,-0.4823665654,-1.0097478277,-0.8936532773,-0.4199801319,0.0376189929,4.2640819199,-0.9012336079,-0.2742024098,-0.0874305779,0.2979201029,-794.0356000245,-0.4843272825,-2.217554303,-0.6928983479,0.084981784,0.900133521,-0.1069515001,-0.5304384071,-0.7052544066,0.6723047046,-0.019845506,-0.3315667642,1.0626515018,-0.3637370082,-0.8951572598,-0.7066944855,-0.1797072741,-0.2303597132,-0.2981407686,0.5166019255,-0.3896551334,-0.3436753514,-0.9009218464,-1.041465272,-1.3443193589,-0.6742708316,-0.4732607344,0.6985773581,0.9768936441,-0.8908992316,0.8377674128,-0.7095419815,1.0028808585,0.5220147508,-0.3354568569,-0.870853868,-0.3940586668,0.8590573298,0.3267937563,5.037065504,-1.038768851,-0.5514915565,0.1074116065,-147.6649936032,0.285103877,-0.8144339775,-2.3286767776,-0.4681465183,0.2493030819,0.4028636644,0.287592316,2.8776948575,-0.9035004572,0.1775514921,-0.3699516819,0.9624944199,-0.1095530694,-0.573037749,0.3526893426,-0.6357602112,0.6434670865,0.3511326766,0.5890410233,0.6168814625,0.1767900054,-0.1609304981,-1.6758083472,-0.8406212593,-0.2751898946,-0.3175919882,0.9579800716,0.8035270798,0.6913689097,-0.8116185944,-0.3224398221,-0.0968137629,-0.0923584207,-0.7818111196,261.3270874922,-0.4203598689,-0.1828063754,-0.7889622605,-1.5718195585,0.0512651769,0.6748858999,-0.1657946029,-0.4921999642,-0.5532553185,-0.8668157997,0.9824519048,-0.1109103892,-0.0925868596,0.5731469105,0.1281960317,-2.6388264587,-0.2138485756,0.1774784729,-0.9376841513,-0.3794701295,-1.0966446255,-0.4484949312,0.1726707598,0.1916734389,0.6402577941,0.5509573163,0.8079643874,-430.4927857837,0.4190808429,0.110697952,0.9454635499,0.442390314,-2810.1438768565,0.9060623639,-5.5147950884,-0.4230073902,0.3032828246,0.2205020827,0.3657388535,-0.595697029,-0.965340928,-0.444730669,0.4095720266,-2.0739390164,1.9362593194,-0.7641553533,-0.5245334746,-0.8161934061,0.5813255488,-0.41448936,-0.172847641,0.1328893475,0.9370530704,0.7349595315,-0.3375876075,29.9124559169,-0.3885753918,0.7113291017,-29.7301414551,-0.6479652567,0.8991747007,0.162426205,0.3339851365,0.4976291418,0.6730603213,-1.1210016476,-0.0246082687,0.0441728698,0.8994093751,-0.4738748954,0.1777673334,-1.5673459049,-0.7602861597,-0.2390641216,0.5942974874,3.0274944567,0.8620345361,0.9640103394,0.8677199106,0.0467516414,0.506538555,0.8678296478,-0.201146135,-4.4555155902,-0.5770020287,0.7404825832,0.8565748482,-1.2393292061,0.2079224601,0.5667686917,0.1794066491,-0.7988317757,-0.8202253448,-0.5043389311,0.5143106196,1.0012571114,0.0551256852,0.5190063052,-1.0946724359,-0.1035849889,-0.2129453722,0.718490241,0.831968068,-0.3203752197,-0.2579908803,-0.5605661756,-0.4507041422,-0.4073572074,-0.1299378378,0.6976407739,-13.198062406,0.4649570416,-1.2947788773,-0.5735920729,-0.0377284688,0.1041258737,0.0670079969,-0.4633170194,-0.9695928929,-0.3132261379,-0.5795729961,-0.0381608813,-0.544158909,-0.4316877338,-0.1935630202,0.6058815578,-22.5385470431,-0.9264247718,0.3976540225,0.6112130161,-0.7681937614,-1.3121835369,-0.3780651767,0.6027071558,0.3831082171,-0.4484895084,0.8088261252,-0.6780650617,-2.0836227393,0.758862852,0.1680120005,-0.2411158735,-0.9444164442,0.6903885068,0.74150146,5.7940678911,0.6461039346,-0.9637932093,-0.788755311,-0.4830909048,0.3772523719,0.5125043872,-0.5355679735,-0.9751202847,-1.9700164329,-0.9320157177,-0.1856319863,0.3727580325,0.8469002258,-0.4309161073,-0.6669879915,0.2684859283,-0.4922071747,0.9890133869,0.4116707041,-0.220998034,-32.5837374802,0.7370434447,0.4847474063,120.8989549445,-0.9924170678,-0.4005763533,0.7109163682,-0.4519127875,-0.61667494,-0.5711867859,0.7946949086,0.6174598124,-0.801203682,-0.101212937,-0.3028664954,-0.6095809381,-0.9101636713,-0.0346862139,0.3612379056,-0.4723307239,-11.231115114,0.2008747347,0.3536442985,-0.242852232,0.2372769835,-0.1193244598,-0.3896684631,0.8680590453,3.3611042519,-0.7550526083,-0.0615109809,0.7260891803,-0.5382693134,0.0536452956,-0.6459019788,0.2009709831,-0.4415813747,0.6513830628,0.6700098476,-0.7594477999,-0.4839989159,0.3179504528,-0.1660098178,-0.0890968585,0.2395926018,-1.0037983605,0.0658588303,-1.0359431884,0.2204583588,0.042032755,-1.0202271381,-0.4749288342,-0.4329049708,0.3414991543,-0.2818861829,-0.6912571474,0.6165503063,1.0170927612,0.5371429149,2.8868823284,-0.9540744377,-0.1115868912,-0.7636828548,-0.8366338747,-0.1641950929,-0.5038014079,0.9131397162,0.2238010727,0.1139875637,-0.616180044,0.386222806,-0.321011108,0.0579849397,-0.3570781524,0.4846963163,0.7012214889,-1.9267365325,-0.1516384642,-0.1015523286,0.6148069506,0.8217365263,-1.660480702,-0.9267082777,65.7717403736,-0.2851846392,-0.9839828858,0.1472790198,0.2072869215,-57.7213476506,-0.5924684734,-4.2017548227,0.2645239794,-0.8552420388,1.1848736361,0.7454229406,0.5876592018,0.7871561708,0.2685842408,-0.6642497747,-1.1459343081,0.2303875074,-0.8652573507,0.0939030801,0.7461703888,0.4455494472,-0.108881428,0.7178493308,-0.3641197836,-0.9897970688,0.2654034082,-0.579500329,0.3254514235,7.4668340312,-0.5586916583,-8.5167207862,-0.6525053524,0.297311837,0.2784764223,0.2569362518,-0.0735937739,-0.6304731856,1.0464621514,0.8919932074,-0.3443088873,-0.9714053264,1.0751645524,0.9609897101,1.4065446421,-1.05382743,0.37154727,-0.6842699166,-28.4858420071,0.8150803758,-0.1538440064,458.4317473299,0.0159869315,-0.8340914365,-0.1131302718,0.0175850114,-1.7865157522,-0.29276513,1.0552891943,-0.2646508185,0.2643420818,0.3829786616,0.6491408169,-0.1383107254,-0.9949345179,0.1889479497,-0.8721812516,0.3033745323,0.5882638549,0.7206798293,-0.5317938642,-0.0468077112,-0.4612178536,-0.3231742858,0.8656176356,0.9126123666,1.0172817461,-0.2911283682,-0.238708051,-0.870327535,0.3539400995,-0.1861809085,-0.3455468259,2.8824177076,0.6462572965,-3.5146124863,-0.147631093,0.1345381397,-0.6442813192,-0.12496953,0.4411232017,1.0353480186,-0.6566950472,0.746635305,-0.5441826864,0.3783505706,0.5512330055,0.5204182717,-0.3258690314,70.2092563123,0.1542837848,-0.3667151663,-0.5655051645,-0.1114101703,-1.143947847,1.0624148199,-0.1595984554,1.0878063576,0.7117505324,-1.0321627369,-0.6864959287,59.2508332252,-0.5647087822,-0.2616897627,0.269976563,0.1286863833,4204.3037649039,-0.0689798547,0.7769126787,0.1090924999,0.5380199915,-0.1476226405,0.6481170155,-0.486986614,-0.4667493454,-0.9312587976,0.8636177105,-0.6087784718,-0.8587148332,-0.9202960739,-0.6562296905,0.841980739,0.7838211211,0.0296252892,1.0858809033,-0.941757889,-0.9733797172,-0.1840242097,0.8150543399,-19.655994394,-1.2613364355,-0.6310020044,-0.3442689285,-0.5016167061,1.1611743856,0.1079468835,-0.7992489533,0.8948903507,-0.2316991081,-1.4330048002,0.8671802884,0.2792412756,-0.2956737724,1.107589157,0.0104295855,0.3069418462,1.2010735051,-0.0759195554,0.8995600704,-6.129176956,-0.1705178515,0.8898595228,-10.862553459,0.7553999541,0.6591499667,-0.6488757375,0.2474514069,3.7061090969,0.3753596616,-0.1331227337,0.8828794415,-0.3089618822,-0.2361745076,-0.9110162314,-1.0017705544,0.9962720191,0.3843458304,0.8222491573,0.1972328644,0.2040892565,0.3806680668,0.3585646271,-0.6082051538,0.4883849718,1.2184325622,0.1060265149,0.4204015131,3.2679175597,0.8221316948,-0.652658883,0.4952826051,-0.4294053325,0.6135771709,1.1758584192,789.4843839382,0.5625476427,0.776690349,0.5553445438,-0.53412197,0.4549879671,1.0533655302,-0.4274147982,0.5591640237,-0.82566592,-0.1637105288,0.8163618572,0.7837481868,0.7637200038,0.1528096527,1.0446462321,18.2628093725,0.2354904534,0.0896505683,0.6045497933,0.9724492599,1.4358265071,0.871241463,-0.4601108588,0.1892701916,1.0955943198,0.2572559183,-0.6087668485,1.0487902698,-0.9076017439,0.4762130877,0.0460817158,-0.0406817369,-94.6984916515,-0.1548054562,-2.9864884852,1.0342739454,0.9507710387,1.345987879,0.9464979468,0.4417728068,-0.2954799519,-0.8819671329,-0.1745833712,1.5817665978,5.4292177381,0.9869844094,-0.4101634284,0.4714725142,-0.2079498162,0.0360574622,0.66826045,-0.4152100413,-0.9671606505,-0.4447894643,-0.1468563097,0.4584783814,3.0140356119,0.2811031829,2145.7195457369,1.27868365,0.3181401923,0.562972524,0.6611904258,0.2728642916,0.0303761281,-0.2333373194,-0.0360767784,0.9078425877,0.0025631995,-0.0223801069,0.4292997174,-11.6221650743,0.341551253,-0.3438444307,0.2415972148,0.2973171852,-0.5658399324,-0.6467439664,16.7185395405,0.6357218535,-0.7405103949,-0.7886842425,-0.5956506111,3.5272437441,-0.2161780462,-0.2097775759,-0.6616416637,0.4554827037,-0.3037077418,0.9785089651,0.5741348405,0.3351778972,0.156986581,-0.1356587248,0.584444165,0.4389426196,-0.0837287966,-0.2377638906,0.5990871653,-0.0917534718,-0.2244752002,0.6535177332,0.6542834952,0.8348962309,-0.4766057208,-0.822409061,-0.943646349,-0.6367133795,0.4496245264,0.4135252847,-11.8784741563,0.9559174903,0.6754998372,0.7181313704,-0.3567237828,-0.4753948829,0.5948085203,-0.4195322543,-0.8901453802,-0.0730389594,7.8376520324,-0.7005236811,0.5457242762,0.4078059482,-0.659597586,-0.2581806601,119.3227382758,0.0444869476,1.4685265897,0.806452548,0.6081277178,-2.0650979791,0.1108984382,-0.4316563585,1.0285818388,-0.1854978265,0.2914888435,0.3368720754,189.811795656,0.8938997276,0.1592317934,-0.725528722,0.6659462097,93.1321635825,0.2103880107,-1.8773848437,0.6838684077,-0.2607433996,-0.2614052079,0.8950991393,0.1143647966,1.281092898,-0.3372021799,-0.4357071075,1.8295249469,-1.2082318253,-0.9341874169,0.5245923975,-0.6210644386,0.6354621839,0.8065570533,-0.5872147789,0.9878381229,0.2954255144,0.8136743381,0.4563122066,0.4422526959,-2.8267755424,0.9393572288,-2.2206709029,-0.4121101152,-0.4262930578,-0.026784536,0.8247557412,0.533942419,0.6903874819,-0.4180244541,-0.7923412776,0.7246141619,-0.5112298501,0.7484472349,1.0247092892,-0.6360350062,-0.7266417793,0.3492033755,0.5952164522,50.7207326939,0.912946392,0.6951018429,-57.40116232,-0.413808024,0.1276889907,1.1038342039,-0.7037889238,2.197103258,0.7310004224,0.1735052075,-0.1314922614,-0.1163532072,-0.2624177352,0.971122995,-1.0471744271,0.1896590782,-0.7779937539,0.8480306248,-0.6416115834,-0.1950220497,-0.5831649737,0.470915227,-0.0303020927,0.1846599339,-0.1701701519,-0.6409859786,1.0925071455,-2.1155830558,-0.6854762748,-0.1278598868,0.1881427258,-0.3992748326,0.0309113344,1.0390886611,0.9929608155,-0.2617613397,0.3371937655,0.1516653884,-0.1901182687,0.604006307,0.1841108975,1.0542601601,0.5508231484,0.8919226573,-1.0959369382,0.4774274751,1.1642841955,-0.8137865997,0.7884612532,0.0113526776,-1.3469366707,0.1453565486,0.993497513,-0.7541016917,0.3018298318,1.0711880561,-0.1918325055,-0.8488438101,-0.348270636,-0.1882279266,-0.3006305052,0.6801664378,-2.1887496912,0.9479896724,0.6443808387,1.0431495142,0.2428362232,-3623.5218551753,-0.1522848786,2.3141552444,1.1615871374,0.3339870552,0.2577753333,-0.8153851813,-0.4268497224,-0.5802737675,0.8042402676,0.0039129554,2.2212890726,0.0813208518,-0.8971592923,-0.7950532799,0.5302967923,-0.1939327968,-0.7826554278,1.0788814609,0.5601992621,0.8129807393,-0.1852323987,-0.4662305446,-424.6511373458,1.2458515121,1.0528215695,0.8912977419,0.2931563651,-0.0977837966,-0.8166985474,0.9834896428,-0.418504622,1.2084616232,-0.7546105025,-0.2927466671,-0.3942032304,0.3741002797,0.4701575741,-0.2706844539,17.2708591872,1.3150989863,-0.2437418175,-0.9945590385,-174.662267931,-0.5807287063,-0.2354653014,-0.483969456,-0.3097412794,-0.2490753431,0.0116368187,-0.6622495401,3.6241871666,0.556744077,0.8668576224,-0.8751983931,1.099030552,-0.845671215,-0.053193959,-0.7093586222,-0.9196906946,-0.4278016296,0.2049370693,-0.4435672385,0.5497403438,1.0457661379,-0.6983097958,-0.26989453,0.47573544,0.0850344942,-0.4365572014,-0.6764918765,-0.5009997275,-0.5941852978,0.0840535444,0.8883980298,-0.4237368172,0.0770455345,-0.6245487159,51.0152639546,-0.4891054877,-0.9942261629,1.0008853808,-0.191172283,0.0020897496,0.7365263954,1.1765086646,0.0750779002,0.2262876794,-0.6511938178,0.1171629019,0.6830835971,0.549207052,-0.6002381662,-0.5214098425,194.241477124,0.5065594714,0.92004263,-0.5220713157,0.1346861479,-1.2638509392,-0.2108982422,-0.1837143466,-0.6344340792,-0.3776842165,0.8086649405,0.8976608687,1.0536244125,-0.7862717834,0.3393785926,0.7590086083,1.3355672988,2.9679925059,0.6384227371,-2.0358693446,0.660894753,-0.1641903491,0.1690181219,-0.1832354767,0.8651593088,-0.2647931473,0.6994628644,-0.9150810119,1.194216482,5.7821193754,0.7763001024,0.6421131714,-0.5472015332,0.3069216078,0.5199565181,-0.5940159831,0.4889661978,0.4514203159,-0.1102745728,-0.3415557154,-0.511039679,-1.1704013437,-0.2197256645,19.2638737674,-0.9016306662,-0.0904631603,0.5460216258,0.4224099148,0.8610039734,0.1530181927,0.6340559016,-0.9054654084,0.5867382515,0.5523573816,-0.7299732064,-1.0879155178,0.2584441521,-0.900042496,0.0281339387,-0.7032529454,-6.267125503,-0.3692747018,0.2537428149,0.2737609609,-1.0077439893,-0.9460285624,0.4048545964,-0.6563529393,-0.4843258245,-0.7452882735,0.585905105,0.6267045294,0.9248059043,0.6420289571,0.8084605844,-0.874756226,0.7516477355,0.8177969948,0.1715605513,0.8108374975,-0.2719037411,0.4513504259,-0.3104144763,0.2900723822,-0.8877612138,-1.1050143915,-1.0902808219,-1.1777512678,2.0679785801,-0.4402320645,-1.3464226782,0.6222313488,0.2187615272,-1.1375091685,-0.8393881704,14.150782679,-0.1685726358,-1.6754077548,-0.8160498963,0.7423475706,0.049877871,-0.6315098433,-1.022234251,-0.3237229897,0.4431115523,-4.9330013335,0.684452851,0.469266062,0.3614981299,0.2052787844,-1.095753765,-13.0791917147,-0.1147758213,-0.0811702054,0.4073440743,1.0121129735,-0.99090495,0.3416850785,-0.0650231129,0.0664523857,-0.1996889335,-0.6831015792,-0.169322726,0.2823933641,-0.8540288594,0.358502544,0.8175686814,-0.1536931758,16.6367480246,-0.6615112881,-2.0312905851,-0.5204414179,0.4242958068,-5.0172566965,0.1095254735,0.824576481,-0.0905260074,0.8175875363,-0.5839739205,-1.7333352771,-0.7528302323,-0.206804797,0.7183502787,-0.8959609076,0.6491432896,0.7446589998,0.2312165374,0.5942929011,-0.7094376691,0.0036679856,-0.7065595833,-4.4387622264,0.1715390178,-0.5731553553,-2.0785146387,0.6341652597,-0.923396319,-0.1673081402,-0.2778545382,-0.2990486449,-1.1802459918,0.4774118276,-0.3512738818,0.5363484263,0.5197042318,0.3862523155,-0.0428900344,0.9456876657,1091.9181385088,-0.4582619666,0.1846580267,-1041.1857205131,0.0514788596,-0.9936592258,-0.038505992,0.5542443422,-0.3977823561,0.2719508004,0.2417204127,2.1811887458,0.8193812919,0.4141178609,0.1340317042,-0.8343706283,-0.938205949,0.5996736808,0.2534306046,-0.1937342254,-0.9352758814,-0.5376984754,-0.8451356524,0.9946150871,-0.0084619628,0.9783183774,0.6442282326,0.8377434958,-1.0486525939,0.5283091634,0.6075086057,-106.2501845318,0.2991885438,-0.2360945272,0.3129736927,-0.4594990709,-0.283944564,0.0940865843,23.0969898339,-0.2983041134,-0.1063514499,-0.1315081627,2.0255452514,0.9368268614,-1.0675258785,-0.5897276333,-0.0713331211,0.3412430321,-1.1899153415,-0.0536775928,0.6017586633,0.9678233685,-0.8352994309,-0.7879051415,3.4067885643,0.2579239686,-0.2375341166,0.3449318425,-0.653533843,0.2918260407,-0.8497330377,0.2486824697,-0.8021673807,-1.0999340146,-0.8444021335,-0.3256998687,-0.7139380109,-0.1542474242,0.5735005875,-0.5575171941,-0.8105709147,0.4292393965,-0.7059173433,-3.450503058,-0.862441055,0.2956558671,-4.6838378038
