encog,BasicNetwork,java,3.4.1,1,63726014792922
[BASIC]
[BASIC:PARAMS]
[BASIC:NETWORK]
beginTraining=0
connectionLimit=0
contextTargetOffset=0,0,0,0
contextTargetSize=0,0,0,0
endTraining=3
hasContext=f
inputCount=4
layerCounts=4,151,151,5
layerFeedCounts=4,150,150,4
layerContextCount=0,0,0,0
layerIndex=0,4,155,306
output=0.0886314761928527,0.0657087525736431,0.021791086655012,0.0407048437408286,0.999992076213402,0.996696096163146,0.000262386877234007,0.753890220395644,0.997677714031737,0.746856125590435,0.00002694159375874,0.0106983941647432,0.103448287007951,0.0764384208849492,0.151659109342932,0.963197759320456,0.000422713946664527,0.995977735759561,0.999998800452118,0.407405423148841,0.00000000026855238263,0.0567069546550205,0.996303435785057,0.168728346834409,0.959068153754312,0.000108565655294417,0.999999855642273,0.0439823360938736,0.0000701662051213685,0.999999160057382,1,0.00358803018716507,0.628689799296501,0.996947339198102,0.955379952372892,0.0027848665583036,0.791774719160316,0.0120370650566905,0.0392823638693397,0.974517366824821,0.00000468171225160833,0.832679823114334,0.353268222739255,0.999987603890717,0.623674489248672,0.989701839905398,0.752371270285294,0.265164379468842,0.999631655107087,0.311774380534877,0.00274774932189763,0.638312502812406,0.667786577473008,0.000247049064795081,0.744624377048714,0.00147750416411834,0.0247193457713525,0.0000116863814889831,0.999982562132312,0.00470575477258094,0.000147569340615865,0.20404145117714,0.0444019096296072,0.105797861051403,0.998944033941697,0.00512464686038737,0.49300918477246,0.603865747005451,0.00286592719049265,0.000530872944228986,0.00244136546373147,0.194609738879784,0.999982275203723,0.99999851582158,0.00000000000015154023,0.00691770356970365,0.732917375085841,0.0705019117603289,0.987190999649899,0.194022773850124,0.254196905233906,0.19079635379221,0.207191192096205,0.999920511002405,0.00000013153527907241,0.0429812212990982,0.167334124893837,0.999913159252363,0.0249251573019324,0.0266218085344032,0.000115280669088079,0.999999994534891,0.0257199850931064,0.0100028455080237,0.54295487667226,0.203588380815993,0.999082477522195,0.0117792482429333,0.00709648572445638,0.0175139824106009,0.020020189141318,0.00263670754084353,0.0115112795930109,0.00600553609027779,0.993159153002806,0.995229478876861,0.891311793639008,0.0198140073692897,0.999987195306213,0.999970312168089,0.993933354441153,0.0971889189197228,0.280598407504389,0.977043999147148,0.123742606311211,0.966853755735719,0.00471888140568158,0.840436943703156,0.6053491570258,0.999994951891832,0.00247837335205056,0.477539166292628,0.0420895785605846,0.00795860886016199,0.00000000000001626376,0.996468433722097,0.999711160782479,0.720237468903342,0.0153216942796619,0.291393214775929,0.319342474527955,0.10651134687797,0.743267457724478,0.478529636642068,0.99485673685452,0.128228842403887,0.876835394282815,0.136396224794782,0.550722123598573,0.999991455622475,0.0905548996369133,0.0282248646466594,0.00000285439827995578,0.284158808609615,0.890622392834601,0.432013873049854,0.000547078959954692,0.822397656574878,0.00000003891069933105,0.0395042493739673,0.110379002836179,0.0000662751947938395,0.988486888507934,0.00733958087736982,1,0.00000000000000000001,0.999431685626139,0.00000000000000000001,0.00000000000000000001,0.00000000000000000001,1,0.999999999999467,0.00000000000000000001,0.00000000000000000001,1,0.00000000000000000001,0.00000000000000000001,0.00000000000000000001,0.00000000000000000001,0.00000000000000000001,0.00000000000010604851,0.00000000000000000001,0.00000000000000000001,0.00000000000000000001,1,1,0.00000000000000000001,0.00000000000000000001,1,0.000362886019126913,0.00000000000000000001,0.00000000000000000001,0.00000000000000000001,0.00000000000000844181,0.00000000000000000001,1,0.00000000000000000001,0.00000000000000000001,0.00000000000000000001,1,1,0.00000000000000000001,0.00000000000000000001,0.00000000000000000001,0.00000000000000000001,1,0.00000000000000000001,0.00000000000000000001,0.00000000000000000001,0.00000000000000000001,0.00166364548970033,0.00000000000000000001,0.00000000000000000001,0.00000000000000000001,0.00000000000000000001,1,1,0.00000000000000000001,0.00000000000000000001,0.00000000000000000001,1,0.00000000000000000001,0.00000000000000000001,0.00000000000000000001,1,0.00000000000000000001,1,1,1,0.00000000725217264058,0.00000000000000000001,0.00000000000000000001,0.00000000000000000001,1,0.00000000000000000001,0.00000000000000000001,0.00000000000000000001,0.00000000000000000001,0.00000000000000000001,0.00000000000000000001,0.00000000000000000001,0.00000000000000000001,0.00000000000000000001,0.00000000000000000001,0.00000000000000000001,1,0.00000000000000000001,1,0.00000000000000000001,0.00000000000000000001,0.00000000000000000001,1,0.00000000000000000001,0.00000000000000000001,0.00000000000000000001,0.00000000000000000001,0.00000000000000000001,0.00000000000000000001,1,0.00000000001686107855,0.00000000000000000001,0.00000000000000000001,0.00000000000000000001,0.00000000000000000001,0.00000000000000000001,1,0.00000000000000000001,1,0.00000000000000000001,0.00000000000000000001,0.00000000000000000001,1,1,0.00000000000000000001,0.00000000000000000001,0.00000000000000000001,0.00000000000000000001,0.00000000000000000001,0.00000000000000000001,0.00000000000000000001,0.00000000000000000001,1,0.0000402942360496937,0.00000000000000000001,1,0.00000000000000000001,1,0.00000000000000000001,0.00000000000000000001,1,1,1,0.917353919479735,0.00000000000000000001,0.00000000000000000001,0.00000000000000000001,0.00000000000000000001,0.00000000000000000001,0.00000000000000000001,0.00000000000000000001,0.00000000000000000001,0.00000000000000000001,1,0.00000000000000000001,0.00000000000000000001,1,0.00000000000000000001,1,0.00000928476798486295,1,1,1,0.00000000000000000001,1,1,1,283,232,156,707,1
outputCount=4
weightIndex=0,604,23254,24004
weights=##0
##double#24004
   0.0493884402,-0.6483971034,-2.4596209381,0.2362624518,-0.7819322558,-1.1524600785,-0.955074427,0.9013948909,-0.7354053531,1.1961149457,-0.0569452551,0.9913289037,-1.3330059825,0.0001396973,0.0401117018,-0.3279298809,0.300734388,0.3762054925,-0.7489726512,-0.7734366947,0.4718360712,0.8249441963,-0.3129873968,0.394629394,0.5149954233,-0.4679612065,-0.7455590317,0.0527722683,0.8237942542,-0.7667193577,1.0022071246,-0.4659063611,0.9750828783,0.8636970376,-0.6411090078,-0.5909883627,1.278783065,0.8758288205,-0.081649545,0.0945501773,0.4353635868,-0.8602507567,0.4098335681,-1.1787046027,-0.904663393,0.280022641,1.1334460013,0.5882876852,0.3114921527,-0.2337205814,-0.0026113864,1.0454559402,0.6113018213,0.7498855196,0.0034789851,-0.0905462557,-0.8497022704,-0.3065206807,0.5164676913,-0.4326741133,-0.102031152,0.4172761406,-0.8687881611,-0.3600780761,-1.0685793467,-0.5543622622,0.6143508958,-0.0588793969,-0.060773059,-0.3368161604,0.7209344552,1.0833403383,-0.6852398705,-0.5282972434,-0.3692611786,-0.7632216406,0.3055623745,0.9517690824,0.0489815449,-0.1225314776,0.9575078246,0.5607701463,-0.0719257885,-0.6923200251,-0.8351970193,0.5372389324,-0.5382887507,-0.8594549761,-0.1082308452,0.2857239979,0.050567473,0.1297175257,-0.7158895738,0.7747709135,0.8376836016,0.4695476353,-0.4082785539,1.1144477156,0.1631779866,0.6105485733,1.0803049338,0.5461471994,0.4206544326,0.8000948036,0.8675294698,1.0671141728,0.9119467756,0.4139921288,-0.8809739661,-0.8050408313,-0.0076483535,0.5405526246,0.7963618187,-0.2227315952,0.4417733017,-0.6038290835,-0.441665473,0.961114024,-0.7600750197,-0.4015985711,1.2688844098,0.4128575595,0.1554616437,-0.0882104539,0.9684939967,-0.5175567376,-0.710756087,-0.6976236491,-0.122856762,0.8076035626,-0.8788846747,1.1570940698,0.9239754947,-0.4341543752,-0.7706115518,-0.8544190541,0.0629089061,-1.1615207233,0.8316850181,0.2742058069,-0.1620075631,-0.4305792108,0.1755519535,0.5822311408,0.7190735752,-0.1459583048,0.6812280282,0.8946618561,0.5729576322,1.502792019,-0.0344882908,-0.2611396199,-0.6128520015,0.8641591238,0.7327970882,-0.4209991785,-0.0764815141,0.8958396045,0.5141506947,0.6177553181,0.6862668105,0.0980316295,-0.2498861661,0.4550194228,0.0045327976,-0.507289078,0.0067209595,5.3172089433,0.5805622101,-0.2466932924,0.2392298219,-0.5839954921,0.5128367427,-0.6661670673,-4.5092844599,1.3112875197,-0.5429962295,0.058621514,0.957496208,-0.273877239,0.0956618585,-0.1355954033,0.5940469299,1.0888835088,-0.8141617208,1.0865330048,0.3703339412,0.2609380168,-0.5940019786,0.5175090791,0.1103018927,1.2535748313,-0.6882576709,-0.6362654923,-0.5529515397,-0.4641620404,-0.1565040997,0.3251415915,0.5589583401,0.8577415727,1.8083082568,-0.4923739162,0.8936831038,0.9580335051,0.4799469592,0.037270931,0.6429616032,0.4082458243,0.636086523,0.6337305249,0.8556470989,-0.1785682437,0.7623849062,0.0769781158,1.0661396714,0.4784638358,0.2183892751,0.6850998622,-0.2490046974,0.0179092319,-0.3103331977,0.4792006719,-0.4207284457,0.2454477894,0.5896778822,0.1076080924,0.4768052197,-0.6762841986,0.0350161364,-0.0789250333,-0.4818613621,0.9645862964,-0.7553707835,0.2138195735,-0.3254457431,0.3445481325,-0.6934925162,0.5292770725,-0.0632204513,0.4672071679,0.5804171854,0.6836346123,0.2947174887,0.1503632003,-0.4444205134,-0.0977473722,1.0119919565,0.7510017019,-0.6278737282,0.7510474454,1.2229167289,1.2137719113,0.1320578711,0.0780240551,1.3361040727,0.0403961925,-0.5174082228,-0.2304421968,1.0444796789,-0.5132761437,-0.3137787374,-0.0678605747,-0.1230512575,0.8310927571,0.0471375498,0.6657564982,-0.5474397437,1.2782218557,-0.6063338629,0.1838069834,0.6183733686,0.8415398915,-0.4992684078,-0.4142984327,0.9128974611,-0.6360751902,0.7636580404,0.2181684184,1.1735842293,-0.6777576215,0.3873902378,0.0265253106,-0.0679611047,1.2265989682,0.2478958049,0.326523247,-0.4974641566,-0.5117687917,-0.4336908491,0.1110863061,0.9474121081,1.0948572028,0.3643724032,0.5229242041,-0.7685980906,0.370427742,0.3855763488,0.4366489549,1.5199915319,-0.6899745259,0.378997299,-0.6512524671,-0.3804894855,0.5601751453,5.9588176941,0.2359683718,0.7094284355,0.4826633702,0.657582213,-1.1096285351,-0.8437547544,-0.8692463886,-0.1924456913,-1.0225971523,12.7208648915,-0.2625355444,-0.9720162148,0.4940508718,-0.0471499574,-0.3783264251,0.9160996894,-0.6505148198,-0.4018430983,0.4783933234,-0.0531845568,-0.4799696562,0.4869490523,-0.966202239,-0.1539133825,-0.9758840832,0.4630648242,0.1070783474,0.1736808083,0.4232026198,0.6131402395,0.0825213952,-0.5361538664,-0.4127752205,0.9144456365,0.9342298725,-0.5029048899,-0.5111278242,-0.5149106346,-0.8935739318,-0.7308740441,0.7156650954,0.1901974865,0.0270491081,0.1212586183,-0.898241533,0.5590003462,0.219650295,0.494529496,-0.7979056984,0.7914782358,0.5511148328,-0.1034319446,-1.4219435715,2.0104680252,-0.7260876207,-0.5820905054,5.9927275979,-0.0160316359,1.3230982799,0.407985264,0.0376777659,0.2719072076,-1.2146649556,0.5225667509,0.6143639374,-0.8358520329,-0.5368968409,-0.1870732555,0.5640092358,-0.0137997839,0.9214413457,-0.8124746153,0.0729019186,-0.1119010662,-0.2727605634,0.1568051378,-0.8401132789,-0.9803295455,-0.0011448201,0.7252369656,-0.4882084888,-0.3791687637,0.883993147,-1.7330148631,-0.4992359003,-0.4998860427,-0.9791303103,-0.0899859382,0.3535377534,0.0321221252,0.6907529025,5.6228966038,0.9796674195,0.0383529979,0.5894405014,-0.0868243477,-0.6162870268,0.4080842959,-0.4774172429,-0.3757389256,0.6823616543,-0.5835168932,-0.4219913159,-0.458574488,-0.4884171403,-0.930252938,-0.3291614142,0.7956437655,-0.0635061843,-0.8159700929,0.1904112037,0.2725176192,-0.0226954259,-0.5458756108,0.2818368959,-0.349121793,-0.4665103678,-0.3731965003,0.9301664601,-0.8576894043,-0.0085690489,-0.3370742501,0.2047060644,-0.8414574528,0.382935465,0.3537077254,-0.7815676392,-0.6735329036,-0.8290611986,0.6085163886,-0.2151693946,0.6499247349,0.2704403746,0.8011920582,0.8668771201,0.5189303345,0.5778295092,0.8444209735,0.3387296324,-0.5728229519,0.9209321226,-0.5180216955,0.9703986057,-0.4903596516,-0.1727401877,0.5922667479,-0.3291834791,0.7157619627,-0.8285276406,0.3526668399,-1.1313843821,-0.0443916164,-0.1558840464,-1.58345929,-0.1635132143,-0.5809636498,0.967971176,0.3975577029,-0.4940053612,0.3736717929,-0.1116003494,-0.8677790566,-0.1008673298,-0.1338751325,0.8285386343,-0.227020204,0.0940682929,0.5782007248,-0.3114131585,0.534809277,0.7280138113,-1.9899567714,-0.2292721359,-0.1050973784,-0.5624083923,1.0935325551,-0.4637083721,-0.9521916807,0.227450631,0.0489738003,-0.9382756107,0.2653236728,0.1765402687,-0.0658465225,0.1480008212,-0.3895910917,0.9818015118,-0.0889900231,-0.0038206613,0.9818854279,-0.3103936533,-0.2446963678,0.315483944,0.7496522628,-0.1206445118,0.2431295008,-0.6521504925,0.8988805848,0.4236219802,-0.0974813843,-0.2468631224,-0.2376466291,0.2865310395,-0.9924153898,-0.2988777941,-0.3450234238,0.388467292,-0.6742315084,0.7849441559,-0.9624633556,0.8400628506,0.3648603128,-0.2715248873,-0.7594806944,-0.6221335022,0.2817271845,-0.6907796432,-0.2833726367,0.7384090898,0.4857072372,0.5380345338,0.5118481788,-0.9074963351,0.5864060606,0.817963874,0.6436002614,0.2479219828,0.1809757402,0.8740559925,0.6466554082,1.0297935239,-0.724530397,0.9263309558,0.535870985,0.5349029011,-0.6966411984,-0.397600579,0.1810691426,-0.0137275569,-0.2155350741,0.6726609912,0.5951888007,-0.8818821141,-0.8090679604,0.2646808382,-0.2747633459,-0.8114685412,0.6314653157,0.1475806277,-0.6017008936,-0.4956791838,0.475064172,0.6098484878,-0.9537174396,-0.6260227365,-0.3242137408,0.0427686201,0.483996226,0.19432127,0.1284014996,-0.6473923644,0.7778090454,-0.0326519857,0.7258139045,0.4674680365,0.3720668252,0.2902005591,-0.325145459,1.7198971392,0.4668908758,-0.2800387114,-0.2793086399,0.4723015054,0.5871688184,0.7378486986,1.2224619664,-0.1509431167,-0.8807913272,0.5650920576,-0.3631257652,-0.6960562738,-0.9537883674,-0.6117520657,0.145097298,0.1967973221,-0.5184915145,0.6657852255,0.6239493939,-0.8132185607,0.9438385153,-0.4993703284,0.8093381,0.6611209531,0.5723862514,0.7849941315,-0.1663402245,-0.7585176388,1.0211975749,0.0325627069,0.6537338039,-0.4231121663,0.2757145772,0.8796259423,0.3568108228,0.4732488835,0.4754036607,-0.4109477771,-0.4713551533,0.8111100901,0.051313669,0.2543329174,-0.8852520395,0.5121769167,0.1112889305,2.335258955,-0.2592796826,0.0490945961,0.9572540633,-0.6756643513,0.0946047513,-0.8977735942,-0.0531483931,0.9739917986,-0.1690763167,-0.3190783691,0.2113179235,0.3283421813,0.2436483959,0.5508836133,-0.1384271082,-0.5270087201,0.300241023,-0.733407122,0.9121199638,0.2074946949,0.59687579,1.0471862197,-0.4501018512,0.3755827897,0.8338400112,0.8874790141,0.0216127957,0.5943733648,-0.1435731325,-0.1902555179,0.9689475441,0.2731469326,-0.4540430081,0.3410217557,0.707003057,0.9084678391,0.5249306259,-0.7947534955,0.7811122937,0.3983909379,-0.1862422683,-0.5223292278,0.046057615,0.6292045847,2.7521843259,0.9025810907,1.0001554421,-0.880524779,0.0795019974,0.574810246,-0.458689069,0.3934157594,0.4814634131,0.3012964741,-0.1149213999,-0.1206471748,-0.5269382314,0.2600985397,0.1076965875,0.165014247,-0.5435995393,-0.2608816406,0.2832757442,-0.0753268875,-0.8062548556,0.3937886438,0.566131853,3.2736504205,0.2551639071,-0.348420334,-0.3890838921,-0.8518548952,0.6652253227,-0.8696953877,-0.8693053899,0.3389681379,-0.2267076843,0.9132097711,0.3650867931,0.4593491403,0.4580765886,1.9971404814,-0.199296394,0.5945231767,1.043600517,0.7113912259,1.0298044949,-0.2169758199,0.022131328,-0.0270365117,-0.4339207113,-0.685004811,0.5146040312,-0.0884723883,-0.0971979662,0.7778643381,-0.1291846377,0.8182771,0.8746791953,0.1306945126,-0.5514244652,0.7755074032,-0.9508190825,-0.5089188397,0.4839253779,-0.7457150521,0.8221096007,0.5222985621,0.9328121959,0.8629907794,-0.0676634776,0.2383354581,-0.4134547046,0.5519906932,-0.9343353398,0.3445902054,0.9609140875,-0.2683405522,1.7018985239,-0.5565812588,0.8370920742,0.8231512379,0.8257321702,-0.0584546193,0.7166641536,0.9871798921,-0.3946916945,0.9924247857,0.9587610417,0.3345043281,0.8872698588,0.8260555751,0.8892023588,-0.9444697296,-0.5952144564,0.8520513986,1.0079697052,-0.7355532108,0.7134981232,0.5127088518,-0.896836608,-0.0683661906,0.9023826019,1.0112505933,-0.88158902,-0.2797450178,0.1866333025,0.761129377,-0.4930112015,-0.760256016,-0.5909333771,1.0493125975,0.1280162413,-0.9751759965,-0.0744246768,0.9040482255,-0.1035910313,-0.293093437,0.4799502811,-0.5481930439,-0.4199936319,-0.8673364547,0.1775545511,-0.5833275522,0.4408980475,-0.2873604522,-0.1641460133,0.8148984211,-0.7455636224,-0.4612048288,-0.2592129813,0.8939491097,0.4345147629,-0.8043854198,-0.8261183183,0.2952521455,0.0777196351,1.1348185627,-0.3939399522,0.5417899532,0.503556337,0.0794821358,0.2208272774,-0.2185081091,1.0073292035,-0.0168815813,0.9366544537,0.1998830397,-0.8199873473,-0.7301195643,0.5305551341,-0.4368180538,0.0153200817,0.9840703886,0.9986535978,4.807772599,-0.8044149445,0.0120963372,-0.7097408895,0.0254665304,0.2157712365,0.5150484662,-0.3005069075,-0.6673700858,0.0695303665,0.291979551,0.7536883884,0.0823721174,-0.5998381907,-0.3932879037,0.7042252075,0.9674055858,-0.6440220344,-0.3344942867,0.2077603634,0.7718793755,-0.5900412538,0.6395531846,-3.3900079706,0.5539019503,-0.7210560409,0.3437853924,-0.3356894857,1.0145341387,0.4034720172,-0.7172029484,0.713226227,-0.8190999806,0.5509603003,-0.2572259644,0.783256878,-0.6950039718,0.1271928182,0.3991746881,-0.5137335118,0.9073738173,-0.4312632215,0.9075064404,-0.3985630653,-0.1414311459,0.0829829452,-0.154241844,0.7530173012,-0.0801296118,4.3102936748,0.866485049,0.4319831983,4.0965733403,-0.1610782776,0.9319137302,0.914628027,-0.6302906621,-0.7575670375,0.950676809,-0.1755476733,0.3128895784,0.4132298262,-0.2524017748,-0.7972126928,-0.7501680518,-0.3480454712,0.6451227828,0.3287529783,0.8016078337,-0.8677211012,-0.829429415,-0.222303297,-0.5144293688,-0.221167592,0.4639700574,-0.2068947146,-0.7048347672,1.0279854887,0.7264563266,-0.3299271722,-0.5504845773,-0.1158537907,0.5224755028,-0.4943983242,0.2077273766,-0.1385562363,0.3452732715,-0.7328681367,-0.4483985138,0.3108088501,0.2189839717,-0.831587276,0.841360612,-0.3431217925,0.3023448715,0.4335148676,-0.270443602,0.8248521826,0.0258054319,-0.8670967901,0.2751299606,0.3043010911,0.5854655065,-0.4065684947,-0.4081967228,-0.3037957002,-0.1523791993,0.5663983146,1.7428139794,-0.5338175481,-1.0019818108,0.7627178012,0.1847976762,-0.1401762046,-0.403048518,0.2165041847,-0.6467880294,-0.3126863629,0.4388273775,-1.974838909,0.3881058476,-0.982900877,0.882073443,0.9804628411,0.7904105232,-0.331354559,-1.0856726806,0.0356708832,0.3092459045,-0.153962256,-0.5274183655,-0.3162663705,-1.0932635926,0.1804495714,0.157128293,-0.0479668229,-0.2977609817,0.949937801,0.3600672266,-0.6544402827,-0.3532075997,-1.0760631075,-0.7207763425,-0.6827552336,0.896514086,-0.46223535,0.4879963695,-0.3703255617,-0.4122990665,-0.3528266937,-0.302616335,1.0845911975,-0.2884087994,-0.7852454435,0.0846427099,0.6011075603,343.975414936,0.1331867204,0.2419917872,-0.9886877079,0.6922407,-0.3372004634,0.5372012507,0.9900584575,-0.1068377343,-0.7697940062,0.8577050529,-0.5685392073,2.3356919079,-0.8142233347,0.734070097,0.7272746544,0.6194056752,0.4392862031,2.6617603745,0.6202841775,-11.3885005066,-0.4598968603,-0.1127630636,0.3215808322,0.3747336638,0.1619413496,0.7777819204,0.2737891622,-0.4297207016,-2.915898093,-0.201872707,0.1720889632,-0.2596938873,-0.5302262658,-0.8630734457,0.8343668916,0.2079922724,0.7949204138,-0.9313086122,-0.65682998,-1.7399732882,-0.7360341072,-0.2359618689,-0.3811213706,1.0345350032,-0.0491892682,-0.1622544318,1.1358756347,-0.2408457544,0.5341748824,-0.9886688891,0.0773362505,0.1774001989,-0.5561385758,-0.0473542433,0.4583844429,-0.878996739,0.2239357634,0.9455867,-0.6988065883,0.3891538268,0.3286579668,0.7933372005,-0.7400577396,0.3631488035,-0.524184779,-0.0863937173,0.5418017952,0.9867851902,2.2346194165,-0.673773549,0.0511104342,0.830454588,1.0643700849,0.309074788,-0.5531568328,0.93937378,0.0934890794,-0.7012522658,-0.8754158381,-0.8071596034,-0.989141709,0.4129381624,-0.8277660755,-0.7110223663,0.0399554136,0.3910056795,0.8706922911,-0.4225163081,-0.2023996342,-0.3865840702,-0.7653757324,-0.8241471733,0.5506305786,-0.1574867588,0.8129088048,-0.6763757345,-0.2687554179,-0.3927097042,0.0107472041,-0.2343438969,-2.9952606138,0.7319822493,1.0020289358,-0.1235189024,0.0711034298,-0.1252581045,-0.2816590257,-0.0038432661,-0.4148008068,4.1464510342,-0.7115899376,-0.5262064168,-0.5257148303,1.1624171255,-0.2024444319,-0.7141971398,-0.3647621991,0.0795995933,0.7541361832,0.8000037659,-0.2456875479,0.144717687,0.1074391498,0.7050037159,0.0491848649,-1.0415934754,-0.5965111321,0.3337701027,0.4752222169,-0.3633628675,-0.7115784533,0.5076298698,-0.3455800579,0.4681424412,0.2497735659,-0.7858234989,0.0985656711,-0.6493074101,0.0850069509,-0.8082555043,0.1054733624,-0.6649508165,0.298468514,-0.4078464952,0.2146231779,-1.1579029519,-0.1475089655,0.7781968366,0.0294271283,-0.4582279622,3.0826402,0.8481261439,0.6820278712,-0.0221342608,0.4466693222,-0.4027261144,-0.4168065486,-0.0949324328,0.5872188654,0.2764739624,-0.8246766905,0.168177007,0.2907646027,0.32880734,0.1631942341,-0.1291409905,-1.0609166766,0.4094219968,2.200930014,-0.8634737757,-0.0363051831,-0.1425241778,0.542053011,0.5645570364,-0.3932073551,-0.511589925,0.8890357064,-0.8471240095,-0.2728933605,-0.1703030876,-0.3662464727,0.4565675159,0.8914473514,0.8274264698,0.5286535941,-0.4186464062,-0.4081261757,0.7346255237,0.9820006499,0.8314312658,-0.2119640519,-0.8356364956,-0.1335924283,-0.2340870583,-1.0613371603,-0.131892406,-0.8155732113,-1.9638040333,0.9686945323,0.2633479229,0.6985179182,0.138506968,-1.0144358188,0.9280992299,0.0968348398,-0.6927089907,0.2080312972,-1.1716922335,-0.4642177166,0.7938758403,0.5432945906,0.7467129508,0.161922532,0.2432843173,-0.1436710996,0.2919628934,-0.1553617209,0.8684550244,-0.1449042334,-3.2882747844,-0.7035088848,-0.8030153463,0.1360468757,0.1999724265,-0.2288208712,0.2204680345,-0.9172390215,0.6471604675,0.7704763752,-0.9301012345,0.4421810029,-1.0864614743,-0.9556484585,0.6498304268,0.4865554852,-0.0278810203,1.0067153573,0.2520828003,-0.6938824519,-0.226911416,-0.6138168749,-0.7419334651,-0.1733388095,-0.3499886139,-0.1666605911,0.8037446893,-0.5528901869,-0.917004792,0.7555015055,-0.2957693847,0.9475714708,-1.0416376557,0.4652915942,4.5429129071,0.0154015891,0.5093952051,1.0401683234,0.1085440516,-0.6002081081,0.9222026521,0.7663193752,0.8495650387,-0.77710143,0.8500886587,-0.7799905267,0.8463381668,0.1583095925,-0.2742186901,0.0780195709,-0.0213859794,-0.4323430768,-0.3152134612,0.6088548381,0.8629219523,-0.7125164688,-0.5145882431,-0.397731965,0.3703206364,0.9316758981,0.7337355719,1.388973437,0.2497076713,-0.163474224,0.4979377089,-0.8463839087,0.0260577992,-0.6089852088,-0.5279016383,-0.8418925255,-0.7898099291,0.9731901728,1.0842974948,-0.5407538839,-0.55427023,-0.2550174637,-0.0942531691,345.4460519396,0.0822966803,0.2460624375,-0.03399689,-2.9093946967,4.9324480175,1.2648940105,0.4294706149,0.3058920908,0.0105045191,-0.6292498771,0.2381356737,0.9287292063,0.7954046053,-0.5520329468,-0.6244775903,0.2029039411,1.839990973,0.2322142911,-0.2395414679,0.7919092781,-0.2654108422,0.8061514329,1.444064676,-0.9048377387,-0.0879895524,0.344900032,0.3174149028,0.2445102682,-0.3652410402,-0.4826937344,0.3688896892,0.4179516704,-0.54551474,-1.1957557055,-0.9410023745,-0.4436283669,-0.5280485895,-0.1332795132,-0.0866193251,0.3145424495,0.8245904943,0.8461243517,0.7097678053,-0.3864365925,-0.2441857588,0.6420712663,0.8709954133,0.5589325448,13.9105264154,-0.5533890424,-0.5354847829,12.2000780549,-0.2561619362,0.7166559347,1.7614987572,1.0139511831,-1.0026289977,0.1911549006,0.0032648923,-0.4033385151,0.3343874956,0.7906756319,0.122424074,-0.8925269471,0.2167125264,-0.4322489946,-0.579066717,1.0670247926,0.1624183502,-0.0441489057,-0.8761670226,0.1380450082,0.6158027905,1.7640810954,-0.7033930832,-0.522438685,0.8368806064,0.3184538251,-0.4955470383,-0.1121183166,-0.2739260656,0.813598654,2.0211657092,-0.1468739936,-0.7130656736,-0.7647484226,0.229175124,0.4699576167,-0.4934526947,0.3099070913,0.2404691227,-0.6710959953,0.9504190789,1.1048694954,0.8040657043,0.0323269972,-0.5063093017,0.0338221057,-0.4882392346,-0.9799671718,0.1777739698,0.8789973119,-0.4973239508,-0.9997809343,-0.0619377891,0.5012060299,0.6856577575,15.3155145244,-0.2808796417,-0.2932702008,0.3218140445,-0.2172598851,0.3714262952,-0.431104457,-0.8470745395,-0.2156554631,0.0840538661,0.4806721245,-0.5089012495,0.1051161648,0.8172496989,0.2982483169,1.1766223069,0.8385620359,-0.6559965325,0.485647251,0.4364052614,0.4003197909,0.9684997955,0.1979038367,0.2517977888,-0.0339351921,-0.5572211064,-0.3567744488,0.2622979012,0.4683762378,0.1273246727,-0.4883314825,-0.6984335062,-0.3767756013,0.9059657914,-0.0564726704,0.1771167401,0.41911366,-0.2302491929,0.499427302,-0.3328925422,0.3749462261,0.3559062823,0.8882002089,3.8656403069,-0.8645600456,0.9633327801,-0.0601723474,-0.8614437268,122.6757701771,0.9117105441,0.8347804865,0.9645450799,-0.1215818017,0.7202838583,-0.1354232808,0.9567793123,-0.7334165988,0.2648028717,-0.0487319767,0.6036117586,2.3960571881,0.6955548159,0.1061097556,0.6755468205,0.0019306674,-0.8885289657,3.5327359533,0.8771631897,-2.3562624597,0.8797768647,-0.6212677991,-0.2291831586,-0.188263469,1.7480259471,-0.4308392524,1.0901891122,-0.4733906411,-2.5676363715,0.9176769079,0.0656636986,1.3247134402,0.6750998943,0.5272550325,0.469056924,-0.3998704104,0.7902357591,-0.2213138208,0.4340805213,2.1516015322,-0.6509660235,-0.5159766286,-0.8139040326,2.063967511,0.1365573458,0.6490272179,1.6773172168,-0.1252631792,-0.2906712196,-0.5175365207,0.3191765333,-0.5826752055,-0.5145223399,0.8974542341,0.2520833436,-0.1701723367,0.3356181331,-0.5507848698,-0.5109734501,-0.5666139297,0.9333472405,0.6070247083,0.0375106814,-0.7569387899,-0.1381813712,0.8876941902,-0.4036675195,0.22329246,1.456797793,-0.2338855458,0.1739329085,0.4118856687,-0.6006533014,-0.0662873756,-0.7004874203,0.5466462428,0.5416861858,0.9308245707,-0.8667709497,-0.4830737117,-0.1421254888,-0.744059624,0.6509557164,-0.7683334917,-0.9188474338,-0.7343683585,-0.7616797201,0.9280603568,-0.2502831495,-0.9055631347,-0.6262093132,-0.3901074334,0.9315817561,0.3928268772,-0.8675876216,0.2888546694,0.5284631055,-0.9690000828,-0.1847884232,-0.55340076,-0.1514424052,-0.5869145115,0.3149335791,0.5837141609,0.8356829906,0.1716174895,0.4891146059,0.5207934023,-0.7270740074,0.0794943571,0.7288040716,0.6350943221,-0.2322652951,-19.8470913038,0.6391888026,-0.9214981752,0.8193404354,0.2675864557,-0.2761219364,-1.088580727,-0.7606615738,-0.311895512,-0.2571494111,0.1952256277,0.7662932406,0.2290840207,0.696485034,-0.5384229431,0.4914786438,0.4461058351,0.5981185981,-0.588768093,0.6834020101,0.5040570979,-0.6121126315,-1.0528531056,-0.8859760354,-0.1543161297,-0.5614330878,1.094420921,-0.7029387254,0.0980172513,0.7725533982,-0.4261740537,-1.0285487681,0.4132391081,-0.7988407447,0.0275911932,-0.498918335,0.2293530984,345.1300045868,1.3005694055,0.6718497334,0.5560437221,-0.7471105595,-0.5060328485,-0.5634834438,0.3378179657,-0.7447204111,0.1079123119,-0.7991263614,-0.4544352592,1.364887777,-0.8274114519,-0.7616976918,0.499985414,0.1753179426,0.2960361273,1.4841837597,0.4546636819,-21.3592618633,0.6527248402,0.8151530408,0.4450023641,0.4308189468,1.1484404407,0.2043872491,0.0855752974,0.484389696,-2.1090227228,0.0366070108,0.5604094877,-0.5501560595,0.1455014735,-2.5585019414,-0.1242288583,0.0236663044,-0.6884351673,-0.2215972902,-0.3389847434,-1.2048051687,0.2282752462,-0.6486016933,-0.4416107001,-0.5743901611,0.5033314542,0.4389469298,-0.1261376967,0.1203979911,-0.6934730662,-0.4608282563,0.8004481686,0.696626856,0.4761248554,-0.8787967733,-1.2220717399,0.0925804211,-1.0468366215,-0.5349187402,-0.5492128079,-0.4118094538,0.2392693723,-0.2119848698,0.6456634761,-0.1573289266,0.7289175269,0.1439696518,0.4098200553,-0.1517234208,0.2676513005,0.7844129617,-0.7203484388,-0.3848905806,0.8837916723,-0.465070904,0.5252663124,-0.7448240285,-0.3150612544,0.3799241788,-0.1261413525,-0.2689976971,0.6116380439,-0.1857664395,0.8265328562,-0.9227683456,-0.9755831578,0.6588489309,0.5777684046,-0.8627383165,0.4626762013,0.5908068128,0.8554067071,-0.4303837786,-0.2679039926,0.3102513496,-0.6312195247,0.8920371839,0.5459447417,0.4779646407,-0.9967274684,0.6816989158,0.6703355991,0.8996432541,-0.4362165313,0.4175303987,-0.8787555287,-0.1282821126,1.0799048053,-0.0772645628,0.7800263044,-0.5906955413,0.7545291377,-0.4193001657,-0.4251793471,0.5752466301,0.2847545078,-0.4727794023,0.4699866761,-0.0680546525,-0.3203311829,-0.7304575414,0.5287194657,-0.1379482059,0.2238419187,0.439749398,-0.4662590928,-0.3411442488,-0.0397963884,-0.3451439769,0.1579008869,-0.9706639584,0.4094614026,0.1048243406,0.6890316353,0.6039122118,-0.3553640582,-0.8659194624,0.6596660026,-0.457588678,0.1182988878,-0.0708356944,0.1465171432,0.4767135371,0.8801755048,0.8759201131,-0.7367813065,-5.408951726,0.3496987956,0.7731286863,-1.0352111124,-0.336535073,0.4673078026,0.705886369,-0.0458516778,0.1394840214,-0.9732499597,0.1956567025,-0.8170465314,-0.9894233579,0.755074122,-0.9586270727,-0.79925967,0.7571609296,0.2878561958,-0.568210232,0.1963819411,-0.573186118,-0.4788168794,-1.0065195598,3.0638768401,-0.3690402418,0.288656016,0.6853742458,-0.7449168022,0.0945567348,-0.8021613051,0.954088017,-0.0531228115,0.6680581292,0.6918704556,-0.1754543283,0.0715912064,-0.9498124408,0.4982515621,0.0457528294,-0.6069291805,-0.9046955723,-0.4481030147,-0.4538511147,0.3343201165,0.1641866812,0.0038470609,-0.2904239918,-0.24458193,0.1322508078,-5.9597488532,-0.2544783974,0.6331700284,-1.3216581367,-0.2844754147,0.6337808988,-0.6641846028,0.8846163823,0.7492530306,0.3176748824,0.5379171879,0.6962475785,-1.0218862035,-1.1632141859,0.1824965008,0.6418860693,0.7108145113,-0.5012308506,-0.0590883266,-0.0498662043,0.7852557152,-0.7970971175,-0.2739924031,0.6164595744,0.8832521429,-1.6517074659,0.7433926133,-0.2336957296,0.7574040572,0.3710485188,-0.3179160409,0.4203079694,0.9335076408,-1.0702123652,-0.5216918778,-0.2523426811,0.4856278242,-0.0710835918,-0.7563081206,-1.1025950425,-0.6398715836,-0.7156841297,0.554395408,0.616974324,-0.6783110883,0.3388862417,-0.1670063684,0.5538354682,0.1053248155,-0.5859359231,-0.8682026114,0.6637833573,-0.2737239344,0.5298821235,-0.2219121002,0.3730887768,-0.4034969621,-0.5740875839,-0.5998748039,0.5157358455,0.1797929803,0.6431903108,0.2113840334,-1.0260129314,0.8544113803,0.0463559698,-0.5721234577,-0.7713300169,0.3106693809,-0.8333830507,-0.213082677,-0.9921255158,-0.2687113365,-0.2434726548,-0.1980156405,0.4456274889,0.0695766886,0.031321269,1.0896596093,0.1724245543,0.5392757438,-0.9601406082,-0.6962943122,-0.3431806284,-1.0733489535,0.7396833968,-0.0734513804,-0.8955785921,-0.773747511,0.0010960423,0.7108918362,-0.6802811981,-0.384038055,-0.0550061916,0.0249962979,-0.2874533438,0.2731550822,-0.6421248175,-1.0119583558,-0.0598137486,-0.8861611131,-0.0318783089,-43.8461852623,-0.6357487275,-0.6540993702,-0.1645507631,0.5254504373,0.2670279752,0.2131056901,-0.8512457112,0.5181054862,0.3883463458,-0.9700567666,-0.9982341891,-0.5422960639,-0.2483657477,-0.3642838484,0.7654565646,0.1333686171,0.1019955974,-0.482155308,-0.9455143204,0.470868577,0.1072186593,-0.9730653888,-3.1850731451,-0.3467100458,0.4787180784,-0.0637364597,-0.5574190754,-0.8428503611,0.5605045248,-1.0513562433,-0.6229695741,-0.7739750334,-0.9403709877,0.3887844542,-0.2825402074,-0.1294779042,-0.2962489422,-0.5731185663,0.2878589059,0.5624608219,0.8273601677,0.530915953,0.1256244057,0.8200111742,0.6833066755,0.0993665034,-0.7132239284,-0.4561715959,-15.3678018239,-0.3741704902,-0.991335836,-0.9476369789,0.7973060281,-0.2755549708,0.011714252,-0.5315988192,0.4602363764,0.7166162886,-0.8233017427,0.360570363,-0.8177091627,-1.2176856124,-0.7346984836,-0.0304859537,-0.1306747753,-0.373021905,-0.8230292189,-1.3803621901,-0.5794871829,-0.1305811522,0.6177394714,-0.0047363833,0.5904792977,-0.2017849094,-0.0072363133,1.0512298953,0.2705518107,0.0022286048,0.6213259881,0.5701670971,0.2391815974,0.7845795368,0.4117046558,-1.0575084528,0.2409236046,-0.7820835531,-0.2079701997,0.7174725401,1.0805049818,0.5791206181,-1.0569709558,0.5007620365,-1.0735688697,-0.5382003409,-0.8093357821,0.522248521,-0.3117999813,-0.6458331224,0.6579532226,0.4844549024,0.1719801394,-0.2604028169,-0.6024612444,0.6530349998,-0.7107021532,0.5893602345,0.0900184924,-5.2444408871,-0.0546918412,-0.7360734965,0.2515567293,-0.7135043239,-0.2058490073,-0.5315925667,0.3586779773,0.5094406692,0.709545073,0.3995058571,0.0464302288,0.0963032064,0.2560551064,-0.4292615623,-0.5120942235,-0.1688800786,-0.1347645566,0.1134379358,-0.8448793437,-0.2383158254,0.2106701132,0.4552542574,-0.4583977649,-0.4580265783,-0.9411619043,-0.0513193077,-1.1008308117,0.7574792698,-0.8513884303,0.2643358611,-0.1771034771,0.5333628714,-0.6901224089,-0.4891329296,-0.5208752079,-0.0749196853,-0.1864756064,0.6843240453,0.0997889688,0.6699117486,-0.0557426247,0.4613434733,-345.4869696277,0.3166987611,-0.0967675166,0.0227506499,1.9681048923,-6.1353681858,0.0580823463,-0.624026705,0.4416632061,0.0661971304,0.9991023224,0.3589862526,0.4633806308,-0.5238575978,-0.6978677841,-0.9127194983,0.347551707,-2.9804230864,-0.7363137004,0.2899422419,-1.037092332,-0.545655306,0.7220692808,-2.1407400583,0.7956653224
   -0.4687003438,-0.3427855735,-0.6401335251,-0.0894874018,-0.1871103715,-1.1410285862,0.4579258,-0.8923178819,-1.0257959005,1.5518567324,-0.9717634749,0.4506686226,0.4634300497,0.7340665598,-0.4565696124,-0.8882693566,-0.8000537216,0.2362991258,0.2580771033,0.1716401014,-0.1826177892,-0.8404876768,-0.0853581846,-0.422002133,-14.1551290808,-0.458091432,-0.7928740105,-4.2374013584,0.3556522324,-0.5984792229,-1.2300823929,0.1053469221,1.2113737146,0.1682680022,-0.1868085341,-0.5258013546,0.2134910648,-0.0232134106,0.6106139299,-0.1190938168,0.5018775216,-0.2937242527,-0.2482443705,0.5365643294,0.9320398578,-0.1587509407,0.9814546201,0.6292694871,-0.627575763,-1.8653892494,-0.2080621213,0.4648263143,-0.7476717281,-0.8483974526,-0.3622461741,-0.3193129691,0.8164673229,0.0886354291,-0.6934205756,0.8112718134,-0.0464408582,0.4462709225,-0.5139916481,0.4084326229,-0.2869458162,-0.1857240534,-0.0268499545,-0.3282455377,-0.1544283062,0.8771051204,0.6129846068,-0.7863390133,-0.2447057909,-0.9809297323,0.1484181456,-0.335997767,0.4009428087,0.1451417781,0.847595081,-0.2597132555,-0.4880722498,0.2213428912,0.830851344,-0.1201229526,0.2166139249,0.4486517003,-0.0365373279,-0.700697673,0.2254797645,-0.3769882883,-0.3689779449,0.0831835523,-0.4914534816,0.3229168418,-0.7685050366,0.4623789496,-0.6663569651,-0.7327525164,0.3829120326,-0.29931231,-0.8983456469,0.0524873043,-0.8214387673,0.6536261963,0.7442008181,0.7090361462,-0.3318051893,-0.0335117656,-0.126784201,0.7558015808,0.1221719454,0.4801597171,-0.4425073437,0.435170585,0.812610763,0.0021088206,0.0274138259,-0.0390770492,0.9319937369,0.1899459675,0.6127732221,0.8037598733,-0.7708776024,0.5619918506,0.8933939952,0.1748880782,0.9995605521,0.2350533587,-0.7842317991,-0.119484013,-0.2321744804,1.3681765401,-0.4502352827,0.2886461271,0.1395860613,0.9316014116,-0.2737685252,-0.7916673141,0.2639774155,-0.8018565939,-0.8071720804,-0.897811383,-0.7871874927,0.8408147277,0.2652519936,-0.7777805169,-0.150455596,-0.8662983493,-0.5051110976,3.7692477283,-0.6687305407,0.5075192704,0.1289514741,0.8912012213,-0.8779237852,-0.8357066819,-0.0582048392,-0.1253864016,-0.0059248533,-0.6882085512,-0.9951433813,0.6751592288,0.2363373589,-0.5402675773,0.9708566246,0.0874732048,0.1338026105,-0.4090928312,-0.2674072647,-0.9307448128,0.3121685783,0.3013638377,-0.3428331485,0.9204870699,1.0360647527,0.6653538371,0.1138974946,0.0192140265,0.6049980377,-0.5392455494,0.8366230707,-0.4569065893,-0.1421473232,-0.5936346225,-0.6606042356,-0.7173532765,-0.8015424455,-0.2084727354,-0.9385795106,-0.3242766873,0.5166387206,0.9044642164,0.8549015852,-0.8681566525,-0.0495626883,-0.5735884772,-0.9216912258,-0.9509983267,0.6501103092,0.3741955996,0.7735776154,-0.1626306638,0.1024276405,0.7294700475,-0.1889678742,0.2036753256,0.1175192269,-0.8870792016,-0.9677724778,0.5948387684,-0.1634907901,-0.0461173691,0.9745525964,0.7361435675,0.327788992,-0.2402918742,0.9712857441,0.466115883,0.0650249977,0.4389139399,-0.8930667202,0.6218704589,0.3474873751,-0.5932047707,0.1497258466,-0.2752950076,0.8725224205,-0.0396843082,0.8069414244,0.3736099787,-0.9355926858,0.4023486733,1.4873591946,-0.0090020198,-1.4591075973,-0.5294141078,-0.0812070497,0.5959189638,-1.021576539,0.9086234131,-0.5483308957,-0.2261630081,-0.2794027757,0.5133540144,-0.5962529507,6.2934394066,-0.5699101424,-0.4739009864,-0.8504192406,-0.3574608509,0.6324067524,0.5412622337,-0.3668345356,-0.8222273947,-0.3675510985,-0.8020572484,-0.9044803436,0.9894262304,0.8231333857,-0.5274677617,0.1153473866,-1.0569460529,0.2798569385,0.9804974183,0.3142077175,-0.8510384922,0.7939248528,-0.6562668291,0.2530509326,-0.9374634856,0.0667548492,0.2947187058,-0.2490714596,0.8318001547,-0.5852856802,0.0902876878,-0.4193239933,0.1084972757,-0.0838518462,1.1024553369,-0.1033034886,0.9610045331,-345.5159136609,-1.5009364163,-0.1191688514,0.6898251373,-0.4114753555,0.0273922146,0.7607262394,-0.8999785911,0.3805116317,0.1453978033,0.8281517587,-0.0485746999,-1.7162612502,-0.7151940541,-0.520303021,0.1348424655,-0.0365024225,0.764658305,-2.7688466018,-0.2659365535,9.7847081281,0.5271739485,0.5190322918,0.7580083118,-0.9132853737,-1.631196413,0.8214059229,-0.8784759116,0.0964240449,4.7243017035,0.4739132475,0.3833683272,-0.1121596596,0.7019409024,1.4982442718,0.5606011498,0.0708166539,0.6701475234,0.0724548488,0.5527818508,1.4450473581,-0.7946178649,-0.5910114799,-0.0474291906,-0.9191946881,0.3390162286,1.0138270796,0.2835960806,-0.5964416683,0.4300953263,-0.0672517075,0.0871875238,0.4463883881,0.5038956914,0.9181220933,-0.6925253327,0.0232126702,0.2371100117,0.8299317266,-0.4416598179,0.9661755658,-0.3579759322,0.841609531,0.3470879849,-0.7714626211,0.5022097069,-0.2057894446,0.5064924962,0.7462172945,-1.7320753717,0.3072874893,-0.4997622172,-0.6764522461,0.6647077403,-0.4086199195,-0.4579697535,0.611973685,0.4846249875,0.7467887238,-0.6445064587,-0.6134656514,-0.529849452,-0.8070237608,-0.3952727349,-0.1839431418,1.0641512129,0.641748832,0.5860129482,0.5532694565,0.1058803821,-0.3756731643,0.4414817785,-0.2107124992,-0.0658096853,-0.0168361277,-0.3641532048,-0.6605145399,-0.7773472312,0.2460340199,0.1837970015,-0.7875840487,-1.9743910695,-0.9608745476,2.1457627474,0.9446435319,-0.475942035,-0.0747377148,-0.9890300551,-0.7757322443,-0.7851816779,-0.1891096187,0.9788619246,-0.0324380598,-0.2556097541,-122.0653022547,-0.772018683,-0.4738820158,-0.4657578034,-0.9539361534,-0.5286122819,-0.5422300151,-0.3574847584,-1.0589308575,0.1658622162,0.6122889685,-0.0802454665,-0.743830833,0.190838181,0.2586838713,-0.0361161436,0.6676651286,-1.479797486,-0.9625184048,-0.6296038514,0.6675005908,0.1249932516,-0.1836891702,-0.8303407492,0.8730157995,-0.5634565715,0.5144615876,0.755650949,0.8509446124,-0.6216405414,-0.2035553815,-0.6574700162,-0.5263854007,-0.2233976966,-0.9176999476,-0.6518410952,0.2569176286,41.6752427186,0.4737394941,-0.9006395613,-0.493388656,-0.3845912998,-0.0509724492,0.4874067332,0.5294938653,-0.0255980382,-1.0187593102,-0.0575561528,0.3267083302,-0.3755967943,-0.091501546,-0.720717145,0.0425784754,0.5376390106,0.8041764202,-0.5871832196,-0.1777715996,-1.5852384935,0.1182777518,-0.8646134007,0.8241535938,-0.1497742437,1.2430644571,0.6097055402,0.815912198,0.1411048769,-1.3252889726,0.6357306594,0.8802709756,-6.0915044034,0.2888324965,-26.8027135162,-0.086791089,0.9678309084,0.7406158962,-0.7348361266,-0.8639844097,-2.581214093,-0.8492177693,0.2463100133,-0.5639281166,0.9000246995,0.3083287772,-0.5716377778,-0.5340722948,-0.7030864683,-0.2963397138,-0.309376592,-0.8655030686,-0.6261195099,0.5003046838,-0.7023255651,-1.2934798496,0.7563978343,0.563615977,-0.8171577388,-0.5038054012,-0.3475553001,-0.4402981329,0.4104827813,-0.6103159749,0.4773042265,0.8626650404,-0.437418021,-0.0066500274,-0.3312160534,0.182669442,-0.8360059912,-0.3435249497,-0.8719633776,-0.3385652288,-0.5249223996,-0.8349542977,-0.2048549444,-0.0330459738,0.165851282,0.7114988195,0.0006868074,0.7714643321,-0.2623596859,-0.9716128834,0.6518207952,-0.4170855855,0.5660784533,0.2370144206,0.4762342806,0.9093185716,-0.9159286469,-0.0110764817,-0.4506384432,0.1618819801,0.1489282765,0.7609880657,-0.1908447888,0.0949002556,-0.3002179203,0.3744687044,-0.5425416875,2.1507945142,0.1932997498,0.5452177271,-0.4711374165,0.0949388494,-0.3153819273,-0.8415326593,-0.9074252517,-0.4423959317,0.9889818317,-0.9190823839,-0.132496377,0.2512736941,1.3046619748,-0.5816525275,0.0688123806,0.4803760388,-0.0863406495,0.8909931462,1.1741822696,0.2884954153,0.2611831718,-0.067183675,-0.3524064121,0.3686904718,-0.6852810076,0.9477942611,-0.7396070797,-0.5008133663,0.2945754474,-0.0196964714,0.457070238,-0.520468896,0.4161210374,-0.0244127979,0.1304650962,0.3469770453,-0.2311054865,-0.0980855893,0.0926937215,0.2477754284,-0.6851070273,0.0755081172,-0.4786132218,-0.716808552,0.4462938132,-0.240813783,0.7237005873,1.179973714,0.6921045484,-0.3493440661,-0.217351032,0.2640133342,-0.022168691,0.172318989,-0.3802691751,-0.1029103552,-0.8422224847,-0.2415647813,-0.6287904252,0.4400438198,0.5363087611,-0.7681587678,0.6747721727,0.9522361029,0.649591914,-0.5675996666,0.007427474,3.9766361751,0.7237417234,-0.3133177557,0.5972716581,0.4560124741,-0.1581783118,0.9931940166,0.9640503025,-0.7914810608,0.9893414134,0.0883799021,0.1679680524,-0.3210384079,1.2950199391,0.654001692,-0.293995734,-0.3300220196,0.161123684,0.6660228618,1.1531465816,-0.6649424684,0.8664371752,0.8517875392,1.1505714542,-0.3237552893,-0.109429449,1.3861720474,0.8917063605,0.9760878108,0.4154137046,0.753055402,0.3380382093,-0.4277372292,0.5681951527,0.6011963733,-0.7627809186,-0.098736922,-0.4819321011,-0.3831599773,-0.943189776,-0.3698070745,0.0698826586,-0.2716863061,-0.7088695225,0.8821948697,-0.524992069,0.3057292399,0.1800178099,-0.2041760065,-0.8483155919,1.1442856824,2.6231988237,-0.7797048364,0.6673182033,1.1285319197,-0.2767307805,0.2903452782,0.0729596423,-0.7490197317,0.0283985076,1.2015003176,-0.7479285719,-0.3573257531,-0.188539299,0.829330801,0.6390756179,-0.2368998727,-0.6640449204,0.3249222925,-0.3190434477,-0.383314283,-0.3605782342,0.7296287249,1.0396281728,0.1269822446,-0.5267008625,0.9961121018,0.8411435322,0.7750595099,0.9974690611,1.0947885256,-0.4233565952,0.3162528959,25.268575327,-0.082101498,0.8835059372,0.5177962955,-0.339641494,0.7530570705,-0.482621916,-0.4081915922,-0.3343813836,-0.6978326336,0.8860058343,0.9159070346,0.8226169719,1.6568644494,0.3151088475,1.7657260715,1.0260115819,0.9212350566,0.7025491268,0.5772512549,0.4932963306,-0.6700630984,0.6039558364,-0.4908206665,0.4235102681,-0.3072385733,-0.8710576003,-0.7870446634,0.4606718309,0.4874698669,0.6239403894,0.5500330908,-0.1587248329,0.3639320933,0.5892280537,1.0202774402,-0.4990945786,0.2155109445,0.0058885277,0.7215096931,-0.2277934906,0.4952245704,-0.6443597924,-0.2449167991,-0.7621434995,1.0508362236,0.2194160476,0.2648934593,1.1098040292,-0.7501502608,-1.0517754208,-0.0125775431,1.0263606136,0.6039253887,0.9312306167,-0.0609350619,-0.6992833622,-0.8145973579,0.6038215454,-0.3016168064,-0.4696301471,-0.1690177305,-0.4527253675,0.1542605331,0.8063357937,0.5061500429,1.0598791488,0.1444163333,3.7143754716,-0.2813825194,-0.2626088941,0.4906477531,-0.1795426035,0.3207026711,0.802576566,-0.8555597697,0.1898170138,0.7222996066,-0.61325367,-0.2356477844,0.4532833413,0.4969424656,2.0787453445,0.2430247028,0.8612467407,0.8041600813,0.559739632,-0.7032668426,-0.3760852764,-0.3694931703,0.6563667739,0.9098451012,0.1191278744,1.1857270453,-0.1583216451,-0.4511079292,0.3225862412,-0.0238441868,-0.1914715642,-0.2118925953,0.533489337,0.0048681396,0.1627182814,-0.9888795111,1.2026565711,0.3329862841,1.076887298,-0.7342320682,-0.9146084999,0.4985868561,0.1168752882,0.7161602289,0.6717906916,0.3303491741,-0.7116867116,0.7570797409,0.9946664367,-0.1596639208,0.5222459794,0.9913521012,-0.0627038372,-0.6232840224,0.9172735387,0.4447180856,0.8001822186,0.7236434728,0.7301001846,0.5313739146,-0.3255742448,-0.4783339232,-0.1704606274,-0.4818197556,0.29820039,0.0888224068,-0.4244228835,1.0103234133,0.7423641196,0.6469369312,0.6483036384,-0.9491633131,0.9715452632,0.3216592363,-0.7924797819,-0.9509656559,-0.1905178736,0.6686711472,-0.4098987232,-0.6045428997,0.6059846426,0.3644612773,-0.0729207583,0.6860203859,-0.251128942,6.0309843306,-1.0053489526,0.8139841806,0.4465842276,0.550552168,0.4947003841,-0.9060434816,0.5471383754,0.3285109596,-0.308216497,-0.551465852,-0.6663341168,0.3205436307,-0.7591166411,-0.3342047208,0.4018693432,0.9917185912,0.5871851809,-0.6485696865,0.6824284694,-0.6564205927,0.1926554717,-0.548646204,0.3143435992,-0.2633565131,-0.8375207525,-0.5034396848,1.1103181801,0.2721731522,-0.2025242945,0.659581988,0.1908235416,0.777588852,-0.7205199122,-0.7878453755,0.7875455189,0.3152399507,1.6142469063,-0.6235467693,0.1634203938,0.5824797068,-0.202188389,0.6560415767,9.2759945605,0.0266280946,-0.8254053001,-0.2653540114,-1.3136337479,5.0667398257,0.5478509261,0.3991838865,0.7342805334,-0.9626659304,-0.9094468513,0.625016921,0.109770808,-0.6601534132,0.3441302527,0.4264220434,-0.0588573696,0.818828471,-0.910924458,0.5931308761,0.6990844843,0.5741734068,-0.4349053729,2.2333141329,0.807315076,-1.180929247,-0.7968581333,0.6599120161,0.0037242899,-0.9937930321,-0.571084376,0.7052095075,0.6294829519,-0.9218358384,-2.4680840862,0.8131097619,0.8715430571,-0.1505521821,-0.1738344734,0.2396326165,-0.8430136261,-0.6739727765,-0.0408007532,0.0644000392,-0.4618323825,-0.6553139318,0.0261561535,0.4126144788,-0.0688070343,-0.5482921392,0.0820174241,0.1221885341,1.624634371,-0.8873484944,-0.4725121987,0.508797169,0.6122730395,0.3555338372,-0.3312238778,-0.2765865938,0.7558076602,0.6408416137,-0.4199253973,0.8510516211,0.9248346252,0.3489433015,-0.7328597414,-0.8900995106,0.3799754033,-0.3570891541,0.9251583144,0.7144525786,0.3936136604,-0.5139597506,1.6836716296,1.1603370757,0.583692505,0.3869647431,0.6177455598,-0.4523436611,0.4698005823,-0.0805816525,-0.1912630835,-0.4857869766,0.8868158416,-0.4451918512,-0.6737969608,-0.5764669988,0.8700215075,-0.2927031097,0.9255720604,-0.5810355689,0.2920838413,0.7233797978,0.7310937912,-0.2021673746,-0.6742614074,-1.0243931937,-0.9562965184,-0.0317706994,0.1260648463,-0.8304438255,0.0575428647,-0.1096613614,-0.7952829934,0.5777542941,-0.8352739056,0.6623021648,-0.5472191168,0.4736392395,-0.3533314401,0.3210322746,-1.0160606488,0.0929614329,0.1298211123,-0.0919683443,-1.0192338595,0.4899605128,-0.4718984139,0.2931143759,0.0312223989,-0.8581038369,0.5938586304,-1.3598326664,0.0546671809,-1.0703366423,-0.8415635738,-0.2810675737,-1.2648202413,-0.7264245989,0.7304292059,0.0542389173,0.4856094322,-0.7659119495,0.3848419788,-4.7823127076,-1.0844851166,0.0148904899,-0.5266120702,0.5577219583,-0.8750599272,-1.2260433019,-1.3049502631,-0.0473247557,0.8525749519,-0.374464308,0.2683001758,-1.4211603395,0.6694581936,-0.8004541573,-0.4136477842,-344.1218679115,-1.4455020304,-0.2607823686,-1.3164577612,1.5269949416,-0.5158117125,0.1862188119,0.0056412333,-0.8149028825,-0.275131486,0.7442674403,0.8075014659,0.7027620085,0.8895390701,-0.1924579371,0.8865273576,-0.9493954514,-2.3813897937,-0.3312278529,-0.485557229,-1.0553519498,0.1620700844,-0.3754441312,-3.1477426884,-0.1498898574,0.0238169179,-1.2866997017,-0.6935677452,-1.323717933,-0.828333984,0.6308809654,0.3968067483,0.1048872102,0.1136488306,1.0505266881,0.8733985721,-0.4025968277,-0.4828877024,-0.4228691167,1.1590638909,0.2732021893,-0.339575474,-0.3907917116,0.1259798972,-0.5801038107,0.9430842068,-1.1436833531,0.2062180248,-0.292251084,-42.9429609451,0.3816565989,-0.9380887905,-11.9297777,-0.3735895024,0.5585504948,-2.6342700127,-1.2726691986,-0.3910628986,0.8023047279,-0.2553664079,0.2220634627,-0.3184308747,0.2420299115,0.6003975252,-1.6448503433,-1.2133158656,-1.0858424274,1.2500132284,-0.6276065512,0.5508162405,0.1319087218,-0.8175684781,-0.6375951579,0.497047009,-2.8169711768,-0.3972388876,-0.1227627995,-0.7208785633,-0.1882633538,-0.2037326336,-0.205269795,0.3577639271,-1.0648271289,-0.4619161486,-0.6742955468,-0.8590146354,0.2153525519,-0.5471211772,-0.3141481273,0.3789838638,-0.0764464383,-1.0004155162,-0.866356507,0.9256234815,-0.8186803919,-0.438422539,-0.254464409,0.4633115686,-0.6342985042,0.1603132179,0.4915137,0.4724843257,-0.0712220013,0.1381608824,0.0163028413,-0.8944265214,0.0690248445,0.1897831925,-1.0212083179,0.1378381863,-0.6885399087,-0.2072536551,0.3412489379,-0.8167811501,0.6092684973,1.4888055871,-0.4077934158,0.9373087333,-0.1698217127,0.0821800557,-0.5163311239,0.5473941482,0.1332382026,-0.4856592258,-0.5851436377,-0.5843226768,0.8685566134,-0.4758022692,-0.1613012479,-0.1309042504,-0.6195410926,-0.4074679095,-0.577522315,-1.0212597553,-0.6556828362,0.0923165912,0.5517167286,-0.8844859291,-0.8113186247,0.5229041658,-0.4613335916,0.3302382827,-0.6391949382,0.2872221029,0.5653325103,-0.2373482415,0.0888766549,0.3979823644,-0.0618242533,0.4878548521,0.0715460707,-14.8324692368,-0.4794877736,0.849381932,-0.4676772633,-0.2094547168,-0.8223435922,-0.5095509407,0.8947886427,-0.692165967,0.2593047839,-0.6945826913,-0.229691683,0.9532947866,-0.4879004048,-0.5087830213,0.3014136522,-0.0012219194,0.6130448879,-0.3651972118,-0.3182817648,-0.6211572418,-0.3128734837,0.8685624535,3.7962911074,-0.4499311376,0.4326132797,-0.9441655902,0.1956817802,-0.5076176179,-0.8526046741,0.2111956074,-0.9736360321,1.0744041795,0.6098958549,0.1458921392,0.8269238043,-0.1351679478,0.9358675457,-0.0255999244,-0.1501468441,0.6873162648,-1.0497505764,0.0313580842,-0.854520658,-0.488489094,0.2377797782,0.5099919985,-0.9755473016,-0.3931116664,-5.9634109022,0.5723487798,0.7754662148,-3.6243731131,-0.0066251387,0.8715171921,-0.256935018,-0.9096981594,0.4557415103,-0.0347058275,0.0299191425,0.4128751557,-0.387600892,-0.2048332193,-0.546486507,-0.0458912957,0.5009135462,0.2906399272,-0.8179836526,-0.2586448735,-0.4503964183,0.6769984223,-0.9831744078,0.1612710083,0.6805745194,-2.9065545756,-0.6637778187,-0.3043618183,0.0201483429,-0.4335011524,-0.3766689819,0.0183149273,-0.8736988445,-0.3872132439,-0.4084106313,-0.6152202066,-0.2514940218,-0.4656008989,-0.1715334603,0.6489540094,0.2991326071,-0.0077794497,0.996552719,-0.3479742436,-0.6542951522,0.0259487908,-0.024641464,0.1976208694,-0.3819029065,-0.3285366526,0.4576967222,0.441674156,-0.0752912271,-0.0283929468,0.3402636958,-0.0145740551,-0.8098627118,-0.7260014645,-0.7240531999,-0.0609980774,0.7587110612,0.6371613285,-0.2608448625,-0.1603324049,0.0551907053,-0.3243671881,-0.500540164,0.8297690668,-0.8782433755,-0.9256365494,-4.5899013569,-0.3665596858,-0.2078691402,-0.1258124986,-0.4436109108,0.3370080652,-0.0710111571,0.2075631425,-0.8958707911,-0.0171807294,-0.2121661544,-0.2876579954,0.8301409692,1.0704771398,-0.6052089702,-0.2260419345,0.3637961433,0.2875225319,-0.193877585,0.7283171116,-0.3158850844,-0.413484475,-0.282718225,-0.3794304147,0.1805717708,0.6263013853,-0.9487278916,0.7318315376,-0.0865530378,-0.04434118,-0.4454260187,0.2312046231,42.1231729514,-0.2112383169,-0.6024021717,0.7638397375,-1.3376109334,1.7184537462,0.0202708384,-1.0471561536,1.0548267748,-0.273417737,0.7146362847,-0.3364987435,0.1182991849,0.6355327299,0.2541937281,0.5819361553,-0.6115439838,1.0038541704,1.0951749955,0.6898018577,-0.2310203383,1.0844063668,0.2793877056,-3.1605452137,-0.521962721,0.5040773689,0.228924603,-0.5997314032,0.8094406231,0.071936023,0.2852664375,0.0565431766,-0.3516430985,-0.3191606325,-0.251456126,0.5642235659,0.469671934,0.7624961407,-0.4034132116,-0.7158601658,1.047136441,0.4334522647,0.3163077839,0.301172421,-0.8132667522,0.5793697751,0.9879040906,0.2017312923,-0.6947911613,42.3540768738,-0.7064652078,-0.7207248251,5.2958048724,-0.8202854441,0.187098343,-0.4005948921,0.4730816305,0.9317797921,0.905282312,-0.4462349711,0.0766395782,0.4173774969,0.0671844722,-0.5949808851,-0.5729041413,1.0725122925,-0.3750316357,-0.6859647797,-0.1827581236,-0.1620091382,0.0193008916,-0.42721057,0.6550937843,-0.9636296946,1.769101766,0.3916539507,0.1606203316,0.9478621791,-0.5003142985,0.7996524264,0.0535871169,-0.2480718266,-0.2749481066,0.4789302073,0.7572968453,-0.4620144019,0.9275233588,0.7331179854,-0.2780477446,0.2895964455,-0.8415877128,-1.012081992,-0.8547058425,-0.072930402,0.4410899843,0.0628337837,-0.0175048474,0.3888884488,-0.0810340303,-0.4474198719,-0.0313091351,-0.6403810883,0.317291754,0.0536228268,-0.1368054343,-0.0412245401,-0.6302000793,-0.470768164,0.3705589723,0.8388750999,-0.0398108722,-0.5005833786,-0.6866888741,0.4624505674,0.5242720216,-0.7838638504,0.4669433426,0.2899244611,0.9673243798,-0.2250195454,0.1487261453,0.7937527944,-0.2939267033,0.6192561782,-0.8342723129,-0.4086202318,-0.062193275,0.0777438058,-0.1636826928,0.7079892315,0.3430716485,0.5030183455,-0.4890816686,-0.1899859782,0.2381441575,0.1810185663,-0.1609852034,-0.8849785168,-0.6590636725,0.5310900731,-0.8477735264,-0.9232243414,-0.4734548433,0.092717012,0.3466765598,0.2301682648,-0.2273997896,-0.1188099788,-0.7929506226,0.4189986547,0.3867722875,-1.4119813286,0.19386963,0.6117312783,-0.9696233927,1.073293007,0.342739374,0.6027001111,0.4539118003,-0.4378244216,-0.6899406331,0.8944870429,-0.5224840182,-0.6412353896,-0.5971782619,-0.0022655806,-0.4149967485,0.1588554064,0.3910168883,-0.2362564931,-0.2566427613,0.6710716985,0.4490446186,0.9230492623,-2.6136217197,-0.7933252931,-0.3998295436,0.6448256257,-0.9326762687,0.1319747722,-0.6131391589,0.1291844526,0.0596326399,-0.8878924894,0.6520284937,-0.5864013048,-0.33159494,-1.0493550747,-0.808507025,-0.6380821297,-0.3844185945,0.9205185032,-0.6914748905,0.8379374869,0.8953942116,0.5861639015,0.1892824816,0.7138324907,-0.1188771938,-1.041948838,-2.1209416712,-0.8823543647,-0.4123807423,-1.1465853546,0.0382679594,-0.0503198643,-0.5628568682,-0.3764192723,0.1036290038,-0.4521826876,0.7014906796,-1.0735899653,0.7792129634,-0.9285508244,0.169536417,-0.3220004706,-0.7443794936,-0.1329119549,-0.6302771778,0.4727643339,0.1340712566,0.0417387909,-0.3049046692,0.7186731468,-0.8151558438,-1.7271639401,0.0272837559,-0.5473910361,-0.3271665601,0.1621399831,0.5526324844,-1.032732419,0.4774650528,-1.0028331292,0.1910933174,-0.620798003,-0.6618077086,-1.0156124392,-0.7660895324,-0.8295484159,0.8071047351,0.0615458677,0.3554583237,0.6086126352,0.2850986291,0.2508959171,0.7506278314,0.9804570638,-0.1252683526,0.7653099707,0.5738226396,-0.0823474392,0.6889960168,0.854055602,-0.011844285,-0.5764973339,0.4258297894,0.8025625904,0.8147397752,0.2737809511,0.5616693951,-0.1201766222,0.3229683038,0.4053681475,-0.7372306277,-0.8353445436,-0.8898692724,0.537358168,0.2433261495,0.3322843683,24.8023586046,0.0610832484,0.3535068155,0.7085337159,-0.414065854,-0.4712759952,0.0957292696,0.0683267237,-0.7476814469,0.1694634312,-0.891535486,0.1712507965,0.3583420307,-0.7327008406,0.0073118652,-0.6822797146,-0.0938082673,-0.4009221727,0.9273196977,0.6614746925,0.4760651167,0.2588796376,-0.7406782314,0.1524974923,0.6757339657,0.2377477694,0.8122956764,0.3277007823,-0.4019422839,-0.7108274101,0.5560066679,-0.6024195913,-0.4097653244,-0.8105957889,0.097387916,0.6831882231,0.3010939554,-8.5228209068,-0.6204110997,-0.6192036415,-0.8190880389,-0.8071765321,-0.6332863968,0.0909151021,0.1132824035,0.7389136298,0.4468198825,-0.3779704288,0.7427536716,-0.3684891027,-0.2025668158,0.8513143835,-0.6653014196,-0.0842608135,0.2693762627,2.3553551949,0.5854132112,1.4511536826,-0.0133085321,-0.9560760129,0.2438860812,0.5802275602,-0.4495303054,0.9742057519,-0.2422417965,0.6518937779,0.0928175876,-0.3025116889,-0.1498311358,2.3432121949,0.9840468336,1.8655606369,0.4467905497,-0.1968200966,-0.4428178535,0.4760030431,0.8249405584,0.6358791714,0.6758470897,-0.1619936354,0.1405687298,-0.6903481968,-0.981805576,0.8411039331,0.3414015017,-0.131453333,-0.5031212369,-0.1242859192,0.3231806156,0.3410425669,-0.7547117815,-0.0676720185,-0.3590967301,1.00756073,0.2212158412,-0.3397403496,0.6007744137,-0.4118026939,-0.1319761626,0.3172939755,0.5526181591,0.6633262968,-0.3373117136,-0.6446773883,0.9515914935,-0.0174431548,-0.2101912934,-0.7111024284,-0.3802362692,0.9329504054,0.1416382596,-0.9590269141,-0.8192964158,0.325338883,-0.1033046046,-0.8354170414,0.8778857877,-0.1642116491,0.4784604551,0.6289391097,-0.4929652733,0.2313106747,-0.0698664715,-0.0234649594,-0.9853681843,-0.9454125141,-0.0296194155,-0.4937032934,-0.1082540443,0.0842352847,0.1062227791,0.3266302418,-0.2651544744,-0.6831309272,0.248604301,-0.072862381,0.5337360518,-0.2255091157,-0.9668960312,-0.9895093826,-0.5782926259,0.6753116025,0.9102213895,-0.8460818998,0.0962523,-0.8489172505,-1.2376792652,-0.5510736003,-0.6621916308,0.3913667683,-0.6049222739,-0.8455542161,0.062453181,-1.8531260659,0.6045715059,-0.2034298523,0.3858571078,0.4351975623,0.3864645861,-1.0975370467,-0.6233329131,-0.0159184919,-0.666603674,-0.876855335,-0.0843302736,0.1195287811,-1.0737355827,0.2937193977,-2.2066015924,0.5392129444,-0.9884654712,0.7296432227,-0.183723689,-0.0926422722,-0.3579603779,0.5359765708,-0.704042903,-0.5604124263,-0.127315049,0.0517875792,0.4324152579,-0.7561853816,-0.8241089865,-5.4054923372,-0.2011860438,-0.7726870834,-0.6252853528,0.8600483588,0.1046951023,0.6840376041,-0.3302524276,-1.0457299775,0.4825024528,0.8790809428,0.0905287038,-0.7753512979,-0.1430141836,-0.0135884874,0.4367245442,0.5380873209,-0.2207543656,0.3118780125,0.3100667025,-0.474985377,-0.4004983407,-1.0450544059,-1.6306953521,-0.3191929339,-0.623692298,-0.0582625018,0.7971423817,0.6473395621,0.6586102078,0.5837123615,-0.0700088092,0.4730253951,0.6094505697,-0.345186022,0.0971680494,-0.1242655651,-1.1337877107,0.2887593132,0.8512637871,-0.3523665593,0.2524576913,0.0964171422,0.4253221058,0.7554750255,0.0186128815,0.2111873843,-0.0042752911,-0.8289504473,0.2325568765,-0.9828262767,0.4021521239,-12.7571853052,-0.2167614276,-0.9601690237,-0.8082414053,0.3203188361,-0.9435426941,-0.6117643703,0.6141456099,0.537082299,-0.1129984483,-0.1766884276,-0.591884556,0.5148661422,-0.0286890482,0.6228820239,0.1828191462,-0.842300795,-0.5917068411,-0.8718140413,-0.7087248525,-0.5668985283,-0.8884288516,-2.5325605529,-0.3562004691,-0.9957357288,0.0325582271,0.457659646,0.0532205296,0.5217592059,0.1520226547,-1.1980073242,-1.9432183952,0.0006761524,0.461527617,-1.0110777994,-0.9717843467,-1.2190982108,0.5241936261,0.0857583156,-0.2366284566,0.7199419391,-0.5472156565,0.9076437261,-0.7590864952,-0.7363646134,0.5695654834,-0.5484886745,-0.3963465584,-0.2252591372,-0.1784389891,-0.4974249012,-0.2211335239,0.9043498514,-0.7415978175,-0.3616102955,0.6351361919,0.1779548984,-0.6506239567,0.7084277883,0.6768798284,-0.6718089247,0.9039005264,0.3544964515,0.5266727517,0.1105995084,0.9284962192,-0.11341669,0.1407587593,-0.7557997078,-0.3301520149,-0.4625863394,0.6273997379,0.4059804917,0.9458157976,-0.421407974,0.0003646108,0.1755623289,0.1797065191,-0.926295367,-0.663587602,1.0720253678,-0.0591668442,0.9416036915,-0.1683590257,0.4840841592,0.9190623945,0.5042918639,-0.4050672471,-0.1189428812,0.7462670427,0.0391854544,0.735198574,-0.7436854549,0.9974912118,-0.1652191894,-0.9123593732,0.2196824743,0.575567073,1.1755922128,0.6622763718,0.7965326999,0.8817995458,0.4258879642,1.0406040327,-14.0863132625,-0.3320150763,-0.6772089649,-0.173479514,-0.4155403531,-0.6826474153,0.4002952843,-0.2092818493,-0.9320986772,-0.6995283573,0.5213066794,0.9632503641,0.019587227,0.677814796,0.3694692307,0.4731985298,-0.0261903056,1.0925098818,-2.2462853477,-0.9094859914,-0.6710169905,1.1809687529,-0.3647661011,1.3190242133,-0.5425337365,-0.1021602497,0.4805655198,0.1668902131,1.1332328588,0.8955591009,0.4364235715,-0.8011180965,-0.2214951926,-0.9896783251,-0.1622151552,0.5975746061,-0.6400797667,0.8307196867,0.9897503741,0.0674105254,-0.2480370378,1.0236139491,0.7748840541,0.5227430349,-0.0328352096,0.5407884463,0.0050899884,-0.0372560697,0.7917228368,0.1396281106,0.4402712628,0.8067500271,-0.5340053094,-0.61559608,0.2601600637,1.1544650513,-0.4436331689,0.1388251883,-0.1524712672,0.2752998856,0.1267561701,-0.451612872,-0.1287472045,-0.6341077695,-0.3102541889,-0.5085576398,0.5425210733,-0.5556191163,0.6637778988,0.9709180992,0.7406456292,0.2371053123,0.5793076125,-0.8784448603,-0.2935083505,0.947893976,-0.7992912815,-0.0296498246,0.4854488346,1.0797441805,0.4734493275,0.0857173719,-0.2548160475,-0.5895662466,0.1346143555,0.1816523591,0.9947699178,-0.3345015748,-0.4625900633,-0.8477823318,0.3833066185,-0.3144531734,-0.8167175186,-0.5410985972,0.5607322158,0.1449060359,-0.2169822628,0.9214519206,-0.7737291796,0.9766831361,-0.9983840516,0.4067104355,0.7901857882,0.3390652166,-0.4736459197
   -0.2772678592,0.7503088839,1.0221681403,-0.6177484186,0.5020735152,-0.7864545937,0.2727662458,-0.2272649553,0.6248546343,0.9642397707,-0.9721367862,0.4749116675,0.599694251,-0.8861894245,0.7097766985,-0.1995032978,0.3686623642,0.4024225995,-0.9208120358,0.6566698298,0.5455141522,-0.9131170625,0.5432188498,0.3803136768,-0.8060897789,0.4461870845,-0.4392566272,-0.0649226442,0.4333057988,0.6281194992,-0.1842191638,-0.5986617031,-0.4293172378,-0.6534831215,0.3499285185,0.7659635923,-0.188754713,-0.2072919062,-0.9569087764,0.3764533323,0.1211701532,-0.046107469,0.7453269917,-0.1046868403,-0.5672307555,-0.8086149674,-0.2051402472,-0.4545182199,0.9611657544,0.5815482629,-0.2467825959,0.7339890458,0.2703144603,-0.5525371933,0.7092905995,0.3549850053,-0.3209322157,-0.9875749839,0.8543533942,-0.6306321043,-0.660837367,0.1273684001,0.4640802959,0.6490273555,3.0310309953,0.2887954013,-0.101174786,-0.5596027924,0.2412612453,-0.9768551684,-0.1778935004,-0.0092297916,-0.1350637763,-0.2247106879,-0.7770844671,-0.0832222624,0.341894848,-1.0288093183,0.4124076936,0.4043268996,0.0369550505,-0.968695299,-0.2440891529,-0.5848892947,0.1493958296,0.2736234103,-0.7462184449,-0.368574704,0.0993923715,0.1910853596,0.9144784599,0.8468459127,0.1647863798,-0.4132711051,-0.3781918741,-0.7467541596,-0.6548453508,-0.5259291577,-0.3280649373,-0.83377311,-0.1390644404,0.6963565861,0.8179901202,0.0558571163,0.4437856765,-0.2943074274,-1.0179778899,-0.3664938342,-0.6336767624,0.4648368146,-0.6812952625,-0.0208931142,0.6004367525,-0.3726408376,0.8215527012,1.216654197,-0.6913101926,0.598351262,-0.6586464374,0.5113982488,0.4254176269,-0.2797597599,-0.0988570885,0.586923393,0.0571202218,-0.2310022385,0.8664296592,0.7922252087,0.9914028523,0.8373026705,0.5221423328,0.0316864189,0.2057358301,-0.4069614347,0.0531098637,-0.6062722083,0.7828591744,-1.0206106478,0.146085791,-0.9975529974,-0.8574074303,-0.575614733,0.4085383785,-0.3152311814,-1.0572117748,0.8607108285,-0.6529260574,0.9367649481,-0.4296420059,-0.2998590635,0.6117701417,-0.7705107928,-0.6450506796,0.5735490118,0.6275719794,-0.5157151884,1.1433309163,-0.8978390587,0.8284966144,-0.6100127285,0.6427789477,-0.5364776792,-0.0281257077,-0.3644410412,-0.5028699862,-0.5899067612,0.4830798341,-0.9215779979,0.2146479918,-0.2100228408,0.6759509135,0.3511780246,-0.686035043,0.5752372754,-0.5344988815,-0.8454482845,0.7361741361,-0.7562593405,0.1558311861,-0.4457318277,-0.4711664568,0.5955146648,-0.5698171317,-0.6395466284,0.60359997,-0.1555752303,0.5793569287,-0.7678112652,1.0405657461,0.3665024747,0.2255505962,-0.2951258534,0.392112364,-0.8787611168,0.3295643489,0.6320224733,0.7781238567,2.8158076088,-0.5599197063,-0.4542674593,-0.8270592284,0.860282124,0.134596611,0.1791042337,0.7949534952,0.8438795393,-0.5123107468,-0.5613212602,0.5166017024,0.5842147299,0.4428294103,-0.057929887,-0.137465329,-0.9892599442,-0.6545619083,2.7023403744,-0.854487524,0.8512507989,0.6589911006,-0.3941742468,0.9405855664,0.0567189814,0.80143278,-0.7095442376,0.0604546469,-0.2050975202,0.8636533112,0.7424183151,0.8671140224,-0.2167128912,-0.8890424799,0.4111725131,0.5494151286,0.9724248201,-1.0014057164,-0.6868192645,-0.9918085625,-0.2695274149,-0.2493115246,-0.1223648247,0.4477521989,-0.1992380514,-0.6302477781,-0.0011499798,-0.825012871,-0.0082084355,-0.0526123773,0.1174367404,0.1066093399,0.23546091,-0.5597111301,0.2882616637,-0.582682229,0.9356717611,-0.3625427116,-0.2430017382,-0.6807765321,-0.7873810776,0.0032976922,-0.0600946791,0.4638431645,-0.8694005245,-0.2661571788,-0.6408722157,-0.9560189604,-0.9365742011,-3.1646154437,-0.715625109,0.3025498381,0.5520124736,-0.0899126532,0.230139841,0.7806129934,-0.055182103,0.3949217277,-1.044938393,0.7364083103,-0.2229476228,-0.8973764298,-0.911158028,0.0293535879,-0.7159327569,-0.9121968732,1.3105674182,0.6848304147,0.634295866,0.4535478796,-0.417863596,-0.4712526474,-0.4606817664,-0.6189278782,0.6442718095,-0.5974806661,-0.8895627912,-0.7719526104,0.2438333686,-0.6721682985,1.0661147858,1.1401365845,0.6195606004,0.5783701077,-0.1460113652,0.7664028426,0.0013648682,0.8413041786,0.8094925302,-0.698426725,-2.1915151559,-1.0563031001,0.1919223579,-0.5999860743,-0.1878849836,-0.8158413581,2.0272674314,-0.5745479981,0.9696231792,0.9991122233,0.4456216556,-0.2761274129,-0.1022162868,-0.0133319023,-0.060275734,-0.6610433048,-0.8622425539,0.95455266,0.7032740203,0.8191197204,0.7647628967,0.4615807324,-0.6761435508,-0.3313802543,-0.6297840642,0.5939398968,0.6354439028,0.284254254,0.9375441009,0.5642949918,-0.5867303589,-0.0767361736,-0.1238406038,0.1974693021,-0.1945662048,0.4671392192,1.1945588204,0.9403821203,-0.3188719546,0.617157128,-1.9775392138,-0.6919423893,-0.5405359662,-0.0845839253,0.7350676865,-0.5273208234,-0.2909161874,-0.4553690187,0.6215584621,1.0573831655,-0.0531531216,-0.423325991,0.623823804,0.5654811561,0.6985938917,0.128726983,-0.0737740407,-0.3975159189,1.0380835991,1.9738051511,-0.3785265393,-0.6655918715,-0.1308741681,0.473231578,-0.517764371,0.7371090463,0.3935092054,0.8813222479,-0.3433184172,0.6462811291,-0.3524867217,-0.266763697,0.1704014578,0.3546897478,0.2595253155,-0.0866886489,0.8578170747,-0.0118270897,0.2457494756,0.8684604065,0.6802015853,0.9466359281,0.805494741,0.9741121638,0.9714862521,-0.1667123222,0.4152734426,0.1797724673,0.6432758348,0.7269636494,1.0207221738,-0.6760953218,0.5373574964,0.5885727663,0.4240783329,1.2831005067,0.2959129373,-0.3974636199,0.4069339917,-0.8353630834,-0.0407080697,-0.3677388466,1.0999585098,-0.0408645388,0.1126873499,-0.3522120478,0.0595998974,-0.7386086647,0.3565461996,0.0427185048,2.9767677932,-0.4611323185,-0.6788089333,0.6045364294,-0.0340074393,-0.6206793392,-0.1946489225,-0.1009630575,-0.6222815954,0.9965899287,1.055224544,-0.3638463115,0.6930390839,-0.9763467703,1.0745707569,0.7430138844,0.7176868277,0.7058447624,1.0080367497,-0.0562723849,0.7727089223,0.2870634549,0.4439733835,1.6515635731,-0.8872945904,0.1326201435,1.1435833945,0.601994626,-0.6228135869,0.197123547,-0.4932150959,-0.0970591496,1.2155620229,-0.3929099034,15.5165131484,-0.1452830543,0.3277809629,-0.0872054619,0.9464594473,-0.1423372688,1.443098845,0.5603494431,-0.4071890575,0.0164002613,-0.5552327733,-0.1363493961,-0.3078428718,0.5328259159,-0.2122812888,0.0427533899,0.5721356932,1.3626016993,0.0642710136,-0.921560542,2.5416582678,0.8538146195,0.038593859,1.3086209092,0.3844901885,0.3276569081,-0.0914165483,1.3210205863,1.6363648602,-0.466266164,0.2733894024,-0.9484091149,-0.1111195825,0.5647122903,0.7200213016,0.6924339345,-0.9752967982,-0.0421308346,1.0448633729,0.4945139313,0.4080187424,-0.7234587752,1.4620655217,6.5359846867,1.5359845638,0.0995149076,1.0911406035,0.3135994563,1.2292540911,0.6978619017,-0.3854866953,1.6257495826,0.0373523752,0.6632304181,0.9605532531,0.7217978554,0.1696111852,-0.2766890775,0.7441536336,-0.4330611568,1.2940579051,1.0464488009,0.8861001627,1.1339014097,0.6998248586,1.7217999261,2.8223270823,-0.8598373417,-0.4041978902,0.1307854591,0.414053437,1.5794590961,0.8547231862,1.28816779,0.9641402187,1.0018437866,1.2536988224,-0.0063455168,-0.1767960746,5.3971266969,0.6241480766,-0.0364664202,-1.0010152263,1.4551595683,-0.6928569885,1.373399864,0.5267002068,0.2339167172,0.3761754035,1.08044786,0.7418157763,-0.3461572633,2.1263622629,-0.2210541373,-0.3179875066,2.3970833656,0.5619669135,0.0012924,0.4830781899,1.0534140262,-1.3043377904,-0.0319777015,0.6889301144,0.2858010948,0.9418764895,0.2318128333,-0.4154141645,1.1709492672,1.3798717102,0.9107963385,0.3801296279,-0.1241531768,-0.56461493,-0.7941318843,-0.4261017877,-0.7341340677,0.6517401259,2.0523955569,-0.1177672891,0.1618493372,1.767320703,0.8756172278,0.5126682508,0.9459027078,0.3528042498,1.3561825389,0.8184056961,0.0666071841,0.3798838812,0.1646363168,0.9997347295,-0.1000146751,0.2374461659,0.1330193415,0.3001648583,-0.4108090435,-0.9965011779,0.1456597887,0.5302671676,-0.588599926,-0.6773648832,-0.197966186,0.4043330393,0.3022877614,0.2770854008,0.6191266503,-0.3445023031,-0.2039193936,-0.1038775806,-0.5306242545,0.4985572727,-1.6122509682,0.9937477551,0.5314484485,0.2511004286,0.740706922,0.489833771,-0.7943484816,0.6067167106,0.2108644892,0.5610525159,-0.0538890534,0.3534875074,-0.4543430048,0.5192014147,-0.296711152,-1.0627395767,0.7605720087,0.2721640368,-0.0374152039,-0.8396539665,-0.6411512269,0.1253851043,0.0463321493,-0.1573956543,0.4282306745,-0.0758881201,-0.579317578,-1.5032651391,-0.9097119375,0.2387925086,-0.7984710428,0.0917011216,-0.1129048068,-0.4646249886,0.8534573853,-0.7242530238,0.4653730353,0.5823137195,-0.7498042092,-0.1056215803,0.0898905523,-0.1935435194,-0.0978333111,-122.1476633343,-0.8686403859,-0.9135001594,-0.4226829168,0.3914264912,0.8674543279,-0.6809099922,0.1749582768,-0.4864697551,0.2602511538,-0.5881008271,0.808345694,0.0873490093,-0.9518227133,-0.4695803522,-0.0140210898,0.0985796793,-0.8377876759,-0.9356669263,0.0036344868,-0.7975742754,-1.2039001097,0.491423448,-3.426513968,-0.1175748258,-0.2435959773,0.470720868,0.8924447149,-0.7546874934,0.4213272675,-0.3920717461,0.607286237,0.4010372474,-0.2648689434,0.5627669097,0.1212010752,-0.9653689846,-0.4591048617,-0.250208534,-0.2605670845,-0.6518011123,0.1965581563,0.4540473673,-0.5016517031,0.8252927669,1.2203162079,0.5401165536,-0.4769526376,0.4709760928,-42.5437862893,0.9741709428,-1.0659118711,-4.2810608036,0.5544216575,0.478119892,-1.3169121839,-0.7402631773,-0.5485688559,0.0055233757,0.5758503028,0.6275760382,-0.9924435749,-0.467477029,-0.8765947865,-0.9729950208,0.6634355108,-0.2482965691,3.2626606546,-1.3096695381,-0.8103300369,-0.4578319553,-0.8169324295,0.5900596825,-0.3968174191,-2.2530308275,0.5961918149,-0.1782505982,-0.4763398777,-0.350338161,0.9252409823,-0.6954505781,-0.1910275888,-0.9674022909,-1.0841565678,-0.0006230891,-0.250551736,0.3136431894,0.2491177783,-0.7853612092,-0.6511279569,0.784164242,-0.6997049698,0.3022004143,-0.1811861957,-0.3155531113,-0.5307807641,0.8664557381,-0.5114670649,0.2638427044,1.0364893531,0.8569874294,-0.1629308337,0.3260655633,0.3777930842,0.0111349053,0.6123264722,-0.2929117,-0.7600723836,0.7378316319,0.1246774202,-0.3294894106,-0.8184253901,-0.4387957941,-0.6902545736,-0.5008081641,0.5789277002,-0.4653023224,-0.6773291964,-0.5566968199,0.2327458881,0.4296944027,0.4162860794,0.8585442489,-0.2579445896,0.2555067834,-0.5023003966,0.6132391169,-0.1430288711,-0.1702461594,-0.6478200888,-0.9575869804,1.0454931448,-0.1717873704,-0.3278897567,-0.2375957206,0.5417267027,-0.3576705085,0.5594670313,-0.6996730192,-0.3169543861,-0.9107435153,0.806153312,-0.1144745507,-0.9606336327,0.3928449915,0.8424988979,0.7489985009,-0.6168663186,-0.2381241057,0.8100488548,-0.913390755,2.0182801942,0.3733594011,-0.3353998558,-0.7354847138,-0.4190333396,-0.7883941221,0.0576917098,-0.6974345869,-0.7387160148,0.2655090258,-0.7541989664,-0.0778071215,0.5258568663,0.032298481,0.8960462046,0.6695934374,-0.4860414135,1.183486429,-0.3136307443,0.833684666,-0.1525819226,0.9797636344,-0.6153359684,3.0636163283,-0.1974822565,0.0165701522,0.5905562346,0.0994971958,-0.0680499015,-0.3030504833,0.8950059961,0.0154570756,0.358197606,-0.3967265561,0.0805011582,0.3727462764,0.8330860854,-0.1997143055,0.281487133,0.328428754,-0.4937836864,0.872183529,-0.1104617499,0.4772130919,-0.6629931283,-0.0199252912,-0.0170449892,-0.2749684331,0.2672812505,0.5970086548,-0.395297989,0.3009299742,1.254242017,-0.8147458163,0.188868747,0.5707695604,-0.7069770528,0.2506883476,0.0135271153,0.5199332719,-0.4609136286,0.1594024024,-0.7633228991,0.1258766023,0.1704708424,-0.4409205029,1.004484575,-0.0314318967,-0.0758550381,-0.7330947191,0.6495863188,-0.6448035993,1.0523410303,-0.3540287539,1.2819708005,-0.5462595383,0.7172307406,0.6249449072,-0.1341170242,0.0585850892,-0.6679214455,0.7864371472,-0.6231377796,-0.8516224469,-0.3812696142,-0.1452386192,0.8134190204,-0.593504316,0.7999356125,-0.547700595,0.917694044,1.1050056683,1.0919276213,-0.0374697784,-0.0614105103,0.3004350454,-0.5403023911,0.6141020959,0.6735343978,0.5570177873,0.255992969,-0.9505735729,0.7139415777,-0.1345461662,0.286988476,0.7482686147,0.887142708,0.4056483983,5.9559154966,-0.2198985664,-0.8582899833,-0.525560609,0.5124537918,-0.4827348038,0.2269131965,0.8992726628,-0.7161478964,-0.0524052042,-0.1746872958,-0.3948651466,0.0113688833,-0.593903991,-0.1990050355,1.4936292997,-0.6678082047,-0.5247785672,-0.3935469623,0.7697895677,1.1598822515,-0.5203785773,-0.3992040816,0.6223188775,0.381600031,1.0697183204,-0.2192670108,3.7418139386,-0.1022693243,0.1316424388,0.6768681256,-0.0003483095,0.1338570387,0.2255743206,-0.2415381174,0.062204801,0.5640014967,1.1631466544,-0.2856164442,1.1484094541,-0.7389401429,0.8330424213,-0.8098457503,6.1354433465,-0.7928004731,-0.0763886447,1.1689380025,-2.7197623329,122.4289196883,2.125558201,-0.6532887933,-0.003979284,-0.5163658306,-0.1768588206,0.2228535168,-0.2874054598,0.2519641323,0.2730204943,-0.3155045301,0.9268577199,2.5088284152,0.103436279,0.0596615407,0.7395784554,-0.2801369166,-0.6275914972,1.9234399248,0.1462686676,0.3099137078,0.939699455,-0.8678058506,-0.5046154295,0.7459627845,1.8125135925,0.688784724,0.4121895027,0.7836741773,-3.323256329,-0.0228482285,4.9157758599,-0.106833203,-0.0879367893,-0.8857712338,-0.1996689828,1.1493576703,0.8020280187,-0.2221852994,-0.2955997685,-0.0141662083,0.6935965481,0.509258852,0.0197724289,0.3196007182,0.667964489,-0.0816879451,0.696146406,0.7691922606,1.1150337507,-0.4078850044,0.5199032618,-0.900543263,0.8272708542,0.9928765593,-0.5153260233,0.0709147159,0.940548734,0.7547883772,-0.3691623154,-0.1237116239,1.1275650374,-1.5221182005,0.7292125142,0.8573887012,-0.8218902591,-0.3011610775,-0.2209256176,-0.6073075301,2.6441347255,0.3639124043,0.937425265,0.8770562613,-0.1672717791,0.6108210476,0.3057984351,0.0487983986,0.9454854865,-0.0259639227,-0.497317749,0.6962836978,-0.3365106487,-0.8668869621,1.0688310665,-0.1492490531,-0.1430476696,-0.5184293577,-0.8799634998,0.1785386281,-0.7861215079,0.1728712996,0.5867588426,-0.3334286424,-0.0006716098,0.955621467,-0.0714188492,0.9895950602,0.9134267391,0.4127781516,-0.5174366941,-0.8267333231,0.6571284946,0.347545241,-5.4580092657,-0.6030613517,-0.481521041,-0.7148299019,0.2428223465,-0.3438198992,0.8689909904,-0.2246206895,0.4623002218,-0.190568389,0.591344659,0.0048664357,0.2970280225,-0.0861664891,0.196536393,0.3653528572,-0.8663338245,0.774053949,-0.1218001995,-0.091201571,-0.5261510551,-0.9849246079,0.4428474817,1.0362711765,0.048977508,0.4914679167,0.9978071131,-0.9460149153,-1.0333312087,0.7465031914,-0.2426384945,0.9155339384,0.8457508772,1.0225022809,0.6339771431,0.3953045641,-0.608548303,-0.6071359661,-0.4199495274,-0.5535626056,-0.4037405138,0.1657843474,0.3211139243,-1.0019519111,-0.7982508668,0.1250796464,-0.2299406617,-0.1886672656,-5.4350505931,-0.1650465404,0.8626356587,0.2738868611,-0.5876922335,-0.5813732471,-0.0612041145,0.9826279506,-0.4063254021,-0.6530280974,0.1573076719,-0.8457342121,-0.4032884137,0.7738641239,0.0197540564,0.3362594897,0.8692749201,-0.3794820612,-3.1462403323,-0.5003056294,2.0155128344,0.1481785725,-0.8566781533,0.9779563756,0.0398886181,-1.5757940828,0.2919397938,-1.0883416746,0.2943143219,1.6770644195,0.9548414815,-0.4543681376,-0.6049452639,-0.4413990897,0.946611911,0.0192261819,-0.3518355754,0.8002983025,-0.5951094383,-0.1163251312,0.2408178965,-0.1463503441,-0.5456189323,-0.0625979375,0.3587414145,-0.0066411006,0.5703987238,-1.0774809362,0.7401785691,0.2563548045,0.0970071394,-0.8202505631,-0.7301146091,0.3265809637,-0.6092946489,-0.421429949,0.3758995718,0.3067579588,0.6541574586,-0.2498159683,-0.2772682453,0.0627081503,1.19498759,-0.463504237,0.9068184541,-0.6580460685,0.5624147745,0.439032356,-0.8362957481,-1.1778315405,-0.6484886611,0.5264602466,0.9761296009,0.4478756072,-0.1594930306,0.0798785972,-0.6888777985,0.2092921154,0.0600849022,-0.7410502915,-0.4696446085,0.7272086186,0.7254876037,-0.6885318912,0.9859249747,0.3756526083,0.1672548268,-0.6382179944,-0.4477078713,-0.6197734928,0.8436829242,-0.7857128429,0.3902644719,0.2689627778,-0.2308458552,-0.5331944646,0.4341656107,0.3773191587,0.4855875619,0.2145677857,0.3630609373,-3.0404549665,-0.5485633631,-0.1493729871,-0.4556194709,0.0225077399,0.6461756654,0.2020746776,-0.1197668207,-0.2119251848,0.870568682,1.0472544221,-0.4592493174,-0.8098516985,-344.8184526804,0.097859711,-0.3954484924,0.2713711292,0.732765808,0.8395584588,-1.0926659072,0.4777108769,0.2626646909,-0.9357974233,0.9998771613,0.0139405741,0.6683610739,-1.1013261127,-0.4586156458,-1.0231003439,-0.1499848191,0.4125621394,0.4318366548,0.0885025752,0.0451215287,-0.1697306076,-0.9306085982,0.1939293075,-0.6623796745,-0.0076211323,-0.1438939466,-0.5862265201,0.1670164794,-0.0840088693,0.0408618641,0.6948300159,-0.9698101701,-0.0566423421,0.356890691,-0.2635536499,0.0390191841,344.0175920674,-0.3093913288,0.1079608828,-0.1746841723,-0.6760476454,0.977427884,0.5193377517,-0.7612764937,0.5713465987,-0.5386015724,0.7867806814,0.3877867724,1.3717089018,0.009987993,-0.4832286311,-0.6145038269,0.5620740584,-0.9928076213,-3.4153222771,-0.0974525963,-4.4242710696,-0.7449583123,0.2379183933,0.1158191048,-0.916125697,1.7440904061,-0.5451518975,-0.0345936559,0.7910186189,-0.3059162554,0.1205044431,0.2212961058,-24.9120851392,-0.5708104035,-16.4355095445,-0.403859794,-0.7399692438,-0.107046793,-0.280926936,0.4710766494,-8.7712931252,-0.2574906813,0.1493383948,-0.8369694816,-0.6205042135,-0.7568033178,-0.2840554721,-0.394206782,-0.1426185822,-0.3077539027,-0.3539485339,-0.5066503686,-0.8418183876,0.340927283,-0.6875811049,-0.7252908627,-0.7416040339,0.0619672221,0.4994670327,-0.4582644346,-0.0429632205,-0.0324657026,0.8021654163,0.3222442133,0.7578059713,-0.3154664204,-0.8636167989,0.643726521,0.980952478,0.1139575503,0.2669211576,-1.098975416,-0.5097926687,0.7221660374,0.1495762584,-0.2136271072,-0.0245577204,0.3791716793,-0.4657998847,-0.5022949483,0.7217673703,0.5736217335,0.8470452464,0.7331811038,-0.7825851093,-0.1493557429,0.1598030399,-0.224469278,-0.6844651005,-0.0085558915,-0.7089868457,0.9201254533,-0.3464921771,0.8604095391,-0.2402807845,0.2074575007,0.3251476871,0.8019307124,-0.8079139416,-0.2871399258,-0.2970623911,-0.1624387176,-0.4386677026,0.9482592574,0.64923048,-0.8344629998,0.190138153,0.346522565,-0.3370794725,-1.0770266597,0.6958414562,-0.0289385292,-0.9011254143,-0.8479632669,0.5618281676,-0.6079528954,-1.8786542009,-0.7172772656,-0.8481663077,0.8275324059,-0.5350800289,-0.3164121616,0.61328847,-0.9888159148,0.9664894212,0.6128201511,-0.8648721821,0.6538512663,0.6952296323,1.3879093154,0.3895497444,-0.2273616586,0.1022344743,0.2765184824,0.3558261364,0.5411337227,0.3331105905,0.0417899239,-0.5029455114,0.8142068469,-0.3090856253,0.490908502,0.0641718141,0.5148881578,0.3109441918,-0.1057643601,0.3942759092,0.5402851223,0.7544623329,0.0703897626,-0.7796173713,27.0217320037,0.8676344861,0.8512194802,0.6415979633,-0.735061772,0.6548602654,-0.9044120824,0.3558957322,0.4801391769,-0.6003378013,-0.5131274543,0.0652538794,-0.490101255,0.5255246952,0.1367865191,-0.701319433,-0.2649752391,-0.1984183273,4.0791871677,0.9249081652,0.3390727523,-0.2417469267,0.8440748853,-0.7459510451,-0.7226271097,1.0687686366,0.5215886261,0.4807879864,0.7777562747,0.3388034177,-0.1093403693,1.2352699836,-0.4105893196,-0.7165176234,0.5323002163,0.849466736,0.3938715986,0.3155516621,0.1584268302,0.4399792289,-0.9680618703,0.4075167936,-0.0127270221,-0.6084802326,-0.6793532641,-0.5378900885,1.0055449779,0.5609637054,-0.1195743322,-0.43791594,-0.3095414987,-0.3285600758,0.3380554943,0.9308035588,0.632140603,-0.89270816,-0.2252318235,-0.8671786143,-0.9019064195,0.0935176938,0.4215528307,0.2645079412,0.2154674719,-0.6884275638,-0.2679429042,-0.4498134774,-0.8116184919,0.388944909,0.7006823279,0.5018120274,0.7152958949,0.4665728129,0.1931462057,0.6270950131,-0.6077709466,-0.4153345228,-0.388571358,0.7972646249,0.7245907038,0.3702346024,-0.303502162,0.9636800758,-0.9758879784,0.4745921961,-0.1041892317,-0.898955745,-0.1628320876,-0.8333891015,0.5655216849,-1.0630923229,-0.4426739642,-0.8977792503,0.0270715379,0.2202512162,0.690726248,-0.5913892366,-0.3492694075,0.3385329327,0.0399279689,-0.2466538536,-0.8176090697,-0.3821353413,0.3032407677,-0.4782651074,0.591957905,0.9317467326,-0.3131672986,0.8326929431,0.4517093466,-0.5063758594,0.1788110413,0.7126949751,-0.895633812,0.5297471795,-0.654321823,0.1721216762,0.3266308374,-0.490625715,-0.2998360847,-0.1566335434,0.7151680692,-0.3370103806,0.2777220625,-0.9246364745,0.0157581647,0.2151144581,0.3774295737,-0.4010201422,-0.7359144234,-0.9804743293,0.5370042323,0.349490539,1.0299881291,-0.5183950791,0.4813383182,0.3080841576,-0.9778108549,0.4847346982,0.2504930632,0.9436005149,-0.7038770418,-0.2664182544,-0.4991394359,-0.6897019118,0.2157596896,0.5626155846,0.6388241045,-0.884504873,-1.012116012,-0.7808475752,-0.2122444553,-43.6780130917,0.3271179503,-0.1822129255,0.6960044476,0.5054423248,0.6120985996,-0.759419958,0.3585593362,-0.2414712694,0.7466484907,-0.0783840218,0.6447404058,0.1274444186,0.1227851759,0.3140320588,0.7078405256,-0.2812680331,0.5120322239,-2.2633431659,-0.1424549799,3.1765299504,-1.0531284043,-0.2798938636,-0.3628369967,0.1370863976,-1.1983851802,-0.2370811977,0.4984436551,-0.8660703553,-0.3280972712,0.0920972187,-0.1672084945,0.5511413367,-0.3365152382,0.4560168647,-0.3743612705,-0.256191825,0.3205362502,0.0168386535,0.7788214021,-0.2775606288,0.0222771883,0.6461190181,0.0885054685,-0.7155805702,-0.9359608562,0.0257571757,-0.6930171719,0.6368462525,-0.4927399017,-0.551717188,0.6045537182,0.4178947489,-0.0578375613,-0.4163736817,0.0407338516,-0.6182881795,0.5171432685,0.3871989545,-0.5929242257,-0.2313206497,0.191313627,-0.3933878599,-0.3850508052,0.425734542,-0.5176956633,-0.8057656101,0.3498732221,0.4736010206,0.9289219957,0.325329296,0.0252851095,0.6102591046,-0.1940117347,-0.7049483981,-1.0064987668,-0.6393689931,-0.0334172149,-0.786357862,-0.0902458162,-0.049471956,0.430462788,-0.9942392521,0.7887903295,-0.3887078215,0.1181226622,0.2032352125,-0.797189201,0.3588651996,0.4328580334,0.1044930569,-0.5688867385,0.2479796381,-0.7899330602,-0.8435648323,-0.6869284914,0.6755848199,0.6856079258,0.95742022,0.6397996785,0.686979876,-1.0029762722,-0.5217836798,-0.3066443127,-0.0059319076,-0.0973936169,0.0446708603,-0.8051177834,0.3971932127,-0.8614235742,0.3444912669,-0.8201733839,0.0280502816,-0.2637588732,-4.2236394319,0.4164679672,-0.0261600374,0.5940166995,-0.2579457548,0.4084541311,0.8067711754,-0.1835236511,1.0643644327,-0.1349315928,-0.9034442845,0.8733920222,-0.86583126,-0.4610879982,-0.5673842796,-0.9372219892,-0.1535242163,-0.3042099088,-0.8552127041,0.77620807,-0.6810789349,-0.4005463518,0.0535760053,0.3954466463,0.7535373204,0.3509551964,0.3343904587,-0.4728306189,0.1989618637,-0.5330061501,0.2834285131,0.1685823427,-6.155077671,-0.1132548759,0.7553554777,0.0182830692,1.1350771319,-0.6405869626,-0.8352272165,-0.2555926435,-0.2075125538,-0.4619256768,0.7881481255,0.4691606338,0.5082276573,0.374320376,0.8260705778,0.5093280559,0.603592018,0.3218916911,-0.3043882611,-0.5832551222,-0.9450352289,0.2331155698,0.7493599853,-3.0388201297,-0.9032476469,-0.6805066034,-0.3628649899,-0.0350049143,-0.3899177861,-0.3024481718,-0.5456816688,-0.6321647734,-0.7626303472,0.5145824871,-0.599573099,-0.0882901266,-0.24059162,-4.3271419582,-0.4878635311,-1.0931242115,-0.2430439015,0.9031358652,-0.2928339616,-0.2981751344,0.5833914306,-1.57266375,-0.5520852452,0.2385293247,0.1483886601,-1.1635501206,-0.3533071696,-0.7747199774,-0.469395897,0.1003145758,0.5466260892,-0.5923203742,0.6802374966,0.5051832071,0.9728964334,0.4317318913,-1.0833269507,-0.5029468743,0.4693118202,-0.393842207,-0.6864295036,-0.5664363357,0.1962995586,-0.7085201752,0.8591486234,0.3553331454,-0.5275700481,-0.2246435095,0.4009742694,-0.536581314,-0.9281388056,-1.0344876436,0.5033160041,0.2737886693,-0.5002078154,0.6160045106,-0.5273823228,0.7095851251,0.8571363441,-0.3133371142,-0.7601298451,0.4684639492,0.8323669857,-0.210312869,1.0060637524,-0.6150374972,-0.3510958786,0.5402237279,-0.2796182319,0.8615322442,1.0550117117,-0.5217195924,-0.1303316561,0.406565352,0.9264189694,-0.2733747433,-0.869908039,0.4212525,0.9647161439,0.4213460545,0.5309902316,-0.8587839516,-0.5904051816,-0.13783833,-0.8170154003,0.9715355441,-0.7508136698,0.7009143888,-0.2161638336,0.196805908,1.0215071004,-0.3295525794,-0.2781122839,0.156093381,0.2820703328,-0.887728101,-0.7867648601,0.4623629984,-0.4569705363,0.7884377346,-0.4546092979,0.6298949096,-0.6725602858,-0.4145296676,-0.3649842986,-0.6001408732,0.1235912792,0.2022944465,0.3863058447,0.5311465555,0.3931201047,-0.5901397013,0.2013008309,-1.1387459179,0.9797286875,0.6688964635,0.8278525157,1.0246193159,-0.6242377883,0.5414667416,-0.3916421949,0.0420567851,0.1319582788,-0.4837784627,-0.7792877945,-0.0033532125,-0.8162794481,-0.3399480843,-0.2763939269,0.8026124558,-0.852610365,-0.5965842305,0.0564251749,-0.1960103014,0.9997810455,0.6190555321,0.2242812473,-0.7759695061,0.5904631352,-0.0985421264,0.0364217322,0.2958669808,0.7987950359,-0.6001170159,0.3451775308,-0.7255806149,0.2188575134,0.2377136694,0.2557535946,0.3175346731,1.0729372437,0.5742559925,-5.5227681159,-0.3213311539,0.2585727811,-0.6848240531,0.222494518,0.8275286027,0.7918306542,-0.5632991055,-0.7377964002,0.1825724268,-0.0142698041,0.5200686365,-0.6291392531,0.4408775482,0.2770198834,-0.5197131516,0.1774985165,0.6664374184,0.992818702,-0.0835117675,0.6758419767,-0.7132494426,0.1826538062,-0.4418155846,-0.5361512199,0.5407761445,0.4362026084,-0.0929760935,-0.2703155043,0.0856329295,-0.6059842643,-0.0206382918,-0.355240559,0.5171739447,0.7355351341,-1.4600127635,0.6224387346,0.2699883937,-0.2347158916,-0.7281920402,0.2688390214,0.730975454,-0.7944782147,0.6079887578,0.8153621842,-0.6891074952,0.6407894239,-0.7094053261,-0.3775220613,-0.4775371044,-0.7078946607,0.1457322493,-0.7947430001,-0.8645178026,0.3661150808,0.1270901681,0.8087669815,0.9093134751,-0.4396641717,0.4918835407,0.9235143544,-0.6010699905,-0.8019300596,0.8524662529,0.4750331363,0.5386803273,-0.6578255043,-1.4193019437,0.7973123158,-1.1006275339,-0.895076082,0.0165983711,-0.9976773345,0.196332241,0.2807639684,-1.1774869797,-0.2985746773,-0.9061469873,-0.0711567745,-0.9478717521,0.3954915321,0.0418124832,0.622442055,-0.2980796669,0.736871357,0.6841258275,-0.6647103802,0.1269367609,0.1694523446,-1.3996081008,0.4806998376,0.6668083846,-0.4840906279,0.1326865662,1.0529136151,0.9435678906,0.442999335,-0.7709018134,0.0395577377,0.0135393036,-0.5122546303,-1.0602243316,-0.3124726052,-2.6641947668,0.0258311131,0.6289178662,-1.1119445146,-0.0025390799,-0.0507527223,-0.1782308471,-0.2356749414,-2.8696953913,-0.0466126464,-0.6574997835,0.4725306535,0.7728898521,0.1931355753,0.1556925404,-0.0258562653,-0.3050997077,-0.660340295,0.0199557973,-0.5605792166,0.2997475673,-0.3999736586,0.1305754532,-0.4544189164,0.0985572592,-0.6310437518,-0.1520527423,3.0117941783,-0.7071597637,-0.3321613074,-0.9214875319,-1.0894577972,-0.3857603024,-0.7032357136,-0.5073070561,-0.6412283851,0.4193689521,-0.159989579,-0.9501016503,-0.5402838943,-0.3525065366,0.5212054393,0.3257512736,0.1628233309,-0.793641614,-0.2832464156,-2.0499664231,-0.1268696191,0.6648326022,0.3783471569,-0.7388144106,-0.203735497,-0.416252379,-0.0171783184,0.0134058413,-0.1540416616,-0.5353285093,1.3982096718,-0.1765361294,-1.2795387562,-1.0415611201,-0.5102892879,-0.3938300646,-0.5581785516,0.2074356852,0.118914936,0.1787596863
