encog,BasicNetwork,java,3.4.1,1,63724630921730
[BASIC]
[BASIC:PARAMS]
[BASIC:NETWORK]
beginTraining=0
connectionLimit=0
contextTargetOffset=0,0,0
contextTargetSize=0,0,0
endTraining=2
hasContext=f
inputCount=2
layerCounts=1,7,3
layerFeedCounts=1,6,2
layerContextCount=0,0,0
layerIndex=0,1,8
output=0.999999821997163,0.761741317429188,0.00000049257187796116,0.959040601485879,0.999345502309515,0.953546393202342,0.00110282934594597,1,6.943475454,-9.124537518,1
outputCount=1
weightIndex=0,7,25
weights=13.8297780645952,10.6374592627913,12.7180196895991,-4.53185968422595,-2.04427816785217,10.2827802702267,-0.72348216932769,-0.663552988375464,-1.67858647433202,-9.54671134040475,-0.808609160529226,0.436009182895112,-4.93068494377922,0.475096674315454,-0.345900445083021,-3.30165156964583,0.767860496015286,0.33088992723854,5.01858483856163,-0.6442793656418,-0.416778563069462,3.69236029369601,0.227425098505266,0.574750043570127,-3.14356508392893
biasActivation=0,1,1
[BASIC:ACTIVATION]
"ActivationSigmoid"
"ActivationSigmoid"
"ActivationLinear"
