encog,BasicNetwork,java,3.4.1,1,63724723529402
[BASIC]
[BASIC:PARAMS]
[BASIC:NETWORK]
beginTraining=0
connectionLimit=0
contextTargetOffset=0,0,0,0
contextTargetSize=0,0,0,0
endTraining=3
hasContext=f
inputCount=3
layerCounts=3,31,51,4
layerFeedCounts=3,30,50,3
layerContextCount=0,0,0,0
layerIndex=0,3,34,85
output=0,0,0,0,0,0,0,0,0,0,0,0,0,0,0,0,0,0,0,0,0,0,0,0,0,0,0,0,0,0,0,0,0,1,0,0,0,0,0,0,0,0,0,0,0,0,0,0,0,0,0,0,0,0,0,0,0,0,0,0,0,0,0,0,0,0,0,0,0,0,0,0,0,0,0,0,0,0,0,0,0,0,0,0,1,0,0,0,1
outputCount=3
weightIndex=0,93,1623,1823
weights=1.50333756213317,-0.0975091334133619,-0.320421867193851,-1.12767920377891,-0.497455347533084,0.709547557650296,-0.813186586830014,-0.193040424664617,0.513745868269608,0.0577156594398038,-0.418201558458713,0.766354435863511,-0.582042749649492,-0.133088802642376,-0.897915393504275,1.71675279658221,-0.352786640638945,1.30225758123005,1.07934600099976,-0.268641900013127,-0.551199763310701,-0.390086969514418,-0.827028299474264,0.99218576813442,0.0800799061091988,0.255216773161672,-1.21584123869155,0.229261355140275,-0.393158868686463,1.29325730927857,0.42253680305804,0.593707664053053,1.0566248133354,0.214310727951494,-0.790180985786221,-0.348000143402256,0.287599853839539,1.18755951497978,-0.459539706814447,0.746708326855073,0.161328598466389,1.50688232470547,0.282179238871755,0.171044630905727,1.06378835314984,0.787093802559932,0.966585573155333,1.28514255647476,-0.859614757806815,-0.484214013202216,1.22972099831703,0.361762473366345,0.365622354679798,-0.601009783396595,0.511590307299788,-0.497452024187637,0.0924749688396579,1.52187307168739,-0.528247699921251,0.0870951003112342,-0.262399565136246,0.206599150363635,0.647836595609708,0.904220553697888,0.367471621009159,-0.144555717612177,-0.703680057940041,-0.40885574094083,-0.343951514684689,-0.519369504377165,0.450420317008588,-0.315791409476423,-0.314727418137913,-0.32121582607446,0.217214352949971,3.12884992335364,-0.553318265685611,-1.80889527813169,0.94311745921004,-0.68388696741648,-0.8488068691325,-0.869783513519672,-0.762017870514895,-0.752775310491689,0.486070617725989,-0.909594777066188,-0.889978838170054,-0.183283509374379,0.75397275369974,0.811140281991633,0.678459082512282,-0.30070674792603,0.484261632588697,-3.11179493713702,0.849145087799032,0.202006617493232,-0.303800800618303,1.14151410283331,1.16240073622521,-1.38286922688882,-0.73273691692517,-0.471154274197134,0.460574881051681,0.802103332151707,-1.37491670062529,-0.646408708601449,0.835850750951027,-0.470718031527111,-0.684890601148312,-0.426729398537068,0.261909227114807,-0.609162829795276,-0.600209050757535,-0.118809413710287,-0.494154302235881,-0.914212421498593,-0.523500923578302,0.50009380526702,0.924032634088785,0.55231262344509,0.485335157015517,-0.2022391014056,-1.08738872497975,0.732202594919225,-3.53207248442397,-0.190569634196847,0.244617510375482,-0.699594230251198,-0.246036987599096,0.797271461980311,-0.557471934134826,0.310698601400107,-0.38270203380946,0.165455672503661,-1.43940009768713,-0.0569370235826062,-0.972350639697327,0.960017610778481,-1.00412685058563,0.609818601774666,0.361916540520925,-1.00224143393149,0.00229066438148293,-0.859261447522678,-0.96822494356499,1.64825032648971,0.578772567491034,-2.80875365395467,0.191832294007452,2.72451973103157,-3.16451690804576,-0.455758376515358,-0.831679816347514,0.50785041420502,-0.474583510996114,-0.888949624015461,0.145742370349235,0.915595483926868,0.872280294879354,0.86410582402726,0.695094833871743,0.608370012713515,0.176035960776981,-0.376574698613409,0.288064040775324,0.750360601430673,-0.77232866078549,-0.967594817197576,0.0919298596582049,-0.0942185451715339,-1.26484426896723,0.334641951293285,-0.502724759117223,-0.182471730342913,0.16767404440738,-1.64252912717018,0.315263332412119,0.736641271975801,0.288231505680937,0.66205559624804,-1.14785885836385,-0.492108801709539,0.778172639095305,-0.199835247319907,-1.19595117729658,-2.84617909936482,0.43017244212512,-0.683800548586901,0.780269528929016,-0.739128340218043,-0.316578534181616,1.03518370882733,0.470669554927465,0.699581025633766,-0.872770864525354,-0.10495181153759,2.63118496208933,0.246222801290743,-1.66672726505946,-0.883955570790663,1.60591738388178,-0.148646617791283,0.531267132039772,0.335517332523836,0.464908250277447,-0.283136494123906,0.359816911052827,0.52231175895888,-0.0873779650253141,0.840242031831407,1.45742956781826,-0.160371142104441,0.953827510485438,0.569286404932749,0.942189864811809,-0.152285857718571,-0.0202717395009546,0.76232405735288,1.15269354636729,0.112361385552455,0.59247867464669,-0.0325931965533723,-0.787510141244862,0.409682257701495,-0.904630497954826,-0.32783622337955,-0.823481161040711,0.572203213093897,0.640781727579466,-0.488670519315019,0.7478218925187,-0.970896527998008,1.04493941138263,0.0759327378850116,0.588340289500607,-0.646125848149381,-3.5683017624018,-0.278730085770939,-0.596970680261483,0.819105907386364,-0.858834167852222,0.622822208098519,-0.144655700350253,0.484256328799183,-0.52720194041133,-0.644801039139182,2.47255646567405,-0.672881856443093,-0.930240745541053,1.25107851167048,0.659175316727103,0.786924446858197,1.01736870841403,-0.849250636156299,-0.288435440863127,-0.127940536977463,0.530602085185518,0.0467677843043429,-0.652902750136751,-0.351336313109536,0.00392043568898018,-0.432573425761691,0.501232279479705,0.502735961979598,-0.124227760197468,0.191629516540155,-0.32270210925094,0.818990725858691,0.824378540904996,0.889373852516,-0.162984740691532,0.992532622996966,0.3811428385006,0.501255728096587,-0.587586917475046,0.150670581998362,-0.869557513863946,3.25939266177757,0.0300491206068775,-0.272306990669345,-0.173213841008588,0.688244045532169,0.203378196910293,1.91672299156558,0.750856398454081,0.639543738130826,-0.372104951795007,0.0317079842767715,-0.154081864572541,0.824253801593675,0.192661314792054,-0.105436701594962,0.576433065397494,-0.174218744503669,0.115441986961589,-0.253311211500928,-0.421735527408559,1.80355178291103,0.113931564183434,0.93155981900746,0.111021510038681,-0.497143973362233,-1.15526144553643,1.31160711683095,-0.826586262731154,0.611866787351979,-0.440480578103826,0.113994454552417,0.66377795824957,0.911752575036023,-0.638715670275835,-0.0945394685280227,-0.456685933128319,-0.185097476861019,-0.869311375611819,-0.0869346554795907,0.99318139363694,0.141476562936547,-0.308295681592215,0.745400940107834,-0.339281045592172,0.930514321847164,0.444882082494386,0.555249460833845,-0.755730309713739,0.970165612320492,0.754603022953523,-0.18756459888132,3.59567774176356,-0.67611993239956,-1.2127272284059,-0.262119464232642,-0.734737334581319,0.464107984731117,0.513155719604881,-0.661295463241425,0.453218529749976,2.2314418488907,1.44097248684349,0.132789869547258,1.69951552506514,-0.904642712362723,-0.275457005610437,0.532482296169029,0.812528367067002,-0.0118383219771033,0.365743411735512,1.21577590357316,-0.229717587693463,-1.20313247408552,-0.566970413881433,-0.186959049353939,0.616370210245424,-3.30634590034629,0.253044783341719,-1.0763806299867,0.217664156676114,-1.68574770118997,-0.630544873713769,-1.04371743809605,-0.57970641720095,-0.978164966208006,0.750163365039119,0.504888643396501,0.549776537134208,-0.582853209929685,0.409717190711395,0.301609854820003,-0.468420666394951,-0.265789869796134,0.375591096177507,-0.764016087125179,-0.117489769218366,0.298046609059929,0.641643025667792,-0.576568842736454,-0.0865595569305865,-0.593254600794499,0.611639884042006,0.0653755147420687,0.187131087053395,-0.275407673580908,-0.0713033951219653,0.309619302515462,0.488225187682569,-0.651326338155813,-0.588489635574952,-0.827695187100999,-0.885566584199558,0.331994351551749,-0.0782255283921145,-0.131174410614732,-0.762452535347904,0.571266877240859,0.792143157586522,0.105167327032037,-0.125079647254934,-0.891788635026565,-0.272253958169489,2.5394159633939,-0.817339230175637,0.344020600715289,-1.23295900868942,1.05164019028055,0.912382152049049,0.308597889293264,0.940435671429353,0.642021187438872,-0.0141869506288259,-0.893392058971055,1.01293378796844,0.676916711813266,0.477809636610471,0.279268740365174,0.865243182287199,0.948380495421998,-0.406974544228602,1.45554004316864,0.751633525899999,-0.452489462401713,0.639151949706621,-0.829353810184101,-0.576422724874049,0.91912173941318,-0.282558777966797,-0.744186554268462,0.768246762813417,-0.649083602985639,-0.473473534476445,-0.247999807810783,2.29073931491463,-0.53164772209965,-0.691994185453837,0.97538265584753,0.975827272401163,0.497726951146528,1.51412150344351,-0.117828968257657,0.468819887639085,0.00908908820668658,-1.66707707678172,-0.142325168051676,1.30837581428158,-0.857964020620782,0.717237929105031,-0.158962600448384,0.253714983076402,0.60691685154337,-0.764217443980378,-0.285107019931361,0.335947459218679,-0.606922762303551,-0.033411195931682,0.32595364730771,-0.429387265568753,-0.610285538672171,1.00718027956123,-0.130956174890025,-0.597377715362179,-1.32819623490437,0.389549145190767,1.68385431676351,0.318840356226471,0.535016527182896,0.235258860240113,-0.758230673133503,0.427242386902097,-0.62307376930824,-1.01293380079425,-0.590334549272822,0.042932652505316,0.171144931468249,0.538302928076965,-0.164016133856595,0.534814076651826,0.606429198573543,-0.167249450952397,-0.273728735652393,-0.69585282519383,0.767794368081491,0.190363631206734,3.49798238548316,-0.0382317699774782,-1.83930272660806,0.760736039728269,-0.698717109520229,-0.684900974270376,-0.503765893333482,-0.442130747884945,0.466758661056151,-0.106414496482543,1.78603186787076,0.439109067254052,0.417536507508502,-1.97248800111542,0.217722209110028,0.401431671147668,-1.19966885595779,0.922244042320384,0.160715839760711,0.519211369425389,-3.33230451943886,-0.0468158154133781,0.0558907378969671,-0.491246027762331,0.120170399820884,1.18517533897545,-2.73070979929249,0.524371470592158,-0.722958838462577,1.04799863755491,-0.429993319991042,-1.26873502873291,-0.480564570743854,-0.784468429062734,0.188163960881375,-0.3849229786242,0.144225481474644,0.421417093206604,-0.563306494753857,-0.532109002706087,-0.933974196196754,0.637478655808362,0.721967384996576,-0.772614562579624,-0.683335873367924,-0.786778582160724,-0.780071578817475,-0.250533633212575,-0.0402275114752014,-0.44328622206556,-0.279575776904624,-3.16623765206215,-0.407993914308256,0.0921184505892798,0.510937225777161,-0.57302150052703,0.296991082074582,-0.355698478674376,0.837946307142473,-0.429953071153447,-0.0867943331584308,-1.48363908042989,-1.04392972872426,-0.50116550382281,0.117450258250465,-0.771469291649884,-0.653542236288098,0.483294369057796,0.196941750327005,0.474829813826284,0.602606922178579,0.973104906806492,-2.06529432366809,-0.905990533980537,-0.0869131027031285,-0.92482774694384,-3.46793810081998,0.587729870426808,-1.15910061230096,-0.750928664395902,-1.54907294959872,-0.323164125589265,-0.285124378877284,-0.478688717576996,0.644096035344571,-0.226238078009332,-0.601292774148887,0.999476571635216,0.0138643238416648,0.720617512179011,0.474144904697498,-0.941253362128047,-0.455491467090765,-0.690476601731138,0.411001887761407,-0.21574790507737,0.664082313731351,0.43310076933601,-0.301634078452077,-0.120353323861073,0.624912125482789,-0.759324205623532,0.494157377397249,0.96999804614284,-1.32303580483252,-0.939929002867979,0.872427181585192,1.71885081382375,-0.406830868849918,-0.322062424918759,-0.116426080652851,0.460944011860128,0.0363285014825307,0.70533264793995,-0.275839394831955,-0.5528487944166,0.437346968841668,-0.742421781456178,0.344351977804025,0.00556656795463819,-0.707736634187278,-0.193725198995078,3.24571388380828,-0.454286481862905,-0.689015232509242,-0.175593395138834,-0.0600556968267075,-0.221111938032467,0.559905780160756,-0.278723277537489,0.50805754049125,-0.332050949092163,0.671343958783589,1.30757740414123,0.665758848965987,0.640918938275854,-0.174117638838532,-0.430760376057942,-0.24366079657509,-0.784454184403016,0.44635463499164,-0.363127829020809,-0.17729630239182,-0.23124474791067,0.741376613584057,-0.744773531281866,-0.494047519503742,-0.377263111703686,-0.839417605637302,-0.107629359911722,-0.941103846300908,-0.452198440850551,-0.0170298289167833,2.52442811003121,0.857483636853836,-0.114249191803601,-0.935211216069391,0.0123108034803377,0.872751002715509,2.27847745199431,-0.242301831519465,1.51154741425517,0.671463583443064,-0.910499968489612,-0.851298843934806,0.969788406169875,0.974264817368479,1.06193879285042,-0.0548959384276047,0.7996289199009,0.620681307464277,0.852699689172534,-0.707508162021408,-0.278262648395385,-1.76044244739868,-0.472484834778907,0.687176581258386,0.0631470619750429,-2.62095915756193,-0.931211680521356,-1.16606961810499,0.416916191306392,0.0585492938445384,-0.163266377133907,-0.199878604430649,-0.91560922466014,0.545485214118606,0.546310063240263,0.247254313666958,0.710479553654082,-0.387428069167251,-0.832799597589904,0.636678091988051,-0.280373549685056,-1.22274666752117,0.781215285780474,0.134772607585658,-1.43788387962177,0.771145566260044,-0.0142217442305003,-0.84429327677495,0.343017694234391,-0.707073119664925,-0.197356883140361,0.47220902764006,-0.231289856573003,-0.481151726913855,-0.406239156334772,0.226124975445506,0.874702443124971,0.419798385524097,-0.672570622292706,-0.187848684931103,-0.152858719253474,-0.72995427148936,-0.612434700882265,-0.698210403508605,-1.10775100830061,-0.684210808825079,0.261406911193117,0.605038884818805,0.0726910396573092,0.114777093666968,0.903393845960216,-0.159541052374775,2.13412687296666,-0.0396047538982727,-2.33244419314507,0.00348472641943243,1.899160744724,-0.912248351518478,0.872136324232508,-0.845891391786696,1.14941064194903,0.365608140530814,1.08211377704614,0.901422547130577,0.540089762555477,0.862168961140406,0.266926510171465,0.673402161185351,0.583685690529711,-0.855437830954528,0.793842822217309,0.220193653935657,-0.106389592951598,0.650087929167826,-0.818005542117989,0.431859172044569,-0.589685897151793,-0.277589097097243,0.833507450606445,-0.982213786794903,-0.764143339580783,-1.3501993193999,0.123300633998821,-0.556970950941076,1.04842328947118,0.660095071261793,0.51751230357681,-0.783007756319366,-0.0227329404897675,-0.654470758351717,-0.568527323924251,-0.633782948469176,-2.20201356826404,0.348800040478259,-0.520364476097917,0.0188492095527063,0.521416209439708,-0.189074702183285,0.988557826722301,-0.709099842075538,0.615475200542936,-0.429776502507635,-2.6515939091196,0.708116031245129,0.543337669859565,-1.52617087438679,0.238848595171072,0.837840987423107,-2.47943070119373,0.694217424906892,-0.780939658094868,1.17450742581951,0.0432133875057163,-2.01271585402671,0.656948290605539,0.150537552847777,-1.39180845165367,0.977071616345584,-0.401817870365676,0.912604341814322,0.820307197440186,-0.390644781255091,-1.34967629659564,0.61778637752821,-0.503074918960096,0.806695739686441,0.698250503676911,-0.616534172378729,0.439042178811059,-0.631020609745067,-1.1510687539511,0.0737159602565299,-0.300684383744693,-2.62871769301028,-1.47768376262874,1.09941327524033,0.568503747493263,0.0642095060567416,-0.951497973252646,-1.10025053439487,-1.07682380340845,-1.11194123153919,-0.363403481880774,-1.13662363427555,-0.544282216684398,-0.381136004012607,0.367748758101465,-0.164623334773175,-0.381777882605993,-0.710358508150819,-0.283749666085909,0.276997524582314,-0.475858833714628,2.34169944313394,0.120466483415438,-0.454186796297779,0.179852320625445,1.25185218128052,0.451696171040758,-0.0410592943826035,0.79354544707739,-0.176457586779239,-0.254917252591054,-0.322406155673045,0.204389618143621,-0.218153044217337,-0.0991294091097682,0.698115215031717,0.558595100975873,-0.595237697750674,-1.21942214459111,0.624206492691956,0.419335866514284,0.310731528472729,0.0203429839389133,0.672766007797451,0.412203744512984,-0.129772621604061,0.906386947215715,-0.0393221665975276,-0.736947431447798,-0.440578806418031,-1.23602897856075,-0.186526439115091,3.30741773342088,0.664217563551114,-0.115624213536773,0.540101905139211,0.198002318832652,0.875499236925428,1.7105842837722,-0.000599175240870047,0.508359917282972,-0.00517300050830152,-0.561019163224069,-0.751568965031332,0.542348673493764,0.88009509578468,0.342745135390547,-0.839266105013325,0.434283718557788,0.0603361659783573,-0.312333161948404,0.511085991055512,-0.427604462684879,-0.799679034423545,-0.121814705516125,-0.870619747751914,0.104287932209805,-2.06399359944422,0.0534932119206028,-1.33577976165329,-0.171142991845237,-0.0490626548298256,-0.669307363065568,0.31783565008912,-0.716308002228061,0.621008364307232,-0.451317614287891,-1.54097368898102,0.933480090763038,-1.05272378585217,-0.65616277649182,-0.00173421031238247,-0.275059436709322,-0.991125341465967,-0.427170244377791,-0.607891372290506,-0.728552383604098,0.691084085819816,1.26951491651251,0.14196595616381,0.979844636606772,-1.04413990897957,-0.0948732594315379,-0.000896913903251733,-0.780105401523227,-1.30050878067213,0.284474595116672,-0.0960835968591662,0.0914116719240488,-0.545035794002486,-0.94927076891785,0.655085119717075,-0.462021680716528,0.806213238118199,0.435990631650058,1.08687477222964,-1.49221224932257,-0.972581680547484,0.434894050540679,-0.533737699284096,-0.499225606001786,-0.269038005717582,-0.713821514044014,0.340644402917542,2.1333835965267,0.495246469282753,-3.36839442313068,0.786787020806473,3.30585887265625,-1.24715998358363,1.65391957848236,0.314905387961727,1.98553875196012,0.828245092103372,-0.335674429654923,0.0813265904231586,-0.24998682609293,-0.583751119479421,0.132562317734846,0.457994633101856,-0.565907708806196,0.146791901042122,0.160933984984147,0.0673602172487231,0.0275735356626238,0.214275986521633,0.63810964291187,-0.146384545656957,-0.127792727727347,-1.348611041418,-0.360825944858755,-0.916534515058871,-0.179427341153206,-0.807075682289841,-0.654429256891333,-0.384337642942829,0.969315255173774,0.228393333604743,0.957397411253721,-0.605936515626189,0.300420567183951,-0.715100058197323,-0.0838687679719034,-0.756357073011509,-1.73746954745455,0.484739739207895,-0.552164569940495,2.16749733150314,0.223970555966473,0.187274183699523,-0.0313288640126487,0.0566096857209269,-0.800344348186787,-0.160207559894867,-0.497570009311651,-1.5231394840481,-0.270407061342898,1.91451317334489,-1.33956901254303,-0.458142115059986,0.452480078805461,-0.193002436513548,0.266858778085727,-0.655379542944897,-0.227312481602334,-2.00047480818838,-0.922299467922328,0.81059047105284,-0.969020817438849,-0.732836827995645,0.269231262252075,-0.384563672536548,-1.28311534877043,-0.569711789148353,0.400066584976188,-1.59815636832141,-0.139431390535054,-0.270981770519718,0.322224320742034,-0.836564128211031,0.202152579992522,0.412729148944015,0.246606458534536,0.929372857094197,0.215059608196774,-0.597774304837073,-0.544534478148927,-2.67491868184603,0.0135707431536032,-1.66210985841519,-1.22645723702609,-1.67808101678178,0.376511980377376,-0.87653969022247,0.632615200048366,1.83907400637782,0.235229465729897,-1.17903353230983,-0.0823919938331694,-2.0282338495658,0.818794526982258,-0.634351049130059,-1.66131468868135,-0.667348425354505,0.395806227504884,-0.0510884426085224,-3.17307537956732,-0.143064507532057,3.15588345167927,-0.970482990813711,-2.5489209158663,0.252579729604171,-1.63141923857639,0.411594677906993,-0.444127979615975,-0.628176088271745,0.471848835270782,0.903135583690897,-0.412916461663747,-0.557762644514564,-0.0429170865504615,0.878025761281851,-0.59377726907608,0.447966608101859,0.529583015400164,-0.94197038605086,-3.3129990732447,0.132062391438318,0.844397922543901,-0.723275507457589,0.781980159590943,0.634795167596822,-0.825787363604543,-0.566172258261904,0.199826312566188,1.20272161476851,0.139757081383167,-0.837077817339254,-2.21198770801124,-0.919470791667453,-0.0348679317711238,-0.543654672258373,-0.0161556564579511,-0.211537562533625,-0.346399622415423,-0.763355715201868,2.60631485512734,0.745161363269511,-0.922517889189775,-0.449330913764325,-1.013298289607,-0.651047688281884,-1.33130390746305,-0.439115467901906,0.674524657602666,0.982014598781017,3.01604493303932,-0.944714911883797,0.401106786141687,-0.851959525785949,0.669028767584929,-2.64041698396185,0.385319135683272,-0.177611712099804,0.379292895234792,-1.86013463427279,0.949424359923892,0.706629439856219,0.381534153307571,-0.75552253786266,-0.0834980738086151,0.663951298833802,0.736752308288939,-0.821157498494076,1.12575169945192,0.623046681547094,-0.773578740113219,0.308180358097041,-0.0924761528859269,-0.979810572288027,0.936814721698787,-0.1039650370851,0.699391833670247,-0.170178584861652,-0.953076879965643,-0.242580306695905,-0.299222537617675,2.27987563451706,-0.687447286664391,-0.871763137236739,0.930274040405766,1.04418584648771,3.06699448795344,0.335410085763508,-0.699079826253131,0.530646660218994,-0.183720933520943,-0.296050170441042,0.0123835019545553,0.983259952759026,-1.1094273121629,-0.900212219869817,-0.792882914120743,0.574593905515873,0.765885680228046,-0.517438219961449,-0.295999251471832,2.5685652982852,-1.15195658253082,-0.53718548653181,-0.683078326269183,-0.686997734441328,-0.909239442174647,0.367687390049774,-0.358898463523434,0.66708993077897,-1.18467872704479,0.283813393341291,1.84539913964709,-0.972932400169285,0.757336374259245,0.318234404429996,0.831003767801916,0.167157154340929,-0.991168047902286,-0.184733344721271,0.464997108848976,-0.43916891189896,-0.592926086510032,-0.88885377601844,0.976026206198044,0.631788482772554,0.680372211933309,-1.01029864016818,0.250977785254818,-0.200118379096463,0.247274202956387,0.759703626116833,2.91152381395486,-0.367122891797183,0.418077246806062,0.432044647369555,0.546274649122485,1.31941561660625,2.16186649742437,0.126129634352368,0.532658758864725,0.366036360160697,-1.14680792865263,-0.260868412831178,0.58712155115191,0.5658832417156,0.741419211909021,-0.724586721182981,-0.729246966060273,0.493455579622954,0.700541403610511,-0.558694921029962,1.75577334224941,-0.274082965828957,-0.0285389611385944,-0.807772612124322,-0.00114745005962785,-1.77424301303612,-0.444958287805765,-0.506220851026578,0.0102014940524016,-1.96710052912411,-0.0365596325306965,0.999435721037647,0.956338643076056,-0.757268721124748,0.880421143273321,0.254246452379155,-0.610270408428167,-0.0837518459703809,0.120803039466032,0.938269189598281,0.692138393570035,0.494447572079695,-0.751920087774945,0.553740444317223,-0.616216938569796,-0.602923041955998,-1.06552706445243,-0.24704112794811,-0.146219021870624,-0.307384576291237,0.585112991055992,3.1332582754327,-0.531037616924074,0.276744482515514,0.938275787950622,1.13701281086458,0.939621241312909,1.65676047367638,-0.424484396935759,-0.307136284723729,-0.213905617856144,0.842035470537765,-0.341235355794772,0.97536552551918,-1.26738560686077,0.793346433804066,-0.139832487556773,-0.257344190262325,-0.185132359351931,0.757823351331904,-0.590969774377751,0.756060969902231,0.442148603204454,-0.418817646929816,-0.0109892798889146,0.027073066228569,0.24190670229272,-0.286423797007382,0.330680798960235,-0.242053055782827,0.42598657931734,-0.795015321949038,0.667538761658379,0.289016735408929,-0.15379727964932,0.20380287859766,1.02196645709778,0.753840993043893,0.0138434082918332,-0.727228196278903,-0.701116453717051,-0.233745013006844,-0.645360689479813,0.915720060428474,0.84199637546588,0.979794407613793,-0.410728672244925,0.395713848789469,-0.830345896856904,-0.899024431546696,-0.360609248581766,0.110244040040793,0.281713766725228,-0.589470221606069,1.58771612907808,0.641640269030649,-0.522478990034423,-1.4687305540175,-0.329763493630925,-0.803978031490826,0.872794313297045,0.384953831454345,0.641282251005775,-0.515279997845776,0.721016348535668,0.856625432209083,-0.451412931736052,-0.305705196832169,0.208501908559586,-0.0121962479128019,0.573633425344542,-0.201941181533943,0.513251975883381,-3.14763976701851,-0.185414670188266,0.0441994766142216,-0.48959609935507,-2.564346744159,-0.0873598750156164,-0.181837566395215,0.456154659137202,-0.805157320402263,0.967525201834517,0.418930494118915,0.300607946375668,0.449698128481255,0.274120862257723,-0.818914966826753,-0.260821296489249,0.035189508092119,0.414865480463424,0.636100666428032,0.889905375377231,0.241015930341352,-0.750071762944605,-0.613222462013118,-0.417697885187463,0.397290469797929,0.416652310290298,0.697147506148157,-0.476753123792239,-0.530519357731924,1.25184370488163,-0.144101933260123,0.00165299479577366,-0.984120266631913,0.464747646574279,-0.642444419532523,1.20704672123857,0.0306172023437066,0.0971562020811048,-0.885126356580959,0.217996440045441,-0.345336854221107,0.441265759729438,-0.384335193822316,-0.445756792891338,-0.429202012476373,-0.458063749344118,-0.624739176418976,-0.380318563167387,0.927999404225498,0.0698833014210143,-0.476518008281858,-2.42004244250207,0.772709019833016,1.65560737064795,-0.338306252560954,-1.9449867113792,1.2586331335815,-1.35450941491803,0.223609705094066,-2.69854613440935,-0.300630196603308,-0.27183054009072,-0.482489709501383,-0.804466315454089,0.927778619307922,-1.31752940773104,0.983027913599754,0.00482966505527357,0.0300870495743989,0.746020921387719,0.219646505648106,-0.783578816665818,-0.668326650591719,0.890308579310802,-0.403404080509936,-0.340535668349143,0.591789076198167,-0.220235670089133,-0.388862446597248,0.198862163885525,0.714955799432358,0.262685701240034,-0.481530500266366,-0.805893798395622,-0.62495732010573,-1.00167024231244,0.108732379744383,0.572727891301144,-1.05198381380387,0.30672814884243,-0.132653259927245,2.04801879560908,0.992447460066735,-0.21747022919239,-3.28883280586823,-0.424712043943448,0.97254798094395,0.0833361740367654,0.407462742810586,0.96235000093577,0.247335874125052,0.342729898794894,-3.27170006818643,-0.484723946372012,-0.676954421368173,-0.249821948493981,-2.46880665830707,0.369409509261329,-0.0825253390830593,0.673483934101408,0.379044231750464,-0.108606829824209,-0.361337035317597,-0.886352421662934,-0.602747351677505,0.593119472075775,-1.08813917480043,-0.553137053527467,-0.956058990108901,0.659665073085188,0.146934130738691,-0.139128240355816,-0.119195807280323,0.245148125684423,0.838957666276352,-0.507991367895525,0.467766743836816,0.946827676044782,0.485339687897516,-0.297623715036373,0.945229920465024,0.471219851311484,-1.06051039613677,-0.446094337456671,-1.35988625727277,0.640025027859968,-0.74537001820182,0.0995502015363193,-0.374895539332598,-0.712832407811206,-0.299417001664134,-0.287669749085731,-0.447738709640195,-0.561081328224894,-0.800701667787834,-0.422670405216507,0.0909272176392503,-0.783723284389695,-0.342848910668562,-0.321139269216749,0.609590925420444,0.244467313049579,0.475775794813305,2.69653653773278,-0.794084516714739,-2.70627799677915,0.919353837134248,1.66812743897888,-0.771420942461146,1.30629248896162,0.448060824524407,1.62115747943531,-0.98413616511232,-0.529568189047076,0.78351161432616,0.856725634940307,0.0693927635761875,0.434227416281694,0.434139366929484,1.34425184082785,-0.217873395578318,0.0356141570558837,-0.661708244896358,-0.141192946217832,0.395721290910487,-0.660548721213964,-0.128311192663457,0.727711452044412,-1.13388987292661,-0.672530117756701,0.221237848150189,-0.619550327570527,-1.17556248176115,-0.724441995633413,-0.140774682695407,2.48685176521819,0.148925142897724,0.754091236650288,0.199534586282463,0.726127695653647,0.348154691921386,0.821750670586131,-0.0605295606169522,-2.97777321995092,0.122156860829404,0.259202439970897,2.99105131407743,-0.337049663280067,0.727284591518009,-0.889623337349446,-0.158318199732256,-0.602134197159733,-0.874052399710777,-2.35749302649714,1.06374821257903,-0.417911693292163,0.357437471479009,0.355923498326318,1.32309476856441,-0.169472294359222,-0.678166742775667,0.124104698434987,3.43523088458663,-0.03913442932029,-1.59866169595842,0.790886416933912,-0.778296187416788,0.577923906493431,-0.00987883042631624,-0.227655465354983,-0.550301845615192,-0.650161997606681,-0.966829075530674,-0.815160801616223,-0.302191233095802,0.0922163301576937,0.291995820297485,0.915966008380412,0.340299270739918,-0.712311795151239,0.11821849315633,-0.374657647393019,0.169683381493734,0.745386859777098,-1.76268413946118,-0.0415792277805876,-0.193701781701877,0.87499351421138,-0.213018165889298,-0.759687927948777,-2.00914324923658,0.0689222090389217,0.370928535803907,0.475166646081566,0.478277711805179,0.359153303019308,-0.659995845500378,0.876612513560833,0.514954220277702,0.35536784462415,-0.218714042557363,-0.887016523931276,-0.25042510803343,-0.355201344636828,-0.272029582072063,2.01617447395591,-0.391955625141019,-1.38400400537407,0.97559135222253,2.50334978048806,-1.6545770529626,1.56073557483253,0.703258778761727,0.641602854042807,0.867237386231887,-0.268767718211174,0.518598324395064,0.829586959364632,-0.546869997655447,0.658541816381059,0.982955981969347,0.503204365879951,0.600452056924324,0.878185190228133,0.338108595152436,0.611299385100955,0.12472154252451,0.336855191496716,1.5740952732052,0.283939339818405,-0.659923708653891,-0.599846237697567,-0.34350860181428,0.564575529122202,-0.334831581887163,0.136286686703696,-0.55956125066246,0.270283860873243,0.613232567726277,-0.440756520902857,-1.39074219215539,-0.64670618283409,-0.626504899735565,0.30499221225795,-0.842684410711603,-1.88781990306776,-0.487542600132312,-0.416129324639276,0.516678270786065,-0.330122090539719,-0.957824657651514,0.541785084453544,0.759945081459566,0.312879244151003,-0.215661212436697,-0.843695562697805,-2.73091453828386,0.691715421169864,3.30015197657947,-1.10197830859315,-1.95069023606825,1.07631124157063,-1.24218799243038,-0.253560923648095,-0.0629713867494298,-0.77709056985429,-1.07739871562337,0.685114993567166,0.798104996698957,0.85653168140167,-0.659658940603798,-0.764046758327887,-1.17520842333355,-0.836104385502918,0.0384002714352218,-0.588752737101751,-1.26264319670764,0.160152125688108,-0.874347185576589,-0.914814711868524,-0.180534310257311,1.97010733865757,-0.875456215210937,-0.441069997611255,0.461037327356866,1.8133671024885,0.559737549807195,0.765219926700331,-2.05799380614289,-0.852840971133132,-0.00964449209260961,0.869382683620501,-0.729642216805202,0.30255125893748,0.910686944569781,-0.70311246858589,2.86292956917643,0.0866569564836831,-1.02612880222785,-0.174737047147029,0.258049452853785,0.418615776750313,-0.0112944194412764,-0.0596227222644364,-0.711949052760354,0.648652486315068,-0.672361737305839,0.21920958090872,-0.669117815394568,0.395395265152143,-0.815309959377772,-0.710588335856138,0.400774343615991,0.350547000463375,0.229498695500427,-0.168723378381097,-0.602984339006384,0.71089626257794,0.75702861783422,-1.13599269643202,-0.36361126278658,-0.975592050549943,-0.788112446908333,0.78085714034194,0.712096561021775,-0.298801540535084,-0.554712943500938,-0.688668925328492,0.645175774258178,0.0563739196939272,-0.0840921973549259,-0.128157986853345,-0.705837809368194,0.639209268514746,-0.805909218517463,-0.427535633044334,0.156102746741522,-0.00714805303474331,0.829717535883988,-0.215081532052174,0.15277142222052,0.237981140326816,-0.178814550479322,-0.622137456093164,0.829246262964674,-0.739367705716573,-0.302337376703432,-0.62567330742519,-0.513900626696853,1.46130873560189,-0.419981551427758,-0.0529060132227401,-0.805942212444936,0.324461895088042,-1.14894894224524,-0.248491475008657,-0.161094694529611,-0.0263528130139936,-0.802898315317183,-0.941102940316127,-0.443649792375253,0.314767857229927,0.712316702423765,-0.0741401207297529,0.521266374595029,-0.196812007829692,-0.904184346587483,-0.278312396909256,-0.0184694883359921,0.638202098905203,0.823502802592627,0.825559704957884,0.345085051204723,-0.258272515422792,-0.327936804612816,-0.800945503742968,0.957505606119523,-0.214916092046148,-0.656981117425943,1.10629428201983,0.985086164392478,-0.452585868092899,-0.105837815518415,0.286866143081857,0.137845973163678,-0.746605451100788,0.665072008951508,0.3924827765976,-0.381878795496176,-0.532895768253177,-1.12969281197735,-0.296558193349457,0.266608264911505,-0.168135147154394,0.0646000274755731,0.474501473512056,0.775315075101245,-0.620500751730521,-0.308065671455239,-1.64709433632262,1.06871795402836,0.461901043359261,-0.144139850113606,-0.351064118652541,0.188957596886604,-1.03555574231108,-0.589076990815169,-0.906289122622735,0.0766142667383488,0.0835435526584246,1.32586036392425,-0.684020298631638,-1.02477872134372,0.626528247085646,0.533413815867814,-0.262215774408409,0.148900295543764,-0.316278083089869,1.12738225649119,0.997159061485277,0.675255559755515,-0.805107000659968,0.875820476200115,-2.00233117967692,0.589403564990593,-0.627543161753585,0.989075570250431,-0.537853830688192,-0.427541729205633,0.421051062349487,-0.806524979794177,0.245296180910802,-1.22171872560206,0.021458958286773,-0.133829256385642,-0.144645304427463,-0.0145216970221446,0.9473654921705,-0.725803438502272,-0.208497081128181,0.444071397516537,-0.536332243702343,-0.989492597337017,-0.670789104708605,-0.482775924282353,-0.74164370016155,-1.03119944065809,0.727163906106569,0.529971825695816,0.583011270330991,-0.199167123185083,0.324298398586921,-0.736673720082815,-0.307394988179996,-1.10361900405792,-0.0996485599536209,-0.299279801640883,-0.240677646472201,0.177561721875128,-0.468760578844212,0.597606357850044,0.0881729380516208,-0.894154992303324,0.929576327991475,-0.535964878966783,-0.135937843976281,0.643226303134126,-0.259009453804747,-0.588366284525237,0.11506055718107,0.919561131574242,-1.56549949014075,-0.698904348154601,0.345474332951929,1.24062748665429,-0.0766754720057413,0.344980017825859,0.318489058032301,-0.799836198116018,-0.174050822031708,-0.190506841808887,0.276124063566618,-0.260124732940516,-0.980081684878134,0.526724954688328,-0.279819374568676,-0.880958110436684,0.121832316356866,0.380800758640189,1.00563982038672,0.789328839873024,-0.343735393417101,0.698063204388862,0.361048464859393,-0.72973581698655,0.721330426970418,0.272362320369511,-0.867187839404069,-0.856895119704723,0.737953922613735,-0.0951171966267365,0.975905166020806,-0.370120662380625,-1.08541233603126,-0.877980196542142,-0.958977144216875
biasActivation=0,1,1,1
[BASIC:ACTIVATION]
"ActivationSigmoid"
"ActivationSigmoid"
"ActivationSigmoid"
"ActivationLinear"
